2708 128
0 -0.055075374 0.022445021 -0.0078111757 -0.22726823 0.09528727 -0.028024804 -0.053113062 -0.29597136 0.17793858 -0.3451347 0.16637413 0.102094136 -0.043904494 -0.00050530676 0.4192421 0.16300152 0.14040904 0.04663767 -0.05668292 -0.1717072 -0.21347632 0.076383054 0.18172312 0.019195374 -0.15257345 0.044505056 -0.10592291 0.06580909 -0.014478416 0.036124494 0.12578234 -0.07441762 -0.029575082 -0.13584171 0.050208326 0.1225369 -0.026593016 0.04094312 -0.14028646 0.25586352 -0.16417891 -0.11380667 0.1927062 0.06035064 -0.14548038 0.072893485 0.053458184 0.033351313 0.13911934 -0.11578455 -0.120614946 -0.23449302 0.14445896 -0.19964439 -0.058687292 0.11221092 0.15088584 -0.18663856 -0.33242595 0.15577818 0.18394543 0.15486191 0.0013769347 -0.10961552 0.050114978 0.18142965 0.33271337 0.0058901166 0.22739956 0.021311777 -0.23522355 -0.23868684 0.1266755 -0.16694807 0.24962866 -0.1355237 0.015225641 -0.11199204 -0.05856147 0.0650184 -0.3829195 -0.15567602 -0.2241752 -0.026348747 0.13468064 0.2549863 -0.08414187 0.020917187 -0.3000547 0.026057702 -0.15788253 0.037270244 0.0660934 0.012270836 -0.25923485 -0.028548412 -0.19399041 0.03208259 -0.07755763 -0.10873914 0.13189287 -0.029246006 -0.10017998 0.23794946 -0.28775287 -0.020620557 -0.48227078 0.2206197 -0.38591653 0.030023156 -0.08813235 -0.24832183 -0.13934237 0.23441197 -0.45552126 0.00090386556 0.00058679836 0.21920477 0.047467213 0.15222666 0.18015741 -0.065753646 -0.0073852423 -0.3202404 0.2812041 -0.098374754 -0.03970686 -0.08596354
377 0.06569053 -0.15752438 -0.30286446 -0.2805073 -0.28338894 0.30626044 0.14809075 -0.17673089 0.32700387 -0.11193303 0.016489761 -0.21956946 0.21185412 0.087197624 -0.21075884 0.1515825 -0.0260334 0.18333386 -0.45746723 -0.07185742 -0.32122752 -0.11662892 0.15765591 -0.15665989 0.08305963 -0.12219692 -0.23156907 -0.013236733 -0.3511709 -0.19759436 0.37148812 0.06490021 0.029367063 -0.03435444 0.014858002 -0.044960808 0.27901298 0.2593723 -0.017584456 0.25344622 0.3154654 0.1025073 -0.16256008 -0.22226578 -0.34314248 0.12764409 -0.16125517 -0.063750446 -0.2565166 -0.44727302 0.20728171 0.2876922 0.117397025 0.093909204 0.07740639 -0.19359207 0.18436663 0.17529409 -0.019496799 0.03041949 0.34418964 0.28121606 -0.057469144 -0.58094 0.059524097 -0.033328537 0.022835184 -0.14442757 0.12127225 -0.07649483 0.060916495 0.24147241 0.1369142 -0.28067014 0.26637408 -0.22307415 -0.10659111 0.086870626 0.17773081 0.12831162 -0.108443856 0.29975402 0.22881529 0.09372473 -0.05801629 -0.026067248 -0.56322473 -0.0017759657 -0.031563975 0.101627365 0.0017144431 0.03989673 0.37019217 -0.20669886 -0.1117131 -0.09635572 0.026957221 0.32882348 -0.20567083 0.42314813 -0.116953805 -0.5167827 -0.05733345 -0.2143532 -0.19710486 -0.0070392163 -0.34854016 0.09605575 -0.36558345 -0.12260989 -0.0959423 0.10009231 0.03440914 -0.19000201 -0.123065665 0.14595975 -0.23112108 0.1647562 -0.0544283 -0.1904472 0.08757552 0.04276432 -0.30787095 0.045657657 -0.10624419 -0.20459549 0.027759193 -0.3266165
261 -0.07054596 -0.021218887 0.12902543 -0.14091465 0.19328617 -0.1569452 0.029342884 0.020856233 -0.29851958 0.10873949 0.0019310876 0.10551044 0.17833406 0.110670805 -0.23045434 0.17788395 0.010211623 0.008212811 -0.16739279 0.22418557 -0.1008019 0.24627368 -0.16239047 -0.059371855 0.050909948 0.09111019 -0.23645791 -0.2406283 -0.025487332 0.009516255 0.47506684 -0.13420135 -0.0449491 -0.53561294 0.2847121 -0.09560348 -0.002392393 -0.10692478 0.21569926 0.24160632 0.28391626 -0.1570087 -0.1571665 -0.120464906 -0.24982913 -0.062304165 0.22002007 -0.1369425 -0.0081802625 -0.01717642 0.17801209 -0.22186196 0.02551504 -0.39342585 -0.069801904 0.24327618 0.091528706 -0.28763565 -0.16273423 0.47460192 0.21460488 0.11272138 0.017747415 -0.09162426 -0.32656857 0.21378474 0.26606554 -0.030458473 -0.16166976 -0.07630879 0.21102232 0.048288472 0.12945087 0.25508767 0.05595433 -0.011634207 0.029192623 -0.08375423 -0.037778333 -0.0073105046 0.052216813 0.15273628 -0.010482251 0.13745615 0.03601137 0.11549756 -0.06011101 0.27498445 0.23700844 -0.27054545 0.028184233 0.014323532 0.119769864 -0.23534457 -0.46009386 -0.5065538 0.16730185 -0.068272404 -0.15841141 0.08304356 -0.035844646 -0.55214626 -0.16566947 0.0029581024 -0.084819354 -0.14618348 -0.16064401 -0.03476533 -0.011286046 -0.034737527 -0.034661703 0.09359946 -0.25707898 -0.21933469 -0.08732225 0.059481625 -0.6049413 0.19639714 -0.41811 0.28551877 0.08796674 -0.045660056 0.21360758 -0.3675672 -0.18306755 -0.35513115 -0.14844392 0.00020493391
714 -0.077572376 -0.02480917 -0.15726976 0.121447325 0.13972422 -0.0387065 -0.09659394 -0.35308126 0.045695372 -0.19033496 0.025471281 0.18799911 0.023041636 0.008937138 -0.08619582 0.18168439 0.10848377 0.24420325 -0.35965824 -0.033343803 -0.09116768 0.13024087 -0.09273797 -0.24119459 0.009029124 -0.08084771 -0.1396045 0.14778937 0.11452153 0.13875493 0.44084653 -0.060816016 0.17683174 -0.17081521 0.17379478 0.08441245 0.17908905 0.016966358 -0.36283657 -0.05056805 0.48670512 0.24742682 0.08344479 -0.23378728 -0.1701301 -0.06467059 -0.2667298 0.032308068 -0.23271376 -0.07158053 0.38844755 0.22890717 -0.0023305707 0.11411461 0.2824346 -0.21666317 0.013357182 0.04974846 0.008411965 0.17895453 0.35355204 0.019824233 0.016447496 -0.42309186 0.13167265 -0.02762323 0.12096799 -0.36445504 0.32182524 -0.16759299 -0.09023875 -0.019796906 0.07984893 -0.41209325 0.12058286 0.056599583 0.14654356 0.42141065 -0.2005137 0.04400804 -0.061712977 -0.038559146 0.27689207 -0.21226667 0.11265371 -0.039430868 -0.04918981 0.06858725 0.18875462 0.21982884 -0.033647396 0.028674314 0.008887054 -0.08085659 0.044516575 -0.020922577 -0.25787547 0.051139414 0.01960734 0.29102027 -0.21505205 -0.22430983 0.09382943 -0.03599923 0.30868775 -0.11961282 -0.054855578 0.10754665 -0.31008774 -0.024397057 -0.2196802 -0.055043902 -0.29283857 -0.13753791 -0.1470823 0.0046471017 0.02915027 0.4911037 0.04499681 0.5573543 0.34229 0.12708768 -0.087660395 0.1270668 0.050205145 -0.0031532426 -0.43089622 0.19201869
272 -0.13238323 -0.28105277 -0.0063431724 -0.40447602 0.028243877 -0.1877994 0.19331107 0.0515397 -0.08970012 -0.004083617 -0.205546 -0.09652854 0.37132642 -0.2552667 0.15693377 0.37600797 0.16183633 0.0359012 -0.26250607 0.15998384 0.06697968 0.23623118 -0.08315992 -0.16621277 -0.11132222 0.066600844 0.29234216 0.27204174 0.15421325 0.028200438 0.14938305 -0.22272182 0.051031608 0.26033384 -0.12047926 0.003703352 0.604186 0.035402 -0.11659151 0.51989096 0.28751302 0.26550174 0.08025459 0.30168808 -0.040372137 -0.24781394 -0.04266978 -0.37410092 -0.06820166 -0.19804698 0.011316541 -0.49992388 -0.010553431 0.19987836 0.23386024 -0.33174062 -0.43797433 -0.26465186 -0.115476295 -0.35898942 0.41696814 -0.091153875 -0.035682302 0.10528705 -0.089490905 -0.19676545 -0.5490875 -0.22675802 0.036387157 -0.36923188 -0.2245279 0.14193277 0.0058184126 0.17954513 0.17349392 -0.14382273 -0.08450731 0.09278099 0.1579771 0.048784718 0.055488035 0.0089945225 0.3400506 0.09669703 0.07413446 -0.34120473 -0.18139872 0.20280406 0.1713727 -0.09000205 0.07662121 -0.067066506 0.12913075 0.372315 -0.2178957 -0.30446047 -0.19249904 0.12410303 -0.17000996 0.51944 -0.08527983 -0.5274922 -0.06433031 -0.046010017 0.014794728 -0.05459547 -0.60204667 0.19067991 -0.10904213 -0.1542351 -0.027880052 0.031375125 -0.1975366 -0.35879236 -0.19438231 -0.0059076305 -0.23166354 0.052299198 0.1664216 -0.0055718548 0.38265598 0.28347346 0.009583896 0.121707484 -0.1277941 -0.12501653 -0.25413013 0.10857279
818 0.10329242 -0.1867621 0.41017222 -0.068636976 -0.114766374 -0.45328 0.039845265 0.39085308 -0.20211999 -0.12130456 0.14289032 -0.033740837 -0.036264952 -0.160965 0.015032183 -0.07061399 0.14148997 -0.050398264 -0.010002324 -0.14658737 -0.10114486 0.13099964 -0.12792483 0.17064437 -0.17385311 -0.27599192 0.20793504 0.23454425 -0.13639076 -0.08663323 0.20817508 0.3457092 -0.16807918 0.06202888 0.0031691953 -0.07501598 0.17970009 0.44475985 0.40452757 0.0647008 0.19108932 0.18807214 0.03802952 0.25753558 -0.1349511 -0.32451573 -0.29639444 0.19176723 -0.012286806 0.08687507 -0.30299506 -0.08963378 -0.07430976 0.005446872 0.13944498 -0.1936146 0.34007293 0.0049789734 -0.31950843 0.106597334 0.36816332 -0.11897255 -0.20828883 0.024525005 0.14132783 0.10009958 0.22341424 0.103579484 0.045807566 -0.09398649 0.25680563 -0.22645846 0.1757004 -0.04065985 0.14256012 -0.034338348 -0.09535698 0.6554958 -0.14373212 -0.06604737 -0.00893021 -0.00288413 0.096437514 0.25729895 -0.294595 -0.13117784 0.18897265 0.07478453 0.23813614 -0.015934851 -0.08508104 0.22685722 -0.1798136 -0.17754678 -0.3171395 -0.20759422 -0.24263412 0.26824638 -0.008966354 0.31710747 -0.5061735 -0.70097136 0.23286512 -0.16536096 0.34064537 0.22936884 -0.4917505 -0.08164648 -0.61338097 -0.05247082 -0.023152709 -0.20439152 0.2271051 0.007949626 -0.13133812 0.18448365 -0.08118064 -0.035329636 -0.22319561 -0.10982307 0.58226883 -0.046036985 -0.19182554 -0.030020127 -0.19497466 0.046845913 -0.30987152 -0.23795481
170 0.18894677 -0.3530206 0.13822731 -0.17327595 0.33832565 -0.1007479 0.09092322 -0.002166511 -0.0416122 0.13414696 0.15478721 0.22116637 0.10512811 -0.14577505 -0.3050324 0.14749856 -0.044467065 0.2729426 -0.08119146 0.14504538 0.039577648 0.4202526 -0.27158302 -0.4313164 -0.017460193 0.054120805 -0.15833409 0.034289725 -0.06592985 -0.07205015 0.24523848 -0.23259147 0.12459069 -0.4159581 0.37699604 -0.38813242 0.09168672 -0.32802445 0.029686019 0.34653533 0.15737136 -0.1985501 -0.4007508 0.04104905 0.18464784 -0.09971632 0.3756799 -0.0665694 0.0057814345 0.09342589 0.06658809 -0.2571632 0.043507088 -0.10955322 0.005795821 0.3718908 0.10939501 0.12171866 -0.12596014 0.028609894 0.13115856 0.12123626 -0.007225724 -0.08876341 0.09249189 0.32074684 0.19259703 -0.07298081 0.27545717 -0.29067028 0.16782205 -0.009568948 0.018706119 0.12871245 -0.29106665 0.19359893 0.16276842 -0.07744094 -0.0817143 -0.1776056 -0.059285637 0.061678465 -0.2974056 0.300193 0.031847775 0.10465879 -0.14698549 0.32809097 0.22215183 -0.16698466 0.33196247 -0.007897694 0.10001716 -0.42431924 -0.61369973 -0.379745 -0.0005011 0.098528735 -0.14719033 0.3519286 -0.08272708 -0.32803598 -0.43602723 -0.09559996 -0.11434519 0.10503807 -0.06749186 0.16696848 0.1768075 -0.035107996 -0.08823712 0.27893156 -0.42433572 0.022371793 -2.2287764e-05 0.23740518 -0.5792584 0.15341581 -0.19825208 0.11933647 0.14056584 -0.14145263 0.10663229 -0.7498039 -0.026333354 -0.4748633 -0.25919485 -0.31848937
760 -0.10795321 -0.16396847 0.043949712 -0.20298646 -0.23545693 -0.23952797 0.063635565 -0.081469394 -0.22354262 0.09436404 0.11741925 0.33883518 0.15300894 0.2679641 0.14566556 -0.07034569 0.037745778 0.25840575 -0.026380911 -0.21456963 -0.067270905 0.040628653 -0.0500288 -0.28912082 0.41884315 0.4869095 -0.07062616 0.037370745 0.14768453 -0.33314654 -0.035741415 0.37724885 0.012177154 0.21124572 0.092454016 0.11016149 0.17069288 0.33833614 0.08435657 0.16604033 -0.08014249 -0.49348348 0.21339709 0.44425964 0.47639698 0.015928801 -0.33497483 0.17175779 -0.16436248 -0.15854472 -0.27395126 0.19331096 0.20808221 -0.11034082 -0.17989154 0.35644796 -0.040737808 0.17836657 0.1806393 0.33144403 0.17287849 0.19608447 -0.11660327 0.1501207 -0.19121751 -0.3525968 0.17264639 0.09103391 0.112791136 -0.04420958 -0.48669344 -0.30357686 0.1244085 -0.21636021 0.42343447 -0.15773852 0.085933074 -0.026995594 -0.10726842 -0.074244335 0.26829183 0.03716108 -0.311066 0.16312909 -0.18710604 -0.0751414 -0.07245694 0.06536883 -0.18186845 -0.17541665 -0.019711278 0.27522352 0.2566955 -0.40457106 -0.10538986 0.25221094 -0.18339512 -0.10240896 -0.22827297 -0.36991906 0.10085108 0.03364166 0.009993875 -0.35104674 0.45501027 0.039093103 -0.2791852 0.22699639 -0.38375393 -0.20678265 0.11635547 -0.15393753 -0.16404694 -0.06746614 -0.30392614 0.07705743 -0.21400838 0.3416442 0.15526322 0.27848315 0.30057865 0.32670054 -0.18430085 0.20910129 -0.23310274 -0.18111755 -0.34356877 0.028312612
1493 0.16302341 0.15226354 -0.020232238 0.067126274 -0.16530222 -0.00084966386 0.04507153 -0.020315189 -0.013560423 -0.2694596 -0.2931451 0.119551696 0.31378758 0.20813657 -0.09230659 0.21620904 -0.14054723 -0.11192046 -0.35034776 -0.291701 -0.5663791 -0.06729205 0.08418754 -0.23663405 -0.008784802 0.11002277 -0.07156181 -0.016764216 0.05064261 0.06998681 0.16135077 -0.042429484 -0.17035048 -0.21149795 -0.13607398 -0.2152164 0.45132917 0.17718446 -0.13175918 -0.08223567 0.2332905 0.29760653 0.077277385 -0.03948734 0.14150482 0.16797179 -0.021330811 -0.2402766 0.08325276 -0.0034299302 0.11396821 -0.24896102 -0.111195825 -0.006674404 0.3947795 -0.2163791 -0.09520121 -0.18820585 -0.25454825 0.07682102 0.33739322 0.2395741 -0.21880357 -0.7110527 -0.040915526 0.24994428 -0.2199564 -0.37538862 0.37230745 -0.16861883 0.16028224 0.06370086 0.008462202 -0.26110256 0.50040585 0.11753323 -0.08438467 0.40579304 0.1708832 0.22077225 -0.40190837 0.10851322 0.19857746 0.22054861 -0.11517882 0.007453647 -0.45559642 0.0061048116 -0.033783056 -0.021017417 0.15761279 -0.009385502 0.5852008 -0.3482086 0.13476856 -0.34883296 0.083650105 0.39963165 -0.5154006 0.4452438 0.009225408 -0.095204696 0.4972638 -0.2242702 -0.16956098 0.09654612 -0.36468595 0.32004252 -0.26887414 -0.20766157 -0.21571335 -0.02665543 -0.44027126 -0.7154158 -0.31868476 -0.15265793 -0.17414252 0.07694805 0.34072188 -0.41489798 0.036191795 -0.09244531 0.11080347 0.37795067 -0.050374772 -0.22817945 -0.4926018 0.08044883
346 -0.22387183 -0.19890781 -0.13868065 0.28460017 -0.48422134 -0.15180431 0.36376905 -0.28188694 -0.28211164 -0.06517179 0.07427128 0.020626023 0.18432887 -0.1840449 -0.044254802 0.723475 0.32917866 0.54822326 -0.024632292 -0.11292659 0.11809646 0.20847361 -0.04613029 0.19627523 -0.16688201 -0.04205184 0.23885427 0.28323597 -0.26882932 -0.25551608 0.22207037 0.49152997 -0.008958066 -0.0860684 0.08857499 -0.15838411 0.09424677 -0.010019408 0.3583303 0.34138733 0.43984964 -0.30930522 0.14301988 -0.28018588 -0.025676401 0.038280103 -0.14809896 -0.046289437 -0.26022476 0.037026018 0.01565087 0.11634394 0.14225931 -0.072302274 0.1503307 0.13551018 0.06515332 0.082243256 -0.11114085 0.26352406 0.19336851 0.26338282 -0.19348043 0.3997054 -0.007945398 -0.12729909 0.2495984 0.21972843 0.3023972 -0.03949262 -0.03609454 -0.26551035 0.22131068 -0.37984276 0.16767792 0.22871695 0.284768 -0.113979764 0.07282443 -0.01875776 0.2287176 0.061183386 -0.19735181 0.22174962 0.078672625 -0.38640553 -0.1986877 -0.22617626 -0.03667855 0.051734556 0.19194761 0.21302947 0.0993181 -0.0119507 -0.20147498 0.41564777 0.21177885 0.16163155 -0.3002004 -0.07840808 -0.014910057 -0.022009538 0.26438138 -0.039249383 -0.05389588 -0.06468565 -0.19485515 0.36206618 0.17876808 0.19150943 -0.14616169 -0.13031447 0.13125472 0.2661641 0.040530443 -0.20667544 -0.29488707 0.2422179 0.1694892 0.17457584 -0.11607595 0.10230403 0.16788428 0.14980607 0.07783707 -0.046898145 -0.06587387 -0.32614064
528 -0.5609696 0.05205179 -0.296494 0.29256347 -0.16554558 0.1699023 -0.21167378 0.07879454 -0.35115498 0.085634336 0.15389065 -0.10487482 0.047225222 0.12895483 -0.20702414 0.5960533 0.070961185 0.9619021 -0.20422956 0.13835855 -0.18805566 -0.12088981 -0.44795987 0.021407215 -0.41982058 0.00960265 0.29067507 -0.0429504 -0.12632346 -0.009640208 0.24133544 0.20848435 -0.2743005 0.10846578 0.08075009 -0.024003811 -0.34344342 -0.068242185 0.48080328 0.15943532 -0.07854144 -0.1395749 0.17891362 -0.18036234 0.22485155 0.2690013 -0.32367805 0.28764302 0.05354593 -0.3042883 -0.3308341 -0.12692676 0.24507478 0.13710013 -0.0310078 0.04092785 0.13185038 0.10373881 -0.42764822 0.30797264 0.47210845 -0.19027579 -0.021131007 -0.22789446 -0.013951101 -0.2512998 0.46627834 0.01287307 0.45811635 -0.23820266 -0.09624697 -0.17700605 -0.122736126 -0.033951193 0.12963949 -0.17566735 0.05971764 -0.35606277 -0.17116387 0.3567099 0.26158488 -0.16825229 -0.27759227 0.13378173 -0.26045805 0.4353808 -0.26017523 -0.035503786 0.30473417 -0.57860744 0.08802031 -0.262389 -0.30164155 -0.048714224 -0.4124008 0.6214039 -0.043140795 0.23436022 -0.4641924 0.2365892 -0.06053803 0.07629393 0.22622082 -0.36617783 -0.11393989 0.21268518 -0.2918075 0.26862174 0.3267012 0.26309454 0.21925013 0.053946946 -0.38204265 -0.23595068 -0.17994995 0.10108639 0.06854029 0.09732067 -0.2103412 -0.08758032 0.3184607 0.22399266 0.1810491 0.22246367 -0.2604106 0.05125874 0.11424877 -0.076649845
223 -0.10361292 -0.10846636 -0.07692058 -0.20926829 0.4718726 0.03742094 -0.073689416 -0.14960136 0.30879948 -0.023439893 0.18319093 0.22704947 0.26149285 0.15584458 -0.25271437 0.4992115 -0.03100342 0.08244368 -0.058708522 0.2028571 0.13955079 -0.3041773 -0.07059598 -0.21724097 0.085601956 0.21897908 -0.20138867 -0.0800072 -0.13838443 0.09811663 0.22650185 -0.35114977 0.20799805 -0.09303562 0.33379903 -0.051605575 -0.02711243 0.021452043 0.12354199 0.430705 0.18351126 -0.033510856 -0.32132682 -0.2370543 -0.016988778 0.0544243 0.30511597 0.19943838 0.20147194 -0.022432799 -0.19662847 0.07141043 -0.121144995 -0.0058774743 0.006121883 -0.17639281 0.005761656 -0.1846536 -0.24164852 0.24179608 0.28423965 0.044830505 -0.26098323 -0.059673402 0.15264219 0.05121683 0.14447013 0.14120224 0.106878 -0.1759519 0.18978997 -0.10182349 0.32452106 0.21694657 -0.009874374 0.14895989 0.30602917 -0.0716352 0.023688037 -0.43061015 0.08644252 0.31648847 -0.32219023 0.20955807 -0.017738484 0.20518282 -0.28176704 0.529599 0.30181113 0.11723134 0.07524167 -0.12162478 0.05189782 -0.2054664 -0.19404864 -0.3814308 0.013853684 -0.023606671 -0.45655128 -0.1348033 -0.25836268 -0.31057864 0.050608892 0.08414643 -0.03119033 0.00824513 -0.014152914 0.24439861 -0.027473666 0.32111052 0.01537629 0.36650386 -0.28426597 -0.27156508 -0.17437896 -0.16191623 -0.42568117 0.13061975 -0.24737805 0.1566354 0.15650763 -0.112257674 -0.08896008 -0.16749206 -0.059896566 -0.40007505 -0.14815007 -0.47568718
1599 0.047160883 -0.36700955 -0.06956458 -0.046358287 -0.16741082 -0.14912944 0.045401257 0.4094301 -0.28448257 -0.4501173 -0.25181064 0.16726483 -0.17908597 -0.15666153 -0.04590348 0.118009895 0.15093672 0.33499247 -0.090047285 -0.52543694 0.023181299 0.020249574 -0.60184556 -0.122101106 0.08704503 0.1035077 -0.08500054 -0.0202915 -0.07321445 -0.008296627 0.10689722 0.13269435 0.6461341 -0.06893704 0.36130562 -0.09744289 0.031118443 0.39584342 -0.0066936016 0.31174326 0.32064703 0.37604654 0.2500326 0.5703053 -0.28887662 -0.0076693636 0.2766889 -0.05728219 -0.046678126 -0.4664039 -0.16150859 -0.3752495 -0.20746414 0.15341471 0.10660944 -0.4182274 -0.08987496 -0.12787396 -0.49271944 -0.066695146 0.3864313 -0.14829765 0.012858057 -0.29419518 -0.37374336 -0.2570801 0.32073048 -0.32518953 0.6422508 -0.36728466 -0.1773146 0.31274167 0.19545911 -0.12130606 -0.26895157 -0.12901022 -0.109543495 -0.21767922 -0.26469946 -0.3651335 0.20347741 0.12424424 0.14336252 0.043593302 0.09805906 -0.39970344 -0.2188089 -0.39068165 0.05865821 0.13853607 -0.26918232 0.056240637 0.26709807 0.14420918 -0.28818494 -0.45045653 -0.35976452 -0.12484276 -0.15693799 0.02328481 -0.14329578 -0.15926911 0.057960242 0.14239436 0.6106339 -0.37711287 -0.13049088 -0.23848404 0.07074069 -0.020970145 0.4290312 -0.56160885 0.24107133 -0.32383516 -0.2080015 0.46907187 -0.22989152 0.159255 0.4706525 -0.034703776 -0.007990832 0.09585329 0.1349094 -0.28507096 -0.38473937 -0.09390262 -0.35922596 0.100382276
854 0.03056545 -0.034386523 -0.18479054 -0.36436975 0.15004447 -0.06489781 -0.07474247 -0.36739227 0.15177988 -0.41329318 0.17003544 -0.07748151 -0.05846441 0.32823414 -0.1837738 0.4252958 -0.23343271 0.10777288 -0.27778092 0.2288309 0.19342361 -0.04022784 -0.21676295 -0.13950925 0.2762369 0.1288235 0.08339045 0.068395525 -0.24181305 -0.04870613 0.4035842 -0.07867326 0.036386512 -0.31752554 0.3602562 -0.111085005 0.08677843 0.016039355 -0.026823023 0.20143823 0.3013876 -0.121655926 -0.42352298 -0.14445935 -0.39385778 0.0627644 0.063018516 0.19421981 -0.029369531 -0.0359853 0.14725734 -0.0026550933 0.21856558 -0.088205546 -0.07981639 -0.15428652 -0.02718381 -0.22315167 -0.12275339 0.22488315 0.12939432 0.18477325 -0.18185177 0.011004774 -0.18885373 0.1693128 0.4123606 -0.17733422 -0.12185225 -0.24867313 0.13304903 0.04267741 0.15514135 0.035758514 0.10460215 0.19122414 0.0060422155 0.061489217 0.092873424 -0.069645755 -0.3298574 0.39347702 -0.07031544 0.3227665 -0.040713947 -0.22010286 -0.2478826 0.10018786 0.08483287 -0.2829399 0.08249217 0.051084757 0.28638583 0.050578285 -0.25516647 -0.11669074 0.0691973 0.08466745 -0.3643965 0.010602523 -0.12074463 -0.63011605 -0.24618444 0.21007898 -0.07733986 0.10045447 -0.07102138 0.10803318 0.010540095 0.083260804 -0.21686058 0.18045892 -0.12910041 -0.34056595 -0.09810179 -0.08121735 -0.71801794 0.11956895 0.008780329 0.16557287 -0.055558898 -0.12080877 0.2110518 -0.16169022 -0.032773666 -0.2658659 0.03873165 -0.24095081
164 -0.21248369 0.052529503 0.24371783 -0.2800355 -0.019410143 0.09040857 0.039738916 0.003982384 -0.03020526 -0.1723027 0.13243979 0.010277266 -0.1920502 -0.11346782 -0.11636278 0.15266614 -0.17148143 0.07030186 -0.39928687 0.13421613 -0.21319413 0.14489844 0.036863256 -0.06822982 -0.0042975354 -0.10873839 0.12443504 -0.16735314 -0.18178357 0.081405595 0.19822855 -0.25932968 -0.17681889 -0.41768545 0.18008877 -0.07985243 -0.2557696 0.311769 -0.031097926 0.191224 0.1071359 0.19952807 -0.0841517 -0.24179184 -0.26491997 -0.083984874 0.1635667 -0.10458151 -0.16923675 -0.002963877 -0.023042 -0.057336885 0.05791057 -0.36667204 -0.122784406 0.26393595 -0.24942094 -0.3516536 0.035659593 0.5601618 0.041848756 -0.086051024 -0.11383605 -0.1704221 -0.21771747 0.13024153 -0.08916932 0.03743826 -0.039978903 0.30033198 -0.22049001 -0.38845673 -0.030706609 -0.16622387 0.2651404 -0.3692878 0.042575274 -0.19295914 -0.16722503 -0.13441503 -0.11381364 -0.15416151 -0.24058944 -0.049740557 0.18585478 0.14376737 0.085649006 -0.10448767 -0.081708275 -0.22298792 0.20437095 -0.14519969 -0.1570107 -0.40784374 -0.09225445 -0.4824785 0.16251191 -0.44670928 -0.33432284 0.26395488 -0.012953546 -0.48329452 0.09659492 0.13235915 0.2131914 -0.18130884 -0.69173694 -0.04612164 -0.2101143 -0.03392814 0.11481458 0.035313286 -0.2829426 0.19786057 0.046050154 -0.11255994 -0.25961006 -0.057978563 -0.11256465 0.1004564 0.097383976 -0.29576796 0.26254937 -0.32034194 -0.020732086 -0.089480504 -0.16697265 -0.33954224
599 0.6064198 -0.18948048 -0.03731213 0.16055907 -0.12090314 -0.2459586 0.08420749 0.5609718 0.06765218 -0.22819835 0.3507577 0.27269912 0.17703483 -0.71584266 0.04352072 0.16390578 -0.39677262 0.11174041 -0.6729836 -0.48339525 -0.18422987 -0.48863718 -0.09333109 -0.39945138 -0.1335412 -0.33268198 -0.6767229 0.3220357 -0.13025624 0.2784612 -0.17637028 0.19574168 -0.30913034 0.17872448 -0.1769604 -0.52122676 -0.065888055 0.3603635 -0.025550481 0.52325594 1.021606 -0.16427828 0.10637865 -0.624172 -0.059689797 0.40779936 -0.4346474 -0.5030619 -0.22221002 -0.17048304 0.17790112 0.10325526 0.41303378 0.039136387 -0.08864768 -0.3726958 -0.13990702 0.14077687 -0.79544556 0.07854732 0.46403968 0.016015777 -0.25537282 -0.32869926 -0.46055532 0.14777309 -0.187698 -0.58959293 0.3232981 -0.2090847 0.10015686 0.3820785 -0.20497163 0.23860674 0.4771774 -0.0843718 -0.22062548 -0.0014765512 0.0025801635 0.031535164 0.15537724 0.066591606 -0.36674732 0.29557222 0.06070292 0.3244588 -0.3035338 0.3578392 0.31934026 0.048580416 0.12329237 -0.35101077 0.5171551 -0.07860614 -0.3874039 -0.5136249 0.045615397 0.43389246 -0.2504127 0.17720656 -0.3793837 -0.25714514 -0.15664272 -0.028006889 -0.21926616 -0.08880316 -0.363577 -0.32116905 -0.17949028 0.021088734 0.010267862 0.58930725 -0.055984717 0.05031987 -0.53719395 0.32785648 -0.2027327 0.113922685 0.7772232 0.6524893 0.004259896 0.2566108 -0.23062406 0.6388902 0.7781718 -0.051418405 -0.24310835 0.47775343
1120 -0.34791765 0.045337316 -0.027256977 0.41038343 0.16818763 -0.38670352 -0.08772963 -0.37252182 -0.44490972 -0.16848674 -0.19155575 0.24437696 0.058121562 -0.05256926 -0.08113313 0.2395788 -0.10747963 0.75993264 0.26058987 0.0037790164 -0.15179685 -0.0033582575 -0.3733921 -0.11577417 -0.2892202 0.020040272 0.38604423 0.32825235 0.022192443 -0.33133784 0.65964264 0.31613418 0.14993423 -0.049652763 -0.13827501 0.14254321 -0.26066375 0.4843132 0.2744152 0.378941 0.23505943 -0.2586982 0.13574775 0.35133392 -0.1444822 0.0151223205 -0.43172953 0.35054547 -0.13139485 0.25257084 0.16326125 0.065303 0.097575605 -0.3322583 -0.20346577 0.28045258 -0.11485891 0.20979278 -0.19213678 0.013631146 0.31756145 0.0060928003 0.35683772 0.25158176 -0.028342534 0.12084506 0.39980465 0.11020082 0.1540352 -0.086994395 -0.39177734 0.12666546 0.20144844 0.19643433 0.22010086 -0.29168755 -0.33614686 0.015565877 -0.1287209 0.27456412 0.3850018 -0.17306916 -0.16123432 -0.19445473 -0.10593131 0.21939845 -0.1532183 0.095928825 0.19404389 0.25278094 -0.0049597668 -0.1863245 0.3214315 0.032783933 0.029607072 0.1673819 0.17811643 -0.03158044 -0.29133886 0.09906654 0.22200745 0.012220282 0.07662052 -0.37906572 0.060925826 0.04073481 -0.38353544 0.11674181 -0.00016736853 0.41684 0.31413603 0.3586035 -0.09212088 0.023864796 -0.19711012 0.23185125 0.15682723 0.2611319 -0.13742079 -0.1275586 0.025571665 -0.25063547 -0.0115436725 0.03887576 0.21645184 -0.10460279 -0.26209736 -0.32412052
1240 0.031283032 0.1697875 -0.562912 0.18744642 -0.37789896 0.21736312 0.39830762 0.372158 -0.005192438 0.0914227 -0.5245524 -0.2428604 0.20187905 -0.25826722 0.09932815 -0.6071979 0.51693535 0.3705715 -0.27353716 0.4961215 0.15999389 -0.44735605 -0.53909975 -0.49578166 -0.46171913 -0.1540656 0.10473023 -0.14997607 -0.13130327 0.23344646 0.23852225 -0.26236966 -0.4927961 -0.11884691 0.49695823 -0.39243 -0.29117072 -0.34971344 -0.1683077 0.18364298 0.54196566 -0.046977296 0.41340864 -0.60235023 -0.28890803 0.23122707 -0.12474218 0.031028988 0.026944559 0.4365282 0.03412195 -0.5487863 0.12045312 -0.5292624 -0.9533395 -0.06638115 -0.16618161 -0.064639285 -0.048023704 -0.03723156 0.08293457 0.060657747 -0.3030572 0.13473663 0.21358792 0.3021605 -0.03477628 -0.038391344 0.6293204 -0.3777795 -0.73389333 -0.080592304 0.29929858 0.24977079 0.29806536 -0.35711592 -0.2205076 -0.15824753 -0.065597616 0.31828046 0.46367037 0.05683699 -0.2819708 -0.12198369 -0.6817061 -0.08342203 -0.0074178586 -0.25045648 -0.14669721 0.26162452 -0.7088814 0.47807333 -0.24575149 -0.45647606 0.5936863 0.62580794 0.0045744493 -0.56965315 -0.9267183 0.16162151 -0.29868385 -0.13977878 -0.09494149 -0.02209335 -0.632126 -0.03540331 -0.527228 0.2583211 -0.23161998 0.05598843 0.16066657 0.15648295 -0.17679644 -0.067297235 -0.5656313 -0.21575037 -0.32790518 0.19549079 -0.07478369 0.07724228 0.588295 0.23558597 -0.33961716 -0.8340122 -0.43889675 -0.16298223 -0.4611265 -0.20859544
2101 -0.040183365 -0.18134409 -0.113652624 -0.0205051 -0.0068595908 0.2805327 0.013044259 -0.35707068 0.24998377 -0.36815587 0.08873221 0.19763331 -0.2106111 -0.013383006 0.6481648 0.27493596 0.36913392 0.073301315 0.018322855 -0.0013791765 -0.27296567 0.21818234 0.21658896 0.037089635 0.1998714 -0.09871713 -0.039494656 -0.2199454 -0.09711948 -0.02617344 0.28212878 -0.19882463 0.36212847 -0.013700935 0.063716814 -0.11689181 0.6793285 0.08337948 -0.28688598 0.15627617 -0.5784348 -0.16230522 0.32469448 0.08634363 -0.12706257 0.25513583 -0.21446934 -0.07014907 0.24813911 -0.14127558 -0.48706236 0.10712028 0.39002353 -0.31781098 0.2685707 0.21640559 -0.072837465 0.27144465 -0.42618015 0.10519194 0.07243161 -0.013160675 -0.2712304 -0.20552619 -0.3212336 0.36011896 0.36012903 -0.113497235 0.36390403 -0.188685 -0.46563178 -0.33554462 0.12339873 0.2131546 0.2523891 -0.32013106 0.16412225 -0.23920001 0.028270757 0.27655223 -0.655779 0.016999971 -0.4135399 -0.058178734 0.38438442 0.26822543 0.2869646 -0.1066728 0.16991188 0.07722259 -0.33277965 0.5385636 0.07965572 0.14499521 -0.34858707 -0.31532687 -0.2282441 0.035118666 -0.19673182 -0.046203017 0.31961912 -0.12111397 0.2850558 0.07599089 -0.48938686 0.3636618 -0.64101124 0.012963904 0.045833837 0.16550367 0.06232303 -0.26090613 -0.31187996 0.6488583 -0.6105941 0.16633488 0.046038106 0.28650326 0.18330158 0.14958224 0.079846375 -0.17635433 0.073948696 -0.33023456 0.13612112 -0.39249557 -0.092946626 -0.12316082
880 -0.46347803 0.07579925 -0.4459728 0.13965647 0.41401494 -0.25676936 0.2611738 0.41059452 -0.10205762 0.51483226 0.13130613 -0.017289046 0.39361927 0.13952339 0.042559825 0.58953935 -0.16814192 0.40390983 -0.29263195 -0.16070826 -0.33584145 0.058223326 -0.45807865 -0.42464972 0.14051077 0.36775365 0.2121656 -0.08986659 -0.41369352 0.25774375 0.22138242 0.5395425 -0.36736014 0.25924426 -0.44240388 0.22837225 -0.06776097 0.2322967 -0.015608992 0.056798667 0.28467903 -0.18904273 -0.32050073 0.040248506 -0.32756224 0.13356972 0.49086198 0.4897022 0.04346821 0.36820754 -0.017799847 -0.12521674 -0.18509997 -0.33650458 -0.3794903 -0.36448908 0.25124958 0.2183624 -0.16742468 -0.20219818 0.2582078 0.03555705 0.081846476 -0.15449297 -0.033634674 0.07842234 -0.08079336 -0.004845962 0.6355462 -0.18658584 -0.36758485 -0.47921342 0.21333683 -0.1342835 0.5639307 -0.57798463 -0.04804718 -0.1509811 0.19028096 -0.60705185 -0.2167671 -0.09442144 -0.25660282 0.26045978 0.03144298 0.369054 0.17695838 0.74967146 0.6790751 -0.14046094 -0.018016396 0.6577548 0.41579875 0.53142095 -0.24338612 0.10837085 -0.13494404 -0.18874887 -0.105850816 0.043475933 -0.00799134 0.11689034 -0.022962725 -0.51847833 -0.23028937 0.07559362 -0.4241091 -0.32608837 0.17692208 -0.26000592 0.058064736 -0.4128603 0.58016765 0.17784303 0.60751253 -0.2079912 0.22703153 0.1025369 0.21443117 0.44767007 0.071430825 -0.31014663 0.1845771 -0.39578396 -0.0033877352 -0.16290581 -0.24515572 -0.07431444
1194 -0.2426046 0.016133113 -0.19878815 -0.056662705 -0.5345212 -0.3982895 0.27337182 -0.14455585 -0.14668679 0.12558953 0.06870563 -0.013648155 0.22729701 -0.025778292 0.08966116 0.01798852 -0.009966741 0.59483457 0.022625325 -0.5020982 0.020214902 0.12636504 -0.06953924 -0.2354286 0.39049444 0.37819308 -0.0015662283 -0.21646595 -0.22613296 -0.18422039 -0.007391431 0.28109667 0.003925081 0.041217186 -0.18218087 -0.0952682 0.013770756 0.13407694 -0.03051058 0.42812672 -0.044484656 -0.6010065 0.38888532 0.1852534 0.37052017 -0.15785588 -0.30981067 -0.09612976 -0.31833246 0.20929644 -0.2785373 0.37501222 0.2506068 -0.11537868 -0.14437431 0.49849868 0.29079092 -0.00049569865 -0.019268537 0.101644196 -0.028677328 0.40779266 -0.47169957 -0.03047996 -0.35599983 -0.10119131 0.35191748 0.1390605 0.40824535 0.019785805 -0.3540886 -0.2549264 0.14718078 -0.1016053 0.2902945 0.13459545 0.29040247 -0.039905842 0.26438662 -0.091563426 0.3850986 -0.058793537 0.067430876 0.19893657 -0.26175773 -0.047421936 -0.27959692 0.37890553 -0.44215533 -0.0739858 -0.113027915 0.28186443 0.19987965 -0.20229098 -0.08900736 0.2198485 -0.054436427 -0.38267717 -0.12151572 -0.16698448 -0.2526892 0.21721196 -0.048934534 -0.28977597 0.32156593 0.11906375 -0.34987813 0.32033178 -0.07902879 -0.2528335 -0.11628414 -0.18800698 -0.23047543 -0.015462205 0.0797882 0.10393172 -0.29027766 0.45599645 0.41122997 0.41562173 0.3206381 0.06806677 0.4001449 0.29638475 -0.443967 -0.0008666549 -0.23903497 -0.1327754
1302 -0.70676136 -0.35368353 -0.5748685 0.5311669 0.15612485 -0.19024314 0.49784878 0.23009197 -0.07951578 -0.15485725 -0.4738811 -0.13204427 0.012591371 -0.41276562 -0.33345237 0.40772137 0.24590689 0.5550247 -0.14452612 -0.072067946 0.25027287 0.3483577 0.023950012 -0.39088014 0.07755448 0.20802072 0.07106306 -0.020350209 -0.041948184 -0.1300534 0.33968437 0.26402643 -0.07605161 0.09426851 -0.31637812 0.033698324 -0.025792345 -0.06696389 -0.26378128 -0.19063675 -0.1049261 0.28309092 -0.13458727 0.1221135 0.17920639 0.18374069 -0.098186955 0.22409323 -0.027339002 0.18734302 -0.045666724 -0.507798 0.047891837 -0.18568234 -0.20791431 0.016083905 0.06211109 -0.07442119 -0.4091605 0.36821166 -0.03445292 0.18261379 -0.2537391 0.082649015 -0.20441961 0.06497007 0.07891036 0.2983259 0.3144831 -0.040344913 -0.23491 -0.43459192 0.06944019 0.17925258 0.098483644 -0.22903796 0.16369262 0.13595301 0.3151623 0.072953865 -0.3260891 -0.049965538 -0.39672357 0.1655622 0.09635346 0.079436086 -0.25468326 0.19469795 0.030243471 0.017853566 -0.13595147 0.0707436 0.378866 -0.1548906 -0.0065566925 -0.10083626 -0.2659626 -0.3583044 0.43441474 -0.18448454 0.24318856 -0.44963682 0.07534947 -0.01171079 0.020844845 0.82149285 -0.3050256 0.027223425 0.018338757 0.035430133 -0.15420574 -0.19716014 0.25310984 0.051871434 0.2101618 0.028274875 0.026143739 -0.26830778 0.20971313 0.21263374 0.6209942 -0.1098751 0.20475116 0.16303438 -0.07413214 -0.74113196 -0.38547856 0.22541556
1130 -0.15507552 -0.14271626 -0.04192338 0.15849511 0.16654775 -0.38554522 -0.27134657 -0.30500895 -0.2482805 0.39909953 -0.21552187 0.334683 0.21059206 0.22215891 0.14249384 0.11223775 -0.0018482312 0.34075806 0.066406086 0.048271038 0.0007546107 -0.08441853 -0.16567436 -0.0901722 -0.30423477 0.46939024 0.27650765 -0.27161273 0.23874165 0.13795277 0.7144333 0.47344586 0.17301908 0.49967903 0.2627437 -0.10993043 0.13978288 0.14161699 0.21365035 0.18182884 0.39537624 -0.10973441 0.61167 0.05910546 -0.35931996 0.005306928 0.15877853 -0.014675091 -0.16746552 -0.1356657 0.26024908 -0.07714113 0.013456176 -0.4551516 0.03881204 -0.010773964 0.25838095 -0.0015297047 -0.14551982 -0.20387869 0.26058176 0.01341751 -0.35613978 0.26562342 0.029152626 -0.031859595 -0.005376881 0.22596025 0.3487363 0.23161772 0.24335384 -0.003319506 0.37365696 0.23629573 0.0031767578 -0.5469081 0.06410739 0.09038981 -0.044399735 0.3680141 0.048415776 -0.09753299 -0.3090525 -0.12998097 0.36351427 0.3310095 0.10906992 -0.16179594 -0.33410898 -0.08643172 0.24609333 0.101142675 -0.095121086 -0.015192895 -0.02743923 0.027798738 -0.019753827 0.0035485816 -0.37693357 0.087058604 0.0662281 -0.35087538 -0.0631034 -0.04268171 0.01238106 0.2712147 -0.35837212 0.11898728 0.09208344 -0.050266244 0.12157478 0.2735024 -0.18516128 0.11455432 0.068631396 0.083329886 -0.30315393 0.19537026 0.75105596 -0.084490776 -0.10210178 0.0027898755 -0.27980515 0.1316631 -0.006827422 0.15804793 -0.12895672 -0.50632316
52 -0.20516168 0.4424052 0.30977735 -0.19762735 -0.07583647 0.027902247 0.41471705 0.21832855 0.30622768 -0.33151278 0.17193703 0.2881391 -0.43858796 -0.02860048 -0.04946464 -0.2717731 0.27918386 0.20305009 -0.3938349 -0.2388321 -0.1489541 0.4756733 -0.07857871 0.100277 -0.24290124 0.17390884 -0.07262627 0.09660487 0.4469377 0.034619804 -0.010601238 -0.08650103 0.09341347 0.19609898 0.5272627 0.12474895 0.1261845 -0.2075757 0.10305036 0.16103125 0.11971569 -0.19852084 0.19191167 -0.0322779 0.010621486 0.3055832 0.06336503 0.186095 0.28982234 -0.33204758 0.14954877 -0.104079396 0.6325601 -0.20301662 -0.110727295 0.23393393 -0.1265704 -0.5196267 -0.44109794 0.38650456 0.02391453 0.015131996 0.17613736 -0.18269365 -0.10943439 0.13623884 0.20948566 0.114585645 -0.18639587 0.15017094 -0.054865222 0.051980406 0.27358538 -0.26899272 0.29993388 0.097455345 0.09380415 -0.24685867 -0.3352589 -0.004360288 -0.23543537 -0.45327055 -0.40594903 -0.13619852 0.63979983 0.23738536 -0.13009515 0.57935774 -0.24646227 -0.3811794 0.12379057 0.11393472 0.27489474 0.22298342 0.24723634 -0.40511885 0.050434604 -0.12567672 -0.13670051 -0.1969051 -0.20755069 -0.7149231 -0.51867557 -0.070275016 0.0544746 -0.21327318 -0.65868926 0.17421013 -0.091558546 -0.31906044 -0.20656532 0.005294121 -0.07708895 -0.06575167 -0.27213347 0.022147978 -0.16873334 0.16819318 -0.25977656 0.14905794 0.21641341 -0.16915406 0.10722515 -0.22978985 0.0007908514 -0.69980526 0.35399237 -0.46125174
872 -0.37870187 -0.2837577 -0.0005776431 0.19182889 0.45004937 0.020806 0.021666024 0.383053 -0.492669 0.0242787 -0.86862224 0.0060090725 0.016488682 -0.25938442 -0.16833313 0.10987718 -0.08699993 0.4315502 -0.16329758 0.16722699 -0.24060038 0.35132512 0.25596505 -0.34866253 -0.30862907 -0.045547046 0.056611408 0.011663066 -0.17375857 -0.17154218 0.20755827 0.18778047 0.025119381 -0.058172677 0.118220665 -0.35398564 0.2174886 -0.40921393 0.29734284 0.29148117 0.29322696 -0.1997135 0.77743524 0.29289013 -0.25722578 0.35383996 -0.41488498 0.05902014 0.34661633 -0.08888567 0.33001575 -0.054718554 -0.2921804 -0.2613552 -0.23990639 0.33332044 0.044007104 -0.039464053 0.17750789 0.11416567 0.26363316 0.34863243 -0.51763785 0.12734914 -0.322554 -0.2170777 0.10827211 -0.27593616 0.08409949 0.09548526 -0.06278266 -0.0192573 0.69680285 0.26791546 0.68085665 -0.18166004 0.37263077 0.34146118 -0.11694758 -0.019123707 0.044494122 0.29030344 -0.280097 -0.24059816 0.1393511 -0.099789344 0.019301055 0.13846394 0.17276339 -0.8641862 -0.019497475 -0.15103708 -0.1472487 -0.5932036 0.07087829 -0.13697712 -0.5064027 0.31903762 -0.38790253 -0.17997175 0.17359444 0.16844216 -0.40225765 -0.04190481 -0.25855225 -0.23749352 -0.26910293 0.5699694 0.18111616 0.0855167 0.19340718 -0.13153033 0.2762285 -0.43762586 -0.0692111 -0.017315589 -0.3154394 -0.14060709 -0.025263181 0.6332217 0.14415091 -0.111087844 -0.18157189 -0.551392 -0.11233842 0.080906324 0.059039477 -0.4341126
1206 -0.5669923 -0.26008058 0.0063853855 0.31587553 0.051554166 -0.15148109 0.43416065 0.41851693 -0.088290654 0.18776064 0.17003432 0.023833409 0.13880698 -0.5186788 -0.29669672 0.4786333 0.11010735 0.7191049 0.26584175 -0.33974856 -0.35766512 0.5286309 -0.020737872 -0.40650174 0.15981546 0.459565 0.039522354 0.053450085 0.21357374 0.07783623 -0.08979256 0.1037804 -0.3592939 -0.008145433 -0.021892762 0.109320916 -0.3109317 -0.061393745 -0.06656629 0.088861436 0.13396405 0.16193707 0.34785837 0.1947124 -0.05919646 0.051957574 -0.19915725 -0.3362662 -0.37878948 0.03637164 -0.2502778 -0.20745076 0.02096294 -0.62083787 0.0055940086 -0.054385938 0.180009 0.06420244 -0.29693386 0.31377807 0.0989862 -0.12416511 0.3603528 0.21317944 0.08217828 0.26732463 0.10796992 -0.029594328 0.42026097 -0.101958394 -0.42705107 0.01609751 0.4520214 0.26809487 0.18220097 -0.10591057 0.35718197 -0.22591408 0.48192015 -0.5141536 0.11861798 -0.09186325 -0.06557608 0.33453748 0.16220838 0.0043165255 -0.7171604 0.12841882 -0.2072742 -0.056559857 -0.39434636 0.24195284 0.25600126 -0.053891774 -0.17457864 0.33694735 -0.26500136 -0.30928403 0.2599935 0.00385956 0.2648519 -0.30411637 -0.008868911 -0.2677513 0.17984602 0.78253627 -0.025103344 0.08957622 -0.1512096 -0.4197726 -0.47503707 -0.21157308 -0.013412528 -0.14810969 0.13108183 0.6609183 -0.18559371 0.068047 0.39448053 0.3230785 0.45973074 -0.38333857 0.26275113 -0.09499707 -0.48878646 -0.34133428 0.18304113 0.0059688007
1230 0.33240548 0.03295769 -0.44412902 0.44672588 0.005923507 -0.318762 0.29593223 -0.17329615 0.27327415 -0.3029286 -0.18672673 0.37349182 -0.2993142 -0.04145044 -0.110324115 -0.1177681 -0.3347245 0.23944934 0.071748875 -0.21837007 0.11486624 0.19809943 0.20916925 -1.0874516 0.13573113 -0.028474027 0.071115814 0.09073606 0.0914954 -0.101488106 0.3374993 0.33676535 -0.32780468 0.5085924 -0.20714992 -0.26447213 0.08262677 -0.23798895 -0.05134354 -0.085729636 0.19511917 0.07718125 -0.08384915 0.39389706 -0.30650595 0.15082473 0.20648435 0.8959598 -0.28368053 0.15322731 -0.5424594 -0.68867904 -0.4711155 0.3578892 -0.040085413 0.024354652 -0.64721674 1.1205462 -0.24931827 0.5594956 1.3390568 0.06772241 -0.18794933 -0.03752174 -0.60870993 0.22808307 -0.22280934 -0.3298338 0.4636973 -0.51917964 0.19975553 -0.015085727 0.8863317 0.13773628 -0.42206082 -0.48090565 0.44790235 0.37206993 0.10525068 -0.09743472 0.20472507 -0.41377163 0.21934412 0.024685249 -0.12681904 0.0822519 -0.15911442 -0.061397098 -0.3711178 0.046589267 -0.03673738 0.43307573 0.227091 0.20544335 0.009417868 -0.31605113 -0.45118812 -0.106790185 -0.104639545 0.8015197 -0.13487354 -0.18488641 0.10302989 0.6352027 0.24926904 -0.47285515 -0.6246334 0.007459232 -0.07089489 0.040311914 0.111789234 -0.2460528 0.21017417 0.15464032 0.3506011 0.31087798 0.18957698 0.062272348 0.01150398 0.007028913 -0.09329233 -0.27439037 0.41852042 -0.23081693 -0.06350075 -0.49720773 -0.44836628 -0.08030879
551 -0.49647284 -0.013837347 -0.20469402 0.08243486 0.032173693 -0.66037077 -0.13015561 -0.083840206 -0.2250003 0.45735586 0.44150776 0.11623608 0.05309497 -0.29507887 0.08025016 0.30483755 -0.03171263 0.05022978 -0.43206963 -0.18143727 0.058109827 0.33269188 -0.19929887 -0.51824343 -0.5070227 0.15760474 0.029689068 -0.18130508 -0.47990224 -0.20493864 -0.13055907 0.35242218 0.32500637 0.074475266 -0.19714645 0.25696382 -0.24344414 -0.24414386 0.14661868 0.06001652 -0.12847304 0.25112426 0.05078391 0.2499348 -0.009117416 0.18348281 0.21129848 0.52280426 -0.29602912 0.30904973 -0.14709732 -0.029821679 -0.0018321145 -0.3907869 0.14172275 -0.54602396 0.26073864 0.29916176 -0.23678748 0.009488268 0.35493276 0.2440754 0.47144583 0.0019976988 -0.089205965 -0.23495752 0.5038666 0.36439583 0.56027734 -0.21026263 -0.35283262 -0.40510643 0.06342491 -0.07621063 0.80217254 -0.19571337 0.1987868 0.35242113 0.15956904 0.093855396 -0.5221273 0.293884 -0.12942103 0.35349756 -0.23125361 -0.011548293 0.09946962 0.18475907 0.17467415 -0.29687133 -0.38305995 0.39830714 0.39011237 0.40634826 0.02867569 -0.13075507 -0.042362384 -0.3259392 -0.38938335 0.0010870169 0.09511685 0.10350338 -0.0033508372 -0.17256773 -0.50994694 0.14447348 -0.48134863 -0.25046957 -0.052468386 0.044714276 -0.111902684 -0.08270484 -0.09581038 0.034349095 0.4790216 0.23115203 0.33522668 0.11348125 0.34899566 0.3373443 -0.18571204 0.27324706 0.20715976 -0.1653694 0.08764834 0.1921197 -0.28980854 -0.20352755
690 0.47141623 -0.26545882 -0.1007889 -0.10421753 0.26488346 -0.4633536 -0.008946961 -0.14881505 -0.6977551 -5.2442963e-05 -0.34563172 0.23032895 0.06177441 0.45402417 -0.0039234273 -0.5020773 0.17212443 0.1929035 0.18739597 -0.15945385 0.019740613 -0.099107824 -0.35705864 -0.570206 0.117273934 0.29393655 0.20750377 -0.49381602 -0.13261922 -0.52234817 0.20584342 0.22289497 -0.050648205 0.46167797 0.34686217 -0.18856566 0.015782932 0.05501329 -0.079874255 0.14901492 0.34245154 -0.48515937 0.5306822 -0.062603265 -0.09814598 0.10286567 -0.26730147 0.6771556 -0.38442543 -0.26439053 -0.1467263 -0.055432677 -0.22166052 -0.106763035 0.11545078 -0.12368518 -0.016600784 -0.031964436 -0.0427861 0.2607113 0.5048835 -0.346941 -0.14669289 0.5878592 -0.1680598 0.033501137 -0.054186746 0.13088726 0.19161764 0.038077462 0.09961766 -0.05846167 0.20742364 0.21577777 0.23563215 -0.4560987 0.009507325 -0.34395075 -0.12406629 0.16488801 -0.19240448 -0.48042104 0.18386483 -0.09586405 0.086418346 0.22399272 -0.012850094 0.21053174 -0.27775815 -0.004832306 0.40213987 0.08221237 0.42753175 -0.5898597 -0.42079884 0.6218576 -0.27683023 -0.39647883 -0.7435045 0.3147277 -0.2358105 -0.33938295 0.0006804325 -0.5312286 0.13253334 0.4743714 -0.44951004 0.4677457 0.10918241 0.25084126 -0.17254703 -0.25334755 -0.042929284 -0.1018621 0.07564184 0.4988878 0.25485256 0.31687152 0.15797555 0.21103454 -0.20312591 0.22816136 -0.08640373 0.103159554 0.28061622 0.064701274 -0.07547146 -0.2131367
1835 0.025107384 -0.2684435 -0.15032904 -0.40249717 0.45904773 -0.2064477 0.15402536 -0.015546112 -0.145818 0.41686812 -0.24422246 -0.22777458 -0.19071303 -0.6193094 -0.39455348 0.26072934 -0.12272082 -0.39586866 0.124315634 -0.30059427 0.18168963 -0.2364817 -0.61089855 0.056205727 0.2877962 -0.3266046 0.19157444 0.07549639 -0.20524032 0.2639656 0.54727226 0.21192986 -0.2852329 -0.04047934 0.06641207 0.2422806 0.335555 0.2076699 -0.09615652 0.44777277 0.29889184 0.62606764 -0.029509189 -0.15144852 -0.022448786 0.2899684 -0.13871032 -0.01689407 0.14982848 -0.3460381 -0.07165926 0.6611732 -0.03973874 -0.20478602 -0.28176656 -0.16404107 0.23587437 0.031437848 -0.1815144 0.19096972 0.5261115 0.042879097 -0.19393957 0.19512847 -0.7551332 -0.3334711 0.10636916 -0.0042757145 0.60129964 -0.11038318 0.14629868 -0.15551257 0.23380907 -0.2856853 -0.37557352 -0.05095852 0.23638536 0.12409155 -0.10246025 0.32737243 0.39051208 -0.14067669 -0.2794449 0.7820205 0.1380575 0.3200806 -0.13955261 1.0779781 -0.15365145 0.24508516 0.11163247 0.17248602 -0.52093774 0.36528 0.38455823 -0.30665547 -0.08356567 0.20157485 -0.39499754 0.084241666 -0.21865788 0.36705145 -0.71315044 -0.36287785 -0.13804047 0.008471283 -0.38169044 0.356171 0.045362897 0.4244013 -0.18789484 -0.24295294 -0.34792358 0.0791145 0.06467038 0.7125825 -0.2573593 0.31209612 -0.467166 -0.14385523 0.47471842 -0.22736089 -0.06520861 -0.15486695 0.32883313 -0.18619387 -0.33885378 -0.054420695
1430 -0.08886135 -0.099151865 -0.12342402 -0.6508701 -0.5657827 -0.6476222 0.09249146 0.6603693 -0.80051243 -0.4304768 0.37061214 0.0075583523 -0.7959722 -0.946512 0.028881436 0.21230263 0.23525225 0.40972185 -0.32504594 -0.06268259 -0.28767154 -0.16947043 0.014766106 -0.639756 0.4511589 0.42496982 0.3564619 0.148855 -0.435218 1.1111653 0.74727094 -0.4120553 -0.37896046 -0.19976649 0.5009269 -0.46787208 -0.23680045 0.6446744 0.26285523 -0.22062925 0.49884534 0.29386014 -0.087219045 -0.23363683 0.52276826 0.08819813 0.47166637 0.5619962 0.24287786 -0.74367446 -0.3132411 0.18251193 0.58247817 -0.5214591 0.19758141 -0.3596878 0.51375973 0.1450522 -0.5920789 0.4670791 0.58515215 0.18012933 -0.21640182 -0.16044866 0.6181314 0.1930608 0.5287033 -0.33945233 0.07346095 -0.65261006 0.008831254 -0.51352954 0.091617905 0.10111076 -0.2085056 -0.4196409 -0.28588957 -0.2022448 0.27707076 0.29435953 0.18540493 -0.041023493 0.67022717 -0.2413739 -0.2703026 -0.1449563 0.0036265126 0.79588985 -0.028822275 -0.14487664 -0.24588984 0.7506336 0.22088233 -0.45011628 0.69975924 -0.9148502 -0.122795396 0.05925854 0.37596256 0.4458676 0.27087 0.04452553 0.83880055 -0.85428613 -0.68940514 0.21374384 -0.25616786 0.9926151 0.36107218 -0.4254227 0.4462188 0.33689 0.33139485 0.085392155 -0.5837464 0.30396846 -0.33372837 -0.19118832 0.040520895 0.032742165 -0.28352445 0.02527555 -0.03006432 -0.49075395 0.5749333 0.6183555 -0.27630198 -0.28996602
659 0.04442151 -0.34890935 -0.021106655 -0.5449514 0.23637815 -0.03792148 0.22598822 0.28946447 -0.13897528 0.47093382 -0.49808022 0.20438914 -0.20007312 -0.11144986 -0.25363493 -0.5965475 0.073543854 0.045852143 -0.14773798 -0.3176914 -0.24589431 0.15201497 -0.24257578 -0.15483043 0.24297363 -0.11743427 0.7147868 0.22441009 0.06050792 0.14318833 0.48509637 -0.13281555 -0.37104154 0.072770104 0.552649 0.22644898 0.11641692 0.35236388 -0.39653593 0.5162005 0.29756927 0.4250335 0.079414874 0.58587873 -0.28010243 -0.010877097 -0.09303771 0.10761419 0.24806753 0.08237817 -0.27318025 0.35635415 -0.057022862 -0.048529472 0.1774097 -0.8751727 -0.028864074 0.24733502 -0.3574688 0.43664697 0.38530645 0.37565026 -0.055252213 -0.04057705 -0.087635934 -0.27225122 0.5897109 0.15545596 0.60331744 0.099740796 -0.09596128 -0.08665431 -0.07383886 -0.13553017 0.00853878 0.117523216 -0.37399232 0.09778589 -0.51081395 0.650728 0.4333584 0.24567479 -0.3108408 0.71885073 0.1346645 0.2687082 -0.2932518 0.63796765 0.3559437 0.29785803 0.22376397 0.32736552 -0.18520483 0.25034097 0.054491524 -0.19083066 -0.27231097 0.1696576 -0.057552185 0.013462691 0.25692868 0.38403517 0.08478653 0.11164547 0.43542835 0.3022004 -0.36811724 0.010676837 -0.05588282 0.05511286 0.16747776 -0.4972781 -0.36232632 -0.018547868 0.08312511 0.4852238 -0.29934534 0.0061318986 -0.19664375 0.1223426 0.36749882 -0.09609849 -0.13511878 0.15173271 0.25707847 0.3577766 -0.23974195 0.11605906
1131 -0.4557163 0.08138862 -0.2532383 0.1499108 0.002593909 -0.39218506 -0.28167802 -0.00958036 -0.5109704 0.049602624 -0.018205732 0.13590498 0.124955334 -0.138203 0.03417795 0.29039615 0.3521349 0.48013362 -0.28152588 -0.15185207 -0.20106724 0.0063280445 -0.07757668 -0.20023468 -0.2522281 0.46051797 0.26946482 -0.1291398 0.18792063 0.037131626 0.35193878 0.45975694 0.33292124 0.3621946 -0.32169363 0.28082842 -0.047694378 0.32195428 0.34663966 0.07325709 0.08146019 0.3720429 0.07676612 0.72725457 -0.64545894 0.31491685 0.2407528 0.17229281 0.10104124 0.08878563 0.028337969 0.31291515 0.31686568 -0.400682 0.054637767 0.09051963 0.18817353 0.29979 -0.31986496 -0.07674445 0.02218936 0.12840296 -0.2486923 -0.02828097 -0.32461807 0.06820187 0.085792564 0.26349106 0.77909255 -0.29417965 0.11381602 -0.04797781 -0.16821791 0.40793893 0.07754246 -0.11714577 0.026405483 0.03480111 -0.14835013 -0.04932926 0.25968927 -0.2656082 -0.13851216 -0.014524771 0.049701437 -0.038476337 0.19239137 0.26886514 0.30137685 -0.1859883 0.094147205 -0.14112055 0.10277222 -0.2058843 -0.041146707 0.16443937 0.21318647 -0.42424014 -0.16749464 0.26687536 0.20609319 -0.02473812 -0.39133415 -0.19793294 -0.26256064 0.25984916 -0.2629336 0.08099477 -0.009498622 0.48774838 0.063635044 -0.06986557 0.11917611 -0.05225811 0.13688771 0.16744201 0.12251111 0.33511922 -0.11613297 -0.21273476 0.01266914 -0.057506733 -0.109738395 0.16938719 0.37383544 -0.16991301 -0.20650283 -0.54321116
244 -0.21290396 0.31193537 0.2915404 0.07662064 0.2042817 -0.33227393 0.24097474 -0.03714974 -0.1798659 -0.19999012 -0.29182032 -0.13836788 0.10948987 0.1793638 -0.40284005 0.2784109 -0.22972521 0.24307066 -0.25314674 0.21112937 0.034409564 -0.24133202 -0.1684569 -0.13720076 -0.26893005 0.009214878 0.43907383 -0.083474554 -0.042894688 -0.32001954 0.11129495 0.40664744 0.24708275 -0.35445884 0.10250517 0.3474462 0.03735585 0.47181785 0.22679155 0.45082983 0.24253424 -0.25910524 0.23303248 -0.13971303 0.22382495 0.24008203 -0.1945408 -0.29616457 0.20478901 0.19980596 -0.28977573 0.00669926 0.07440452 -0.38097146 -0.26902074 0.006025786 -0.23442928 0.36643034 0.15166749 0.47748098 0.11146482 -0.05800224 0.11295106 -0.2794435 0.15146394 0.022854926 -0.14212254 -0.12336276 0.28316945 -0.115736894 0.0415619 -0.18249592 0.35879296 -0.15427993 0.30886325 -0.2730303 0.44801703 -0.12701723 -0.14198436 0.043320823 0.13482198 0.07827262 -0.38547757 -0.089218974 0.123826616 -0.23453592 -0.13808577 0.016010664 0.4784935 -0.17913538 0.07221202 0.02101367 -0.0021358975 -0.53277105 0.013898812 0.0379594 -0.021898592 -0.2777899 -0.42510483 0.00627165 0.15672989 -0.54119915 -0.20933297 -0.4266428 0.32456762 -0.29485634 -0.08890566 0.06836959 -0.037051827 0.23751119 -0.15682589 0.29562226 0.032128196 -0.24669129 -0.26814124 0.040389296 0.030450491 0.43675753 -0.31051543 0.28849733 0.105736494 -0.10806735 0.16152607 -0.20204265 0.15345672 0.118319795 0.008562533 -0.14097008
579 0.7586871 -0.20961583 -0.22043698 0.0056003393 -0.12463054 -0.2625245 0.16260554 0.6181846 -0.29831144 -0.17090552 0.28163832 0.47541574 -0.070533484 -0.92796516 0.09052751 0.19433497 -0.43831375 -0.010190706 -0.93281984 -0.45852363 -0.086742975 -0.40230465 0.07215543 -0.40967953 0.21017623 -0.4266641 -0.74486154 0.14300385 -0.07259712 0.5719048 -0.4673367 0.16515154 -0.5770153 0.5824845 -0.1287064 -0.5493828 -0.28859088 0.41487867 0.15727736 0.6232229 1.2180485 -0.17663616 0.021070132 -0.84998435 0.040358532 0.62710553 -0.6140101 -0.75422865 -0.08846155 -0.079399735 0.2051113 0.028211653 0.1517765 0.12344741 -0.10262414 -0.42582297 -0.13672657 0.1753489 -0.9942676 0.19631782 0.46137005 0.19741924 0.15577106 -0.43719053 -0.6233115 0.25658253 0.1461432 -0.66137964 0.53016186 -0.3126431 0.15759163 0.19541696 -0.17850961 0.5089876 0.4530932 -0.10958234 -0.10539046 0.04304132 0.025078248 0.29400066 0.30097482 -0.08339626 -0.532479 0.018742722 -0.059431944 0.67756784 0.039356224 0.3928691 -0.049591765 0.2117031 0.31269756 -0.23382615 0.68076897 0.016005179 -0.57013077 -0.68876725 0.22592695 0.43046314 -0.49070165 0.19998688 -0.30681208 -0.25694758 -0.29739347 0.027060283 -0.1252681 -0.06739133 -0.42163336 -0.0007307554 -0.049386248 0.20666106 -0.15431382 0.93424994 0.069421336 0.12505533 -0.527954 0.4687094 -0.5191625 -0.018557224 1.0601296 0.7289031 0.018682586 0.37375084 -0.587264 0.5274165 0.7903977 -0.28427058 -0.13865648 0.70763004
1423 -0.22024548 0.0657581 -0.09453376 -0.3817108 -0.59164226 -0.30666223 0.46694475 0.7404042 -0.7680548 -0.3472049 -0.017642207 -0.15873481 -0.55616975 -0.65562516 0.04854037 0.18181328 0.29926524 0.33454737 -0.44025332 -0.1976601 -0.21058996 -0.3220806 0.14689419 -0.30431697 0.76176137 0.6350593 0.4042989 0.31381586 -0.43503088 0.9434364 0.7825381 -0.3974194 -0.44689164 -0.10333013 0.531037 -0.2932314 -0.46662953 0.7044834 0.09531941 -0.076503485 0.2368831 -0.558506 -0.29980668 -0.059415683 0.25625363 0.19389746 0.48362026 0.2440998 0.020391027 -0.80298454 -0.33861628 0.09362269 0.92258 -0.55357885 -0.23610185 -0.39714912 0.56271195 0.005388621 -0.61689067 0.30579746 1.0061903 0.17238097 0.2374993 -0.2956242 0.39773297 0.35543275 0.27790165 -0.54020023 0.028960608 -0.13193746 0.054989375 -0.6774428 -0.051696114 0.17575563 0.02870351 0.18989494 0.2134931 -0.25441253 0.094827384 0.27398732 0.09265546 0.093624234 0.7789961 -0.052251507 -0.5198586 0.122645475 0.16575278 0.8229795 0.1884479 0.17221098 0.26369792 0.32827777 0.45636475 -0.3815676 0.84898037 -0.7180638 -0.47348037 0.3614524 0.4385978 0.3798499 0.021109087 -0.29700318 0.8006296 -0.4682826 -0.3399819 0.45225412 -0.55917543 0.70734215 0.7634484 -0.16056588 0.51920885 0.10577373 0.06333065 0.42855656 -0.09437876 0.20968312 -0.08275408 -0.06531618 -0.054902386 0.34355447 -0.35343793 0.34742546 -0.22982068 -0.5180442 0.33950013 0.44459605 -0.12585723 -0.12505943
619 0.46279186 -0.93006283 0.036812898 0.23083426 0.004910645 -0.6731939 -0.4206532 0.43031618 0.390642 0.41253588 0.12388495 0.17980593 0.43039984 -0.20171855 0.08967381 0.29698828 -0.14821945 0.51105106 -0.85511136 -0.09561955 0.20789829 -0.15958683 0.20797865 -0.098258406 -0.011811435 0.011713366 0.24696706 0.28578308 -0.23502338 -0.07711374 -0.18497577 -0.14659946 0.43478647 -0.14316754 -0.26360035 0.28971535 0.88746583 -0.008192383 -0.45809862 0.66074073 0.53873175 0.7764044 0.04676063 -0.33793083 -0.568487 -0.20313089 -0.14194757 -0.29665628 -0.41340256 -0.9340724 -0.27098295 -0.47714216 0.56704015 0.05434338 -0.07999477 -0.5472919 -0.38300905 0.11255011 -0.61085945 -0.28524405 0.5353908 0.36364055 -0.42588684 -0.25096428 0.05441559 -0.6212094 -0.31972504 -0.2378662 0.009710561 0.15957937 -0.41707462 0.80094767 -0.13879174 0.45338023 0.39102253 -0.16095158 0.016802976 -0.37149456 0.23362276 -0.025998592 0.13120055 -0.17177688 -0.23540685 0.0013915091 -0.5338503 -0.45368335 -0.40445328 0.4875687 -0.052952137 -0.24310212 0.5877157 0.43379262 0.5483324 -0.35561547 -0.28166822 -0.24693252 -0.015653292 0.49497613 0.032083128 0.59738976 -0.13920845 -0.12040594 -0.24911462 -0.068324596 0.24601558 -0.024809413 -0.7652018 -0.18849282 -0.2599786 0.25681347 0.34401178 0.20563146 0.3446623 -0.06280043 -0.7732791 0.10337778 -0.6389368 0.20945399 0.2933093 0.28251258 0.33693412 -0.0360903 0.049967524 -0.14633024 0.21927129 0.14135416 -0.024054717 0.24743138
446 0.62907326 0.35438648 -0.5719492 0.44642287 -0.15903208 -0.6264613 -0.004673123 0.17382866 0.18388887 0.21099404 0.07940128 -0.12436562 -0.14491822 -0.23566186 0.032426268 0.3472929 -0.10935124 -0.017711328 -0.2428036 0.20700324 0.26247534 -0.050934013 -0.23435344 0.033190683 0.05235668 0.1651122 -0.10620697 0.10607496 -0.15014158 -0.031664897 0.39167047 -0.24829218 -0.15821433 0.02584905 0.28421953 0.2277011 0.050730895 0.09144464 0.26915708 0.8202198 0.17897654 -0.03581345 0.3391256 0.15403473 0.14904976 -0.10653851 0.36175752 -0.08376047 -0.109809846 0.1669207 -0.028187053 0.34087393 -0.031694878 -0.31712273 -0.2818525 0.10212527 0.29941666 0.16286069 0.033956412 0.042856358 0.40005848 -0.25298733 -0.33008498 0.10874417 0.37131655 -0.30875215 0.04704171 -0.3265847 -0.26532066 -0.42813253 -0.016858062 -0.19710125 0.3183629 -0.36765736 0.31792834 -0.016774077 -0.007042687 -0.29874206 -0.26934946 0.11208118 -0.28815138 0.6985631 -0.48479113 -0.48748538 -0.1731424 0.25604302 -0.34631807 0.470944 -0.014397669 -0.27071944 0.220957 0.10629748 -0.08733852 -0.4370329 -0.10299427 0.41000783 -0.22742476 -0.52332395 -0.45537174 0.016614938 0.049861703 -0.2635722 0.14736632 -0.1172634 0.15237895 0.08102331 -0.44230568 0.064136796 0.70394415 -0.01023195 -0.46881238 0.30390078 -0.10437876 -0.29923368 -0.6785288 0.32242644 -0.015778467 0.18173508 -0.4857666 -0.067040466 0.70594585 0.4734161 -0.019025456 0.13163269 -0.23970532 -0.6466647 0.021660952 -0.19889776
875 -0.16637775 -0.48473552 -0.37993073 0.23485216 0.17181857 -0.39270267 0.52709174 0.4923358 -0.08648885 0.12266652 0.013044275 0.1421947 0.1442067 -0.37964937 -0.33534124 0.3484362 0.17945564 0.5204636 -0.25924358 -0.4355305 0.15167312 0.29365888 -0.03391898 -0.19774304 0.061628487 0.59619963 0.14087467 -0.25806504 0.17728946 0.3601902 0.17926897 0.42769054 -0.124666356 0.33774176 -0.0047449386 0.13563879 -0.0064861462 -0.16063868 -0.42695335 0.05928825 0.09900689 0.18997514 -0.11754706 0.104871474 0.022353286 -0.027327139 0.0013264441 0.02108489 -0.010672582 -0.08478196 0.00445568 -0.06774938 -0.40069053 -0.6635311 0.03138755 0.1810463 0.1912191 0.091376886 -0.62369674 -0.024313517 -0.029708253 0.1543385 -0.032668725 0.109028 0.10708764 0.3913632 -0.0053286473 0.14172718 0.7775293 -0.19993086 -0.6769864 -0.3994726 0.5209932 -0.014031513 -0.21280661 -0.18907939 -0.13220869 -0.22456245 0.4502456 -0.33379918 -0.08761661 0.11185888 -0.16698979 0.079926364 0.066224344 0.29595023 -0.08820093 0.4926591 0.17810963 0.1072937 -0.050222863 0.3701942 0.35201123 -0.49758503 -0.3856954 0.39349154 -0.10870262 0.25407973 -0.017457966 -0.24653262 0.1950701 -0.29652444 -0.00881614 -0.42497167 -0.11762587 0.43488428 -0.016996248 -0.68965346 -0.11044568 -0.29971898 -0.17416993 -0.18402185 -0.2322977 -0.25247937 0.4860358 -0.28309602 0.35169747 -0.028743483 0.14136587 0.58260864 0.20361121 0.022055749 0.372625 -0.17177717 -0.111526884 -0.5069134 0.16695184 -0.19365801
60 -0.20221724 -0.17468978 0.12179867 -0.02458675 0.020861588 0.012377709 0.058403578 0.01016496 0.2749737 -0.28282306 0.1486575 -0.4963882 -0.45616785 -0.074255176 0.7558835 0.31405413 0.3436514 0.010865807 -0.0059848092 -0.10492333 -0.4131184 0.058324534 0.33976457 -0.31194153 -0.025069652 0.24098292 0.0143826315 0.20751324 -0.023961172 0.016246412 0.1971836 -0.33294913 -0.2658976 -0.13976423 -0.029673668 0.20879765 -0.061049737 0.13605848 -0.12021829 0.049438506 -0.3369896 -0.38280925 0.13319641 0.20553163 0.114922516 0.059180375 0.25582322 0.24192548 -0.083233766 0.051801197 -0.008903249 0.10308621 0.010703943 -0.17077203 -0.11461484 0.3030634 0.048101913 -0.39907226 -0.65761375 0.5609783 0.15803507 0.14908506 -0.15975775 -0.15140341 -0.28869858 0.23762201 0.33550823 -0.15043397 0.4683056 -0.10080699 -0.38444322 0.07128794 -0.11296945 -0.17064637 0.42664403 -0.46926996 -0.05787031 -0.091724165 0.20769252 0.2167081 -0.54869056 -0.23522796 -0.37381646 -0.04022959 0.2835193 0.20193666 0.2459311 -0.018194517 0.3021793 0.30901286 -0.2443673 0.046369933 -0.032998767 -0.054902934 -0.30489036 0.16994612 -0.60080045 0.16941983 -0.2134049 0.11910386 0.03130979 0.0029995325 -0.3861303 0.46724594 -0.101320095 -0.21166003 -0.3086849 0.24460486 -0.08474261 -0.08609068 -0.38551077 -0.68192863 -0.37232003 0.17809002 -0.78787446 0.15364921 -0.14445315 0.5605013 0.42915198 0.11246836 0.077528425 0.125725 -0.16311394 -0.42383772 0.6748852 -0.19109897 0.044013694 -0.30296487
161 -0.24063733 -0.02200302 -0.13728587 -0.24632001 0.052873105 0.20357254 -0.261491 -0.14064434 0.27669173 -0.7204716 0.39221194 -0.08315758 0.10588998 0.027324053 0.65747255 0.36806324 0.092912056 -0.019482424 0.12279361 -0.16382816 -0.2283443 -0.02935724 0.33561936 0.10510545 -0.13240877 0.08798018 0.22912404 -0.109158665 -0.23030163 -0.13046394 0.17244123 0.002141969 0.22235052 0.19585398 0.18583852 0.09053063 0.08447476 0.021026794 0.25827387 0.054441374 -0.17242286 -0.19827986 0.34420958 -0.16128036 -0.08718574 0.07118821 0.0048098965 0.06275949 0.27619475 0.09500032 -0.15442708 0.073841766 0.17957133 -0.6170714 0.1383313 0.005580522 0.08091847 -0.10492404 -0.41326758 0.3446849 0.63855785 -0.02299032 -0.04147704 -0.2021897 -0.15692526 0.19880357 -0.16646187 -0.18313728 0.25617656 -0.2970344 -0.72305423 0.06137803 0.3539266 -0.060320053 -0.056320176 -0.12110056 0.056724053 -0.055516046 -0.023466691 0.29886848 -0.68110085 0.31997597 -0.023302494 0.28426298 0.40707812 0.4974615 0.14245316 0.08830394 -0.15647125 -0.04566697 -0.3775666 0.14866869 0.27441972 0.1512993 -0.2460173 -0.13416685 -0.2294881 0.09453238 -0.017911522 -0.050543178 0.07983322 -0.07619994 -0.028392645 0.19101462 -0.1316422 0.11070497 -0.6544977 0.22334804 -0.29030687 0.2649989 0.112094276 -0.4946831 -0.34428307 0.64886916 -0.6063778 -0.1581624 -0.020374648 -0.040152762 0.17020538 0.30024394 0.07510842 -0.25794435 -0.081623405 -0.36979163 0.22899558 -0.3529353 -0.1220735 0.26521242
745 -0.02219339 0.9581092 -0.38778394 0.43751675 0.03870717 -0.054690205 0.292349 -0.15068315 -0.054078534 -0.13531952 -0.104275055 0.3166319 -0.36048213 0.06996845 -0.0814738 0.009925748 0.039264876 0.008358077 -0.20388418 -0.375978 -0.055087857 -0.19958057 0.25417912 -0.3416421 -0.01800037 0.12864673 -0.162709 0.15723968 -0.019654047 0.29154333 0.12771834 -0.028594987 -0.04040613 0.26181293 -0.05486008 -0.14887296 0.03440474 0.03316146 0.00659738 0.03271772 0.108962126 0.14310537 0.07998706 0.044955365 -0.12677774 -0.09699986 -0.39751136 0.020317463 -0.35344937 -0.10621078 0.04481493 -0.20530958 0.07093235 0.33999392 0.1039352 -0.37765378 -0.51266724 0.42266032 0.02288867 0.28241858 0.5882371 -0.15538047 -0.39125472 0.113347396 -0.18539712 -0.24060473 0.0050941547 -0.3785763 0.43013293 -0.2520113 -0.24167489 -0.10503236 0.30707467 -0.09728622 -0.32820517 -0.13600175 0.06676719 0.60912526 0.050775345 -0.056866363 0.09759652 -0.15723266 -0.07894104 0.41123247 0.15336485 -0.09972093 0.34854656 0.06771703 0.15600497 0.36419472 0.23815031 -0.21781583 0.4271883 -0.35143125 -0.32482117 -0.33720762 -0.07493814 0.40193993 0.0974511 0.6288419 -0.010287598 -0.38741922 0.12682994 0.342095 0.10327937 -0.26320398 -0.38543287 0.15648118 -0.18993416 -0.42480263 0.5223332 -0.47236976 0.021875001 -0.40073568 -0.092814304 0.25150517 0.39757386 0.15805355 0.06204695 0.5809685 0.59288275 -0.29351237 -0.15297243 -0.29145992 0.06508729 -0.03256948 -0.50743824 -0.1544319
840 -0.1982488 1.0091382 0.20165375 -0.20349066 -0.04064763 -0.45199797 0.04311644 0.29266348 0.091044776 -0.14830452 -0.060457613 -0.18737572 -0.24535061 -0.15045494 0.039721042 0.22039732 0.08546879 0.53799623 -0.27148587 -0.31629 0.11959415 0.20437486 -0.039896514 0.46340486 -0.1045185 -0.15350805 -0.029760534 -0.15707919 -0.4947641 0.43707225 -0.16603744 -0.22653131 0.2618146 0.2764121 -0.21589994 -0.18175094 0.10240088 0.38207814 0.20486225 -0.08966023 0.47007072 0.16716342 0.03743647 0.415837 -0.00691072 -0.021311296 -0.17275009 -0.09054975 -0.10499849 -0.344749 -0.08032668 0.033772692 -0.19552483 0.24107148 -0.54412496 -0.4009013 -0.0996137 0.3261922 -0.26015013 -0.099405155 0.674157 -0.24680974 -0.15834312 0.253079 -0.014161552 -0.0076635624 0.12351648 -0.35384983 0.7067486 0.124222144 0.2223686 -0.6147742 0.3595351 0.35998282 -0.3495091 -0.09063444 -0.22893463 0.4158266 0.00445745 -0.41321966 0.045437306 -0.07980058 0.03337007 0.15343069 -0.11853355 0.025943153 0.22765082 0.17110686 0.5066647 0.232918 0.38927704 0.007991646 0.31247446 -0.0803195 -0.32859203 -0.3217615 -0.26122802 0.35074234 -0.22301918 0.6525662 -0.18128175 -0.47783512 -0.037502807 -0.108177155 0.3416403 0.35004985 -0.16779302 -0.06853885 -0.43710878 -0.32239363 0.61875165 -0.9198996 -0.040261805 -0.3533913 -0.08066848 0.31240276 0.1468868 0.3684278 0.16877306 -0.002735754 0.30168852 0.14653182 -0.10589686 -0.2381917 -0.017816242 -0.27183142 -0.3056601 -0.03494324
2393 0.77785754 -0.2720497 -0.13035382 0.064962335 -0.17736661 -0.20592895 0.048465203 0.7960428 -0.29962036 -0.050190516 0.25704646 0.5319839 -0.17404768 -0.8834941 0.1523965 0.36642972 -0.49228144 0.1204426 -0.8781523 -0.32043377 -0.028696733 -0.64062166 0.09040811 -0.55974627 0.013597446 -0.35411036 -0.722742 0.2135616 -0.32116836 0.5139121 -0.49833834 0.2806085 -0.7938331 0.5950103 -0.104270935 -0.28944975 -0.29128996 0.27062154 -0.052467734 0.917808 1.1494107 -0.29139507 0.08293949 -0.6125557 0.14195791 0.6437688 -0.68052876 -0.7599593 -0.039530758 -0.10934402 0.16952458 0.1615788 0.05067799 0.3611065 0.0097889025 -0.48578775 0.018476466 0.36879382 -1.03226 0.42098475 0.45119947 0.20655227 0.29114333 -0.49778283 -0.64963746 0.3564485 0.2524909 -0.71470827 0.42779344 -0.2034212 0.36532733 0.06688278 -0.1294215 0.35412705 0.38919565 -0.049715273 -0.09223371 0.3148803 0.16358101 0.22056586 0.16080089 -0.16050006 -0.45322195 -0.13123302 -0.11486305 0.60244155 0.097309306 0.3313205 -0.2407456 0.17764013 0.48801368 0.048922572 0.59187514 0.06605376 -0.7182889 -0.46793276 0.14557578 0.4557981 -0.3037882 0.30580893 -0.18789417 -0.34727773 -0.33686733 0.28837425 -0.070743084 -0.09537398 -0.5148631 0.14099084 -0.19702561 0.111114256 0.042236663 0.91549957 -0.010164712 0.35123035 -0.36853316 0.58414125 -0.6497904 0.063048296 1.0116371 0.50901556 0.12913147 0.28430054 -0.65073746 0.6717626 0.77838695 -0.33356857 -0.0428432 0.63983274
776 -0.2566261 -0.0909933 0.25785446 0.06998904 -0.08526829 -0.20050517 0.16139583 -0.2664405 0.24889722 0.006882754 0.16030338 0.5203038 0.19848925 -0.21958429 -0.0018279059 -0.0027485113 0.043219447 0.072474994 -0.0020955282 -0.17664874 0.12880456 0.08921857 -0.42459437 0.015391879 0.24400051 0.3018013 -0.06825209 -0.20777391 -0.0755319 -0.49608582 0.17258506 0.051859867 0.23054096 0.2316397 -0.1392252 0.098759286 -0.35678676 0.45663506 0.24424483 0.040363304 0.014662031 -0.3161592 0.56377447 0.36572257 0.3500399 -0.4050858 -0.26804227 0.39119163 -0.27823603 0.030364187 -0.24287172 0.0257206 0.01645722 -0.24297675 -0.083836526 0.10441518 0.21443829 0.2705467 0.03358032 0.3090092 0.06146745 0.5399767 -0.18817091 0.34828976 -0.25327668 -0.47911087 0.18691434 -0.040240057 0.24789435 -0.36892185 -0.4769727 -0.17506245 0.03796946 -0.051482357 0.60116005 0.055018198 -0.028523518 -0.23336488 -0.037641224 0.12141717 0.26149282 0.19215538 0.075029716 -0.10142342 -0.0047018114 -0.05876244 -0.2675706 0.36534008 -0.46619597 -0.16658299 0.296763 0.6508575 0.17597885 -0.5404579 -0.22097237 0.28008938 0.052786756 -0.09074663 -0.08395975 -0.16636795 -0.049674686 0.2398911 -0.11865345 -0.118695185 0.4299226 0.23848145 -0.3776725 -0.16793343 -0.10873909 -0.2423807 -0.103684895 -0.07142453 -0.10814139 0.0821997 -0.5840339 -0.0122443 -0.29975155 0.38966027 0.34389168 0.23363629 0.18449466 0.3339717 0.2780323 0.034638643 -0.36863062 -0.26975 -0.39298058 -0.14593528
1824 -0.65859455 -0.27652392 -0.3273208 -0.2360201 -0.3326499 -0.56244546 -0.41606373 -0.31731653 -0.46329042 0.02719526 0.5375119 -0.20645884 0.2543094 0.14308855 0.08092255 0.42726275 -0.17537081 0.043353036 -0.26755494 -0.33861798 -0.13149191 -0.10735564 -0.12807539 -0.28045985 0.115724504 0.08051309 0.28035247 -0.04410683 0.09263545 -0.070848234 0.38487312 0.36752468 -0.56787694 0.6341644 -0.008800462 0.11221564 -0.004638048 0.011153319 -0.03353795 0.2418678 0.031941935 -0.66019464 0.058534693 0.5120917 -0.03459099 0.018891595 -0.35330185 0.022369439 -0.5902548 -0.12354482 -0.42309377 0.11365042 -0.17332055 0.37467492 -0.21055312 0.3998294 0.109162964 0.049367063 -0.31305817 0.4937482 0.58285713 -0.1441262 0.038927097 0.28927642 0.41597372 0.09702793 -0.018931378 0.3141665 0.11580063 -0.11458622 -0.47616464 0.06588601 0.5055702 -0.27549586 0.66919494 0.00042856598 0.6446653 -0.6317556 -0.3672726 -0.2906056 0.35430437 -0.10723687 -0.8808002 0.091544695 -0.12445697 -0.24745376 -0.2782163 -0.059660785 -0.13776627 0.04612489 -0.2724957 -0.11988599 0.2109366 -0.7034489 0.42268458 -0.24489081 0.12962413 0.4121669 -0.8110249 -0.12311218 0.16599189 0.5153242 0.16662419 -0.5847991 -0.083407946 0.34450576 -0.19024858 -0.19262764 -0.07235301 0.1500844 0.38471577 0.05783437 0.12690611 -0.16542366 -0.29591945 0.23342511 -0.677483 0.29386953 0.15287054 0.3561322 0.35295594 0.01250966 -0.0988519 0.27973685 -0.35612446 -0.31803882 -0.5814389 0.43926322
71 -0.0465993 -0.026957497 -0.06979876 -0.07455613 0.13889289 -0.005108077 0.18841217 -0.17016834 0.19837083 -0.43715274 0.35295817 -0.20270354 -0.09549053 -0.1865344 0.1045415 0.0910137 -0.05290815 -0.13971263 0.05615868 0.173798 -0.0533467 0.023246896 0.00257134 -0.42429852 -0.2466044 -0.08790779 0.15834318 0.019462751 -0.21943419 0.17692274 0.19983855 -0.29521984 0.12714073 -0.16089153 -0.058724962 0.59329313 0.18183774 0.21998002 -0.048114598 0.10266586 -0.08669345 0.13493836 0.34793147 -0.15969583 -0.35687503 0.13693444 -0.25503415 -0.44478297 0.2363265 -0.43931058 0.013987424 -0.27132648 -0.03423119 -0.36960202 0.236737 0.105045095 0.0731255 -0.21312034 -0.18691996 0.22729395 0.089093685 0.21379237 0.29988384 0.13097043 -0.09597107 0.44308692 0.4039972 0.06626198 0.18673335 0.14388898 -0.42869297 -0.6148158 -0.2016419 0.37223408 0.042865895 -0.20163445 -0.14309081 -0.26529548 -0.38267154 -0.001287335 -0.23645724 -0.44916493 -0.6915601 0.30656865 0.10709723 0.42739356 0.08392531 -0.1918231 -0.30805704 -0.29746202 0.2793987 -0.046536997 0.17017472 -0.1801579 -0.021462295 -0.23354119 -0.15763466 -0.34785324 -0.029836003 0.18005781 -0.05623451 -0.114823304 0.41607735 0.21660215 -0.32127872 -0.17942867 -0.61298114 0.21499579 -0.4699382 -0.035513632 0.06228562 -0.09644335 -0.6211576 0.27319407 -0.5098726 0.08787198 -0.11636359 0.21868795 0.23448655 0.08806905 -0.08638229 -0.28160575 0.04218204 -0.25143617 -0.14861174 0.0021127607 -0.23197067 -0.068824075
2596 0.01865125 -0.1986008 -0.14529966 -0.77612525 -0.5413711 -0.65240926 0.22966923 0.5291072 -0.91439146 -0.6997244 0.29121143 0.026206665 -0.72185075 -0.7319875 -0.13326083 0.3080333 0.12190791 0.46488854 -0.095300354 0.06796622 -0.5863011 -0.037405938 -0.31518853 -0.6807051 0.25544506 0.42124358 0.33710417 -0.086382985 -0.26635367 1.3127788 0.6321165 -0.5127994 -0.34228906 -0.18872419 0.34504637 -0.5111227 -0.19578703 0.890424 0.08503738 -0.1414346 0.53042704 0.3462408 -0.24129066 -0.3207217 0.51060647 0.055059396 0.45627275 0.62760425 0.43830737 -0.5130931 -0.3812274 -0.063628994 0.6916911 -0.41189685 -0.0015511938 -0.19836316 0.7988486 0.32657617 -0.9099106 0.3090221 0.6857686 0.24347287 -0.09668802 0.15641853 0.1992613 0.049024522 0.4703855 -0.36364064 -0.28821826 -0.8288749 -0.14657946 -0.7426438 0.26914728 -0.20565367 -0.5123391 -0.4676509 -0.2910948 -0.47035468 0.16385654 0.35391483 0.074991256 0.02450456 0.6358289 -0.45637384 -0.46148014 -0.13260484 0.36951083 0.8906735 0.10828634 -0.286642 -0.15155593 0.8724946 0.034602784 -0.1892119 0.8157567 -0.695303 -0.23609982 0.14180687 0.21150419 0.38814658 0.099083625 0.0055601317 0.7723536 -0.46859422 -0.5747478 0.562047 -0.3204483 0.95286214 0.29221818 -0.4983605 0.55443615 0.3774265 0.5653095 0.09559189 -0.729025 0.4138598 -0.63465065 0.1563442 0.25334284 0.053070426 -0.17011954 0.12558696 0.1579212 -0.09658229 0.5657238 0.7577572 -0.2637097 -0.2781701
213 -0.028068248 -0.0008449318 0.22329147 -0.49478546 0.16027346 -0.049956076 -0.03729602 0.3605866 -0.03857966 0.10559669 0.34871766 0.18102637 0.20198509 -0.046344154 -0.39202806 0.34396845 -0.10886205 0.05690509 -0.1317789 -0.4146703 0.26852027 -0.11845704 -0.18710205 -0.48423976 0.38798264 -0.0009576471 -0.20748071 -0.30519462 0.25923455 0.1505477 0.23043357 -0.32089958 0.28812462 -0.6394174 0.2599767 -0.19213173 0.16070902 -0.13112924 0.3860367 0.24159446 0.14861302 -0.026421102 -0.42129618 -0.1753364 -0.32129744 0.11285369 0.21594045 0.08113231 -0.23228608 0.34126368 0.16188735 -0.11149491 -0.18308477 -0.04489834 0.16180128 0.24106556 -0.13809621 -0.19045494 -0.15534851 -0.28193536 0.65638536 0.16572069 0.044774897 -0.02403875 -0.08234824 0.16475864 -0.09653116 -0.06282209 0.16734916 -0.28453305 0.056722835 -0.32511792 0.04209318 0.4204847 -0.4116138 0.2712356 0.28379315 -0.4597497 0.12084667 -0.29281494 0.13387576 0.11368918 -0.4357253 0.4352687 0.07953014 0.08606808 -0.06574305 0.31482592 0.5682533 -0.09463606 0.07660843 0.069377325 -0.31209207 -0.17921062 -0.4588654 -0.41853523 -0.011689234 0.011179724 -0.013278606 0.098306164 -0.33917382 -0.12638533 -0.36939046 -0.09835742 -0.19785914 0.089173384 -0.3303998 0.6233649 0.11521503 0.26098987 -0.32400835 0.019807171 -0.39357853 -0.16587259 -0.020437367 0.2698125 -0.33040747 0.07853856 0.23222287 0.12316592 0.3570515 -0.08759033 -0.03160619 -0.32604992 0.15738317 -0.45380512 -0.1872315 -0.46158913
676 -0.6059597 0.18055518 -0.18363771 0.3654766 -0.070486225 0.19225352 -0.6470157 -0.4113101 -0.36198926 0.16694252 -0.2526105 -0.247232 -0.33303684 -0.20864795 -0.098559715 0.5029698 -0.07107374 0.60088223 -0.18788348 -0.85080403 -0.19143416 -0.1596057 -0.17763843 -0.5737434 -0.0043064416 -0.27838817 0.15027657 -0.35415715 0.3304879 -0.24145806 0.18326077 0.32212493 -0.30362344 0.12606774 0.0025896882 0.47632062 -0.0241164 0.4980933 0.3604351 0.09314811 0.06684288 -0.9641452 0.54432005 0.3006003 0.098778255 -0.31442854 0.20702231 0.13062117 -0.35416353 0.07288817 0.01267236 -0.04810184 0.21592632 0.28023347 -0.21690334 0.02345106 0.21581197 0.03186573 -0.34668967 0.22322781 0.44218042 0.15607394 0.03562674 0.4054511 0.2928265 -0.05221096 0.10918759 0.12749816 0.46926075 -0.14365219 0.26325572 0.19355081 0.43456736 0.1748636 0.44025254 -0.1024182 -0.061212424 -0.011516076 -0.16447946 0.07490213 0.32859558 -0.0821868 -0.08583795 -0.11442375 -0.1348883 -0.0566213 -0.29084867 0.3947641 0.114012234 -0.13051021 0.19108315 -0.046794526 0.20960468 -0.2446369 0.13186942 0.29307246 0.17532124 -0.14737912 -0.20872305 0.23174907 0.43199486 -0.1517674 -0.1962819 -0.035071976 -0.3922915 0.122294255 -0.17190379 -0.16082172 0.15246516 0.39904374 0.1402677 0.29451632 -0.5335494 0.058299392 -0.72776216 0.33841747 -0.35649985 -0.07388092 0.02589151 0.3440138 0.4676156 -0.09583188 0.097621925 0.36644617 -0.5088651 0.3630692 -0.19974814 -0.26735103
111 -0.20484197 -0.23421617 -0.3796906 -0.21282664 0.18903092 -0.13702354 0.0850714 0.19936219 0.12187065 -0.40397844 0.23016143 0.24750918 -0.098733366 0.05763391 0.727262 0.20951457 -0.3438827 0.24536665 -0.18209007 -0.15066397 0.114014335 0.17425863 0.7371665 -0.25173706 -0.27435696 0.057563514 0.083167695 -0.3083612 0.004001367 0.3527708 0.4000313 -0.057136193 0.42196998 -0.041949585 -0.17368849 0.06407394 -0.02938697 0.42694974 -0.046777923 0.08238275 0.02862166 -0.37771884 -0.077920325 -0.27950722 -0.45597485 0.03250496 0.22756717 -0.49578878 0.22076751 -0.438253 0.20005153 -0.16440958 0.13579907 0.0066227196 0.13824093 0.032634217 -0.05135325 -0.40619206 -0.49558526 0.3433383 -0.2546268 0.17314067 0.20723023 0.26897746 0.2283416 0.35094982 0.18963698 -0.2209033 -0.0021702205 -0.16424881 -0.35465232 -0.5181525 0.20145337 -0.15647925 0.3767905 0.16119519 -0.007687348 -0.025998853 -0.15269276 0.23743738 -0.4027364 -0.31000936 -0.16551366 0.65582925 0.098887175 0.2905292 0.06199625 0.022248546 -0.57285786 -0.28646374 -0.2537924 0.5647785 0.22585666 0.20225373 -0.2933757 0.03920575 -0.5227921 0.0050190375 -0.42678955 0.04293453 0.04572553 0.069846556 -0.052499738 0.010587431 0.15728785 -0.13484266 -0.2578403 0.34409267 -0.40807334 0.36802635 0.23164509 0.008859282 -0.24787764 0.20992441 -0.6396685 0.30956742 0.06022165 0.06293475 -0.31696397 -0.00365816 0.20417535 -0.06494684 0.04310399 -0.2724258 0.010278565 0.039099656 -0.31625286 0.005143818
95 -0.096838534 0.14467645 -0.041640192 -0.34479243 0.15389408 0.016218467 0.18486196 0.017820776 0.018374642 -0.24453118 -0.13307926 -0.07291514 -0.34373254 -0.052918874 0.19659927 0.13003306 -0.04575306 0.09805436 0.00132892 -0.08643036 0.09758311 -0.062095817 0.14622949 -0.22972992 0.1831878 0.17192848 0.013687724 0.026469097 0.122137174 -0.24791697 0.5036985 0.30118302 0.15040047 -0.014053469 -0.23400733 0.3612739 0.084224515 -0.21499161 -0.12014241 0.5086719 -0.023489289 0.10593977 0.16459069 -0.65893644 -0.18221715 0.071067095 0.17572185 -0.15626396 0.52759403 -0.16986305 -0.035900515 -0.2932913 0.34726793 -0.28096306 0.21823926 -0.16622473 -0.051103365 -0.37475666 -0.35643506 -0.08479406 0.17326558 0.05718069 -0.1783264 -0.13683662 0.22343965 0.6296723 0.46624744 -0.19808802 -0.20935014 0.11777512 -0.29573265 -0.18805775 0.066264175 -0.11431477 0.4946632 0.15782954 0.15854695 0.11999578 -0.006029731 0.31576815 -0.3086614 -0.309142 -0.061490096 -0.10383147 0.46490476 0.73613507 -0.18485163 -0.06442999 -0.25992268 -0.2679673 0.24630922 0.21854776 0.1892594 -0.03588309 0.17816149 -0.07028116 0.19593142 0.031508483 -0.276472 0.105453596 -0.3170128 -0.17319638 0.20620027 0.11126677 -0.5782435 0.0075283204 -0.17749503 0.060533047 -0.48958206 -0.11839143 0.0029254803 -0.80439 -0.28692314 0.10590289 -0.49120396 0.059537884 -0.071441315 0.0031295868 0.34109324 0.01098817 0.05328136 -0.27915213 0.18435341 -0.20314015 0.021099016 -0.17420274 -0.33555007 0.073511
1202 -0.3061536 -0.5224942 -0.4232438 0.23476058 0.123991564 -0.6449126 0.5792496 0.35407448 0.00044141142 -0.030187517 0.117497094 0.4003497 0.20505357 -0.64412135 -0.19504619 0.3944653 -0.012225969 0.81320214 -0.10750704 -0.49985108 0.111101665 0.5142554 0.09958981 -0.1274543 0.20021696 0.4232678 0.100050144 -0.23779917 -0.01560754 0.10274363 0.10784192 0.58989894 -0.57928157 0.2361372 -0.042622805 -0.0025172431 -0.12652636 -0.25992867 -0.243442 0.11182368 -0.13366868 0.26483965 -0.04530476 -0.05286313 0.20512502 -0.18852045 -0.26574048 0.061699044 -0.15890794 0.020775465 -0.022404691 -0.3294938 -0.33925298 -0.3575543 -0.056242153 0.1671954 0.13371271 0.05317559 -0.55235845 0.30246267 -0.165925 0.19709952 0.005386488 0.43077958 -0.03132263 0.31193 0.13421723 0.07880434 0.7940241 0.1620738 -0.46329537 0.004539159 0.45653874 0.032236546 -0.011570682 0.017218199 0.47369978 -0.09029314 0.3664739 -0.20518431 0.048574425 -0.09452147 -0.19566797 -0.012840359 -0.024213843 0.17700511 -0.5062848 0.6081381 -0.12533359 -0.04484154 -0.25449404 0.3969166 0.44350138 -0.42033198 0.027624026 0.3312591 -0.22940892 -0.37656417 0.32286632 -0.09141465 -0.16915712 -0.20179501 -0.108800836 -0.15504467 0.07855156 0.7490293 -0.33021787 -0.069795854 0.008878965 -0.76295847 -0.112983614 -0.51994514 -0.27887383 -0.3880307 0.33222926 0.19780326 0.11776382 0.14118241 0.10990748 0.37074763 0.1344416 -0.010630322 0.40083092 0.10820597 -0.47831115 -0.524502 0.13780452 -0.02538339
626 0.52855074 -0.9780453 0.0801725 0.19929864 0.1334911 -0.53738815 -0.5434575 0.5194516 0.3433508 0.48190278 0.23794039 0.18894884 0.5042098 -0.018558627 0.31359595 0.4350162 -0.33593792 0.5148963 -0.6894734 -0.097612865 0.1349973 -0.17324077 0.25124067 -0.4192085 0.034321606 -0.10569751 0.2114171 0.28319842 -0.4453859 -0.18961073 -0.14548537 -0.18198216 0.2283123 -0.11540213 -0.2065363 0.12588294 0.66706717 -0.20535487 -0.3509931 0.6740292 0.6290613 0.58292425 0.24217267 -0.41101035 -0.6923624 -0.06177198 -0.286839 -0.37576413 -0.11069865 -1.0185971 -0.22209431 -0.22908513 0.7504388 0.056683276 -0.11959242 -0.54574245 -0.33673808 0.027516356 -0.7117502 -0.08885365 0.4038054 0.27537423 -0.5416955 -0.22021118 -0.043046113 -0.47582307 -0.0129595585 -0.26689184 0.13047215 0.106735684 -0.35141554 0.9169854 -0.14429532 0.49135616 0.19080108 -0.19528632 -0.018084714 -0.21084212 0.6057648 0.17383753 0.024164094 0.06390511 -0.13819921 -0.20369983 -0.43025863 -0.33803985 -0.41946664 0.39864528 -0.10250214 -0.14360952 0.63702947 0.3091303 0.40601873 -0.24801579 -0.2748558 -0.29345065 0.13667434 0.42015535 0.17654924 0.6204209 -0.16453664 -0.18321355 -0.08763009 -0.28505704 0.3097469 -0.049591776 -0.75599825 -0.13503696 -0.50631994 0.25782266 0.29108983 0.22377294 0.30716467 0.20162414 -0.6700669 0.21680152 -0.5547637 0.26143417 0.39384902 0.24605192 0.503928 -0.18804093 0.15549211 0.09104957 0.118755355 0.17470884 -0.072804034 0.23294061
110 -0.20188716 0.0008960685 0.3664186 -0.06381125 -0.14315607 -0.31930774 -0.09673006 -0.40500498 0.13792175 -0.45277488 0.25639814 0.23687592 -0.24460788 -0.020508546 0.08408454 0.16870767 0.054155167 0.0721649 -0.19656472 -0.12708034 0.1463457 0.1728429 0.08034173 -0.108829394 -0.30067468 0.32538965 0.21655886 0.028822353 -0.12048083 -0.10874065 0.7745664 -0.42416465 0.11903842 -0.31130067 -0.43274453 -0.40141374 0.0045755436 0.55824244 -0.5481809 0.33603522 0.4797371 -0.27479944 0.20862128 -0.21471618 -0.005765187 0.5391242 0.3697429 -0.19826598 0.14048584 -0.6827481 -0.25747275 -0.52394766 0.15837286 -0.13548732 -0.1049181 0.066806056 0.30522013 -0.27645144 -0.40161988 0.31417435 0.3497201 -0.09349924 0.36298838 0.19016738 -0.2650207 0.6691127 0.30414915 0.046733603 0.30262175 -0.056918908 -0.21253082 -0.5008811 -0.38223225 -0.19056931 0.3836536 0.12776896 -0.17991222 -0.07905893 0.2570237 0.19685748 0.22056857 0.37540284 -0.50242347 0.066487275 0.47972214 0.19796382 0.23911501 0.52194256 -0.0943025 0.11397152 -0.22667451 -0.13286519 0.15510155 -0.1196723 -0.78752786 0.11279948 -0.004378561 -0.23809789 -0.5738299 0.16376093 -0.0789628 0.29880476 -0.45060274 0.46419212 -0.47173345 -0.28424883 -0.5466158 0.576993 -0.26489303 -0.15259185 -0.34657678 -0.31764203 0.023295002 0.7318392 -0.453137 0.019963337 0.17241202 -0.16112094 -0.1771882 0.13384137 0.2696271 -0.27581114 -0.0067642243 0.09779592 -0.24596855 0.1909616 0.42672208 0.4069925
1756 -0.09021209 -0.3221081 -0.23996069 -0.33082962 -0.09921128 0.00012497965 0.6464529 0.24985634 0.5997368 -0.026946066 -0.30651107 0.006730916 0.4610169 0.07516291 0.23054597 0.5819508 -0.5359737 0.53762895 0.2737822 -0.22162843 -0.018143432 0.9019526 -0.4840151 -0.69726783 -0.57770765 0.46220294 0.20145854 -0.26025888 -1.2215014 -0.22934832 0.95589334 -0.068915665 -0.9290205 -0.30034837 0.7049831 0.12602095 -0.06449262 -0.13404699 0.21505584 -0.029117865 -0.24726936 0.17436476 -0.028706642 -0.08725781 -0.97081393 0.5717365 -0.3722018 0.4635951 -1.0224533 -0.6125785 -0.5606134 0.30951673 0.25270298 -1.0456983 0.40634447 0.5060726 -0.2748877 0.6520565 -0.6426619 -0.15861817 0.048404053 -0.12283929 -0.09250709 -0.48585063 0.48358688 -0.9517871 -0.19711934 0.5514532 0.16786924 0.20316829 0.077357024 -0.50229293 -0.46376696 -0.92838264 0.2190435 0.3271077 0.14830904 -0.19441283 0.2028415 -0.048577335 0.6681465 0.36787766 -0.89471805 -0.55621314 0.59257853 -0.13262571 -0.27933627 0.5811608 -0.461542 -0.5785351 0.1344752 -0.86203116 0.3237354 0.122152545 -0.34366044 0.19487952 0.071690746 0.84011513 0.3668243 0.40747812 -0.38298094 -0.3223002 0.02255813 -0.35839006 -1.033703 0.10213089 0.087237574 0.40090227 -0.432803 0.7523525 0.033991806 -0.80951107 0.028850602 -0.72224087 -1.1777555 0.6704451 -0.24972014 -0.51312566 0.4641487 0.69978625 0.34890506 -0.07656245 0.056114987 0.4694589 -0.20542006 0.24660823 -1.0308529 -0.5573834
474 -0.14102836 -0.0841652 -0.14853822 0.04302523 -0.16261114 0.17836975 -0.3331978 0.614238 -0.00955162 -0.061237607 0.098090485 -0.118060805 0.42911744 0.1923113 -0.15309928 0.5871379 -0.058526143 0.0694184 -0.40438616 0.308409 -0.35465348 -0.35377306 0.3980293 -0.19603357 -0.29849154 -0.07821105 0.4052002 -0.17312407 -0.10524893 0.1027399 0.7285496 0.2969606 -0.20019773 -0.12824579 0.64533377 0.16053754 0.05076802 0.31312224 0.18635325 0.60879904 -0.05303694 0.18503337 0.021473775 0.11443211 0.21094653 -0.23914489 -0.15248136 0.39577726 0.2573917 -0.26450723 -0.3048929 0.13902232 0.25339603 0.0051142233 0.20852569 0.16311944 -0.16441537 -0.28407994 -0.34203914 0.092230566 0.07979733 0.22776014 -0.010677619 0.3847341 -0.07374573 0.35437432 0.4289973 0.0152034685 -0.21693484 0.38508895 0.17731567 -0.07855937 0.010966047 0.04269198 0.25715125 -0.35092157 -0.15846217 0.78059953 0.27492398 -0.045362778 -0.0758672 0.4465748 -0.039752897 -0.3032957 -0.13189216 0.36476827 0.19657901 -0.037367597 -0.67675686 0.5582969 0.031519104 0.28727335 0.023749672 -0.13547413 -0.40928438 -0.004248933 0.0055202516 0.00960683 -0.016478466 0.7489283 -0.059393913 -0.32761344 -0.46612233 -0.44388792 0.28122425 0.05116967 -0.52985245 0.08962914 -0.3897864 0.05666364 -0.096940175 -0.13524555 0.36847687 0.17689253 -0.05053208 -0.016499868 0.036142472 0.3744912 0.79815716 -0.06398553 -0.067788005 0.10109254 -0.32541537 0.17038698 -0.011816027 -0.008527485 -0.31208724 -0.05261319
1467 -0.27732223 0.3320808 -0.2275626 -0.36639556 0.2702859 -0.41131166 0.29341072 0.01835097 0.4151281 0.12853375 0.46825358 -0.2889385 -0.0877191 -0.23196013 -0.24894659 0.09144705 0.49426448 0.3087702 0.26573598 -0.28261128 0.040167328 -0.12165095 0.029700045 0.13491155 0.21030207 0.2073395 -0.08384714 -0.13912596 -0.2426943 0.54561836 0.051004443 -0.1442864 -0.23463812 -0.5927782 0.20482409 0.02049386 0.1357609 -0.20755827 0.5248314 -0.04349587 0.90106416 -0.1583171 -0.06590203 0.5773738 -0.4132716 0.6327952 0.0024897049 0.036304582 0.030007536 0.2347546 -0.027202222 0.17168199 0.12755454 0.5700899 0.21294108 -0.13449824 -0.5404546 -0.43467557 -0.012109682 -0.16130422 0.20404558 0.1785758 -0.3324691 0.088143975 -0.070848756 0.09066972 -0.03032997 -0.33898762 0.673154 -0.18520547 0.08014553 -0.63329405 0.22360739 0.012930733 -0.05150096 -0.32855806 -0.1123819 0.10049192 0.42438728 -0.36203286 0.16599166 0.14137538 -0.033801828 -0.0727197 -0.042578354 0.51391685 0.1030522 0.466969 0.920738 -0.12785113 0.24664505 0.4616093 0.13145113 0.109614775 0.008817446 0.039104793 0.0055572726 -0.3574981 -0.33309916 0.31072 0.38841143 0.07160558 -0.059479464 -0.13673759 -0.13100693 0.12337322 -0.21694627 0.13422063 -0.20525794 0.18653487 0.5391112 -0.29113692 0.29034844 -0.03979818 0.09053365 0.7400282 -0.053122222 0.14081915 0.36961922 -0.011363937 0.77911687 -0.4260436 0.26818123 -0.21324176 -0.23053023 -0.0029370268 -0.20786582 -0.17345667
96 -0.39455852 -0.030341672 0.338603 -0.1488249 0.12766176 -0.25370008 0.4573973 -0.0838379 0.08625178 -0.35691854 -0.026075743 0.07746054 -0.09498904 -0.33246076 -0.08284751 0.022594081 -0.19886912 -0.19506939 -0.114777215 0.3773045 0.09176659 0.011710169 -0.356524 -0.021352194 0.15457241 -0.17550047 0.056024343 0.01987469 -0.37499645 0.12206477 0.08826262 -0.12135806 0.15446715 -0.42624477 -0.04890593 0.1549159 0.19337642 0.12127668 0.06555979 0.2903997 0.2720351 -0.03886375 0.08330529 -0.005881207 -0.24821794 0.0603782 0.37415054 -0.032712087 0.031989567 -0.43291137 0.3056982 -0.06356987 0.17715153 -0.38442144 -0.07499689 0.40906483 0.30687577 -0.26176515 -0.47662935 0.39225665 0.12499122 -0.28960428 -4.6806854e-05 -0.1484374 0.11233732 0.52136904 0.1650592 -0.06764472 0.16769138 0.17541441 -0.18190435 -0.6452719 -0.14691369 0.11696833 0.52736133 -0.29452682 0.19665839 0.034946688 0.017783817 -0.09255165 0.04288837 -0.41298285 -0.53623146 0.005741378 0.24361923 0.31044707 -0.14719947 -0.15917905 -0.15983316 0.08803451 0.26482755 0.053015184 -0.25787824 -0.13790123 -0.23857895 -0.08888588 0.06495904 -0.39273357 -0.2428285 0.3263814 -0.4417495 -0.13110004 0.1509428 0.6839849 -0.23778833 -0.388283 -0.7569017 0.36357948 -0.2263253 -0.059720438 0.17733535 -0.14371589 -0.5540558 0.18491302 -0.62884194 -0.21872626 -0.0949047 -0.008397077 0.17692415 0.13675047 -0.08414481 -0.064517744 0.18070073 -0.18153125 0.16659196 -0.19322783 0.3766222 0.47127223
1062 0.0023772547 -0.5193897 -0.27036443 0.3865313 -0.25281668 0.030927813 -0.05756556 0.07423758 0.115008 -0.2521196 -0.17767583 -0.024587004 0.146938 -0.44246086 0.4336205 -0.046482403 0.41925383 -0.30616695 0.3816154 0.010569403 -0.2595571 0.22102737 0.037122812 -0.6069671 -0.6955194 0.3518383 0.27804613 -0.70304096 0.32809123 -0.057556763 0.33355772 0.18554106 0.0042724195 -0.096747965 -0.005586257 0.014151812 -0.27128047 0.472348 0.13712691 -0.019297376 -0.10978735 -0.003291093 -0.20978908 -0.02107783 -0.74777746 0.19435133 -1.0315852 0.20577148 -0.7372927 0.66817164 -0.5594819 -0.27232802 0.92509925 -0.10770075 0.43711632 -0.80298537 0.3535167 -0.37683 -0.58067364 0.34615365 0.25838315 0.36517698 -0.27124298 -0.55272424 0.33473983 0.10203196 0.23516308 -0.320005 1.0619549 0.015623052 0.012490504 -0.8615996 0.30214772 -0.5444357 0.38579196 0.833509 -0.6361215 0.69795626 0.19364797 -0.249281 0.39360377 0.3887098 -0.65284944 -0.5650191 -0.5321849 0.22622791 0.059338465 0.3109748 0.08696705 0.06512215 0.3771165 0.23138417 -0.38265052 0.07559187 0.06695839 -0.95988274 -0.7979275 0.41320965 0.20347667 0.3522815 -0.49284264 -1.3342884 0.10671753 -0.7978201 0.42480695 -0.6018024 -0.12771314 0.5046319 -0.014264579 -0.46196854 0.29506835 -0.49705112 0.03813516 0.16546121 -0.21917087 0.34572795 -0.22589 0.5148169 -0.01591698 0.072243914 0.09335792 0.62820405 -0.30972978 0.34217232 0.13702074 0.21259607 0.011728289 0.31807268
1389 -0.42109326 -0.19114092 0.38061085 -0.012687404 -0.0623148 -0.17896584 0.082155734 0.048242513 -0.43429583 -0.029910099 0.108680494 0.12878355 -0.0026521191 -0.26202962 -0.02154848 0.013601073 -0.3567752 0.29169655 0.04997486 -0.3829057 0.29551077 0.34590802 -0.37400663 0.084278286 -0.18404229 0.188669 -0.036852945 0.056559864 0.016217591 -0.37195855 0.16272093 0.05636318 -0.34433925 0.1894974 0.14043896 0.44966948 -0.15749732 -0.35908943 0.06041753 0.48332456 0.2267464 0.28895336 0.296123 0.24975558 -0.37409046 0.37220103 0.40388238 -0.36505765 -0.3360461 0.1270725 0.18847664 0.1551582 0.37532985 -0.4369536 0.27188107 0.2718598 0.032265224 0.10936337 -0.5924893 0.20955475 0.7939205 0.39170432 -0.13929236 0.081999786 0.25667474 0.37231573 -0.15268925 0.10504021 0.21329772 -0.015440242 -0.64184064 -0.4912612 0.19607396 -0.05994244 -0.4958592 -0.088022485 -0.034615617 0.16070576 0.7319023 -0.46972424 0.15300421 0.15853353 0.14038123 0.47947574 0.6744437 0.3648659 -0.3264337 -0.1476725 0.065835826 -0.1268877 0.14685182 0.50768226 0.26217967 -0.28305408 -0.29520044 0.09950508 -0.27843472 0.11007067 -0.41431955 0.06643311 0.8160503 0.0009044335 -0.18836504 -0.40947843 -0.028253032 0.25337183 0.27955344 -0.050235186 -0.22145091 -0.3252935 -0.6447685 0.7124232 -0.0836738 -0.07679388 0.18590476 0.09224876 0.22488819 0.08631322 0.14304943 0.11592928 0.36879206 0.038761366 0.02772699 -0.49034408 0.07838714 -0.3073394 0.08320008 -0.0058918614
658 -0.23007184 -0.5548674 -0.04595107 -0.44906408 0.44369334 0.05648914 0.42899117 0.39063427 -0.26567274 0.51224405 -0.07776397 -0.007174023 -0.32524917 -0.1957704 0.007449486 -0.4781633 -0.24335296 0.25900322 -0.33064893 -0.14059931 -0.86830544 0.42783916 0.2701638 0.12574942 0.2773969 -0.1606282 1.0066209 0.15538095 0.2537305 0.31602833 0.17887627 -0.15360542 -0.02943417 -0.03905903 0.8052116 -0.23485148 -0.14982828 0.28882614 -0.2893254 1.0862846 0.27693722 0.4516133 0.28588256 0.30600247 -0.28588086 -0.11950515 -0.043298494 0.2915554 0.03442363 0.17135711 -0.14428654 0.19707914 0.05063516 0.09686374 -0.3131498 -0.84024197 -0.07038622 0.33719146 -0.35028312 0.39210907 0.34583113 0.4199143 -0.30298153 -0.29720747 -0.00060212385 -0.07430496 0.27450517 -0.13280293 0.80879354 -0.05243434 0.21498495 -0.3903309 -0.16785493 0.027066054 -0.2800447 -0.26534134 -0.76140046 -0.0005617328 -0.7026018 0.77113354 0.9540805 0.40488037 -0.5015222 0.49219656 0.24997944 0.27854988 -0.6562893 0.57238275 0.8018073 0.49071875 0.03340328 0.23224871 0.10244615 0.1538347 0.50368273 -0.109634005 -0.48035562 0.052651297 -0.021118984 0.09160949 0.2868511 0.25380233 0.5501242 0.0793689 0.17042138 0.40887836 -0.3127547 0.098074436 0.10041162 0.00088070723 0.16328412 -0.4246124 -0.09324113 -0.23962493 0.1115393 0.75906116 0.20827709 0.15362707 0.08422851 -0.12577517 0.40272844 -0.00088351796 0.020703562 0.019763041 0.2220318 0.10109419 0.077232234 -0.06782022
568 -0.64096284 0.039619368 -0.30048847 -0.21012625 0.5457197 -0.82345766 0.10692084 0.41095844 -0.009845286 0.5093722 0.0565217 -0.074030235 -0.05622601 -0.16588342 0.10455346 -0.057372272 0.42731836 0.3620509 -0.19673184 0.15440571 0.24900298 -0.1590299 -0.034174796 -0.1831898 -0.36484408 0.2833629 0.16193147 0.026693534 0.083210364 0.11587083 -0.1819478 0.4626941 0.58806306 0.46572083 0.26078928 0.25516555 -0.5341852 0.34524885 0.2488005 0.13991903 0.03883863 0.57699156 -0.013295668 0.6084781 -0.07893357 -0.28205845 0.07533631 0.15353021 -0.33278075 -0.058450576 -0.048014633 -0.23035932 0.46960762 -0.56318897 0.29776415 -0.1559811 0.10259976 0.2585484 0.15103546 0.054929797 0.42390174 0.30709738 0.30121866 -0.4277642 -0.22572458 -0.18546206 0.7077252 0.42464873 0.5780093 -0.37859556 0.29432073 -0.20794146 0.15634106 -0.49526888 0.9884853 0.0018636716 0.108121164 0.22415946 0.27952334 0.6658252 0.025998278 0.5369345 -0.25148895 0.36444765 -0.19152096 0.10216377 0.16935608 -0.32962635 0.23960117 -0.20286992 -0.16236627 0.17995572 0.27426955 -0.028545244 -0.2038874 -0.26693085 -0.046269607 -0.14950229 -0.5590859 0.21988937 -0.20581079 0.2119853 -0.07134608 0.00015743422 -0.277942 0.32372868 -0.45926818 0.004627131 -0.059704494 0.09483612 0.11591991 0.13946472 -0.21497647 0.12996662 0.29583967 0.04390592 0.19593698 0.21374659 0.69460744 0.1705496 0.01767665 0.41501337 -0.15013933 0.2660149 0.18249623 0.1329267 -0.13715237 -0.15464
2009 -0.22532758 -0.4626751 0.5643651 0.095312946 -0.43854007 0.121455856 0.111314915 -0.3801909 0.42678726 -0.16434994 -0.5886793 -0.043150835 -0.16998434 -0.3194022 0.8317969 0.59774476 0.1523021 -0.7435028 -1.1832479 -0.6631039 -0.24987909 0.026129052 -0.8468631 -0.59719443 0.18139839 -0.07192526 0.08193182 0.4446331 0.32639 1.0525644 0.48383883 0.41789 -0.67028826 -0.13736464 0.9700452 0.21425036 -0.03139617 0.003804342 -0.67587554 -0.005070865 0.056615952 0.40221468 -0.37098524 0.28405043 -0.0046408144 -0.23284741 -0.6023546 -0.0017452866 -0.21906424 -0.21975748 -0.3860596 -0.42590833 0.08729302 -0.7022072 0.527017 -0.51966006 0.036735907 0.27740335 -0.065681666 1.151815 0.44279495 0.00045930117 -0.5567042 0.15988235 -1.1383739 -0.27393183 -0.6097546 -0.24438082 0.114432245 -1.0528194 0.55020803 -0.61670524 0.51957816 -0.68819904 -0.44512263 -0.26514792 0.6683369 0.3290304 0.429247 0.47354373 0.45573515 0.21901667 -0.34010345 0.78490335 -0.44064757 0.43302357 -0.35090917 0.52831554 0.023533635 -0.60872734 0.36406147 -0.014109941 -0.05066305 0.37078872 0.329698 0.20875122 0.053406406 -0.38142082 -0.23115452 -0.034756884 -0.36704582 -0.038324647 -0.70668566 -1.0503486 -0.53244776 0.6159295 -0.6291878 -0.30484453 0.5002378 0.53037196 1.2551279 0.11690414 -0.7112665 -0.46328896 -0.4393492 0.94839156 0.3815422 0.64293426 -0.14598568 -0.13915764 0.3618914 -0.49202502 -0.870493 -1.1351819 -0.26202765 -0.031570546 0.1348826 0.3872578
193 0.40650684 -0.023322126 0.21011229 -0.23024152 0.15568002 -0.22009481 0.098693736 0.054334242 -0.091817066 0.4096361 -0.021210155 0.17986512 0.18453899 0.09038105 -0.20410535 0.3007021 0.11802545 -0.11608632 -0.47601548 -0.10847099 -0.021221891 0.60989994 -0.057949327 -0.050633907 -0.18741982 0.32575938 -0.16284195 -0.15612444 -0.11640085 0.07264659 0.48185748 -0.36608 0.03436127 -0.55896944 0.4932271 -0.16716196 0.07145594 -0.36689338 0.42097092 -0.031382162 0.2683567 0.1548718 -0.22269885 -0.22301973 -0.28334126 0.18918458 0.045950595 -0.17300355 -0.15091984 0.07353734 0.29957303 -0.2702561 0.11288209 0.13031515 0.0876883 0.3782689 0.28468412 -0.3001134 -0.42391822 0.26250893 0.46330398 0.35393438 0.36029002 0.056096777 -0.25436884 0.42948207 0.32994604 0.030179834 -0.026410166 -0.1949873 0.16452937 0.20935869 -0.048196312 0.51072407 -0.14266825 0.04101799 0.13175775 0.0966221 0.12026073 0.114979595 0.40450153 0.18642934 -0.13299833 0.13581014 0.096283056 0.039056063 -0.08041081 0.60779166 0.18415861 -0.28089 -0.31168362 0.18251064 0.30284053 -0.35146064 -0.8649092 -0.5144445 0.11671119 -0.22012985 -0.46111062 -0.22228676 0.01893689 -0.6107681 -0.2689059 0.16523048 -0.032211404 -0.13519181 -0.10167628 0.018465446 0.3695877 -0.11948714 -0.15446824 0.03685217 -0.43654573 -0.33326015 -0.18520752 0.16894878 -0.6676497 0.1636441 -0.39367062 0.3458438 -0.13550635 -0.15160404 -0.060930695 -0.43669325 -0.07631531 -0.23233333 -0.5339496 -0.0650853
797 -0.031190492 0.24920736 0.0018430823 -0.021055046 -0.33699703 -0.49862644 0.21119241 -0.5509692 -0.17505346 -0.3361078 0.15918478 0.35351607 -0.21968804 0.081262514 0.21912448 0.448807 -0.040717687 0.47580892 -0.1754045 0.18171728 0.23873872 0.1319309 0.052689068 0.13266975 0.10459879 0.12858778 0.18809402 0.24695298 -0.33062428 -0.14259373 0.13878423 0.31777745 0.20912099 0.16394132 -0.05030843 0.02799438 -0.26898745 -0.28903812 0.43865305 0.3824033 -0.0692506 0.4551844 -0.32813826 -0.17679915 -0.05325626 0.2496555 -0.096496925 0.024814023 -0.21273245 0.18555763 -0.3975974 -0.24328536 -0.48021868 -0.4099164 0.07172398 -0.0977713 -0.24920742 0.3351443 0.21099064 0.26512396 0.33506912 0.31189698 0.35052508 0.4462425 0.024222616 0.22731563 0.60749227 -0.0034599253 0.58088803 0.066991925 0.1444959 -0.151838 0.17769487 0.19252186 0.59286755 -0.42225668 0.0515933 0.013043418 0.12071823 0.29859188 0.055565845 0.035483055 0.23355469 -0.02655973 0.44961536 -0.4873824 -0.05004726 0.23275094 0.41427517 -0.11431322 0.32885095 -0.021006195 -0.067386895 -0.027698312 0.45831499 0.49684402 -0.50001353 0.4850626 -0.39587742 0.6149888 0.20201172 -0.4435609 -0.5215266 -0.21546419 0.050921932 -0.83209556 -0.2787646 -0.11546939 0.12857875 0.37821552 -0.33215466 0.16252041 -0.3447844 -0.17266315 0.081684075 0.27387854 0.07217226 0.063190624 -0.07772373 0.34124672 0.24990205 0.3175364 0.09281109 -0.05051901 0.11158514 0.15272246 -0.30910242 -0.014196118
1719 0.023941154 -0.4194893 -0.36447722 0.5974097 -1.1198394 -0.025665231 0.053098146 -0.043996193 0.17444079 -0.40542397 -0.95625335 0.38295916 0.07773701 -0.845195 0.5824457 0.32697788 0.3487997 0.2875188 -0.2144066 0.78106576 -0.032519065 0.6130493 -0.005563349 -0.6030383 -0.042068005 0.08470405 0.91525173 -0.22483854 0.35778013 -0.04017353 -0.34567627 -0.5370982 -0.004703068 0.17539991 0.12259386 -0.07548822 0.15949948 0.35726845 -0.09705672 0.610896 -0.30726802 0.7153071 -0.8646083 0.117454715 -0.42102408 -0.06463406 -0.66409427 0.06119696 -0.9410628 0.08398063 0.12544899 -0.5489699 0.19387892 0.37913728 0.51618856 -0.22901674 0.18611638 -0.5575764 0.014603731 0.23909119 0.05894791 -0.07146177 0.52154374 -0.11647886 0.2800894 0.21198754 -0.44261774 -0.47207168 1.1085984 -0.11056082 0.16359846 -0.09248454 0.53359485 0.046946704 0.6228005 0.071325034 -0.7659035 0.8658972 0.3153223 -0.3056975 0.62169063 0.2128599 0.2948292 0.2480445 -0.1718438 0.2070125 0.30916885 0.14391136 0.16773064 0.03536848 0.5566906 -0.35009673 -0.16897695 -0.019100232 -0.22261587 -1.4007391 -0.41590005 0.4683843 -0.6529195 -0.7388216 -0.019136371 -0.6696659 0.6087687 -0.46575803 0.13260254 -0.14496958 -0.8292568 0.08372074 0.083412446 -0.3619438 -0.6906577 -0.6000425 -0.3833494 -0.06817342 -0.54311144 0.11290442 -0.26583195 0.38927335 -0.033846416 0.5061266 0.7641551 0.14486828 -0.24622545 0.07359782 0.44162938 0.8232156 -0.50636923 0.12841599
