2708 128
0 0.08963085 -0.227646 -0.052376125 -0.41962108 -0.28649384 0.19517995 0.32876104 -0.107112795 -0.07941042 -0.01171784 0.20054653 0.18709044 0.16320641 0.30670846 0.14783369 0.36199504 0.10238983 -0.13071918 0.03755135 -0.003546472 0.086657904 0.28537095 0.13713071 0.050197802 -0.10422069 -0.08291219 0.08440647 -0.05813459 0.017895948 0.18092306 0.17448272 -0.13365383 -0.24581267 -0.21483892 0.053278904 0.034864232 -0.32682636 -0.072196215 -0.22136635 0.12511344 0.26387852 -0.048000626 -0.17278387 -0.074559584 0.19678956 0.04714042 0.51646465 -0.42401552 -0.14686039 0.14189152 0.07127094 -0.017608568 -0.031417884 0.29591903 -0.04797714 -0.036346953 -0.057666685 -0.25140318 0.1444509 -0.1254493 0.19350587 -0.13433619 0.20807779 0.25565794 -0.21196023 -0.11608557 -0.06969472 0.24138843 -0.050153952 0.43733457 -0.035667483 -0.07345363 0.022043578 -0.08357638 -0.027999049 -0.16733873 -0.03029804 -0.26636642 -0.57187825 -0.08515286 -0.23449218 -0.39930683 -0.10069263 -0.12399348 0.19218126 0.13759696 -0.24151993 -0.07863486 -0.074301586 -0.2884228 0.0137507375 0.121472605 -0.0360567 -0.0822894 -0.023753505 0.20100133 0.0344582 0.028891923 0.040173616 -0.16581307 0.051371343 0.11418519 -0.023542723 -0.102479875 -0.042598672 -0.12425396 0.004206727 0.21248946 0.14168413 -0.32436723 -0.25184894 0.049962085 0.1347617 -0.09828567 -0.003841922 -0.0073781563 0.033275142 0.124957904 -0.027095092 0.23265468 -0.04481493 -0.04335525 -0.06253796 -0.030109303 -0.16785145 -0.1496773 0.19857013 -0.03079276
377 -0.017749136 0.040803466 0.08482937 0.015463579 0.09220942 -0.17878953 0.5584415 -0.19607437 0.16868013 -0.09987586 -0.22667477 0.11737851 -0.14222938 0.0256904 -0.23559497 0.083864465 -0.26812366 -0.4592829 0.17038356 -0.08177134 0.34564844 -0.40680835 0.03424438 0.18910725 0.078372665 0.06604626 -0.111337975 -0.026713768 0.021731319 -0.1380983 -0.035227884 0.0964486 -0.099309765 0.16076584 -0.100404784 0.17195202 0.22362451 -0.04119302 -0.2882701 -0.1295779 -0.054430082 -0.052224677 -0.0729415 -0.008433505 0.07130132 -0.1134211 0.08811548 -0.2578826 0.1595867 -0.2360062 0.100357994 -0.25811356 -0.038049445 0.23265575 0.34050035 0.109743476 -0.06980405 -0.077308506 0.21112834 -0.20021588 0.0342345 -0.38573965 0.21154407 0.25483805 -0.022538299 -0.13627535 -0.026833799 -0.29756245 0.011279916 0.017651396 -0.14343904 -0.10454622 -0.03439999 -0.26075348 0.4100985 -0.32813454 0.31662732 -0.44094688 -0.07778719 -0.28194353 -0.4624762 0.40758443 -0.19033001 -0.1430156 0.12570001 0.0117964465 -0.06811312 -0.34866112 -0.18987228 -0.21658644 0.16672905 -0.03279581 0.2948831 0.041616708 -0.08801554 -0.11080198 0.17761679 0.687033 0.36664933 0.1502263 -0.08138359 -0.08575083 0.083498806 -0.103156805 -0.10993174 -0.059593353 -0.09885609 -0.11736223 -0.07967775 -0.12204942 0.053819507 0.25743377 0.4413619 -0.231229 -0.1721097 -0.16626713 -0.3727411 -0.31237286 0.08970962 0.18917291 0.060740273 0.066877626 -0.17177357 -0.0019928745 0.06820953 0.33764914 -0.16782889 0.1585937
714 -0.07848134 -0.18900149 -0.09561314 0.18489867 -0.06784546 -0.062515385 0.2733414 -0.051043227 -0.29805425 0.011608764 -0.24693905 0.20802136 0.06632688 0.21899346 -0.009503108 0.28746858 -0.22056018 -0.04323965 -0.12914336 0.26383764 0.18490125 -0.13464653 0.034035966 -0.29316884 -0.14040494 0.13458283 0.061877936 -0.25843513 -0.101078674 -0.26732752 0.20558548 -0.101729766 -0.1032733 0.14121544 -0.29126275 0.19773729 -0.031245582 -0.023461128 -0.18747735 -0.14632463 -0.07402937 -0.29268304 0.00046233967 -0.017176708 -0.10259345 0.0051063253 0.44905266 -0.33825442 0.17691737 0.15054442 -0.09658518 0.14755416 0.3675164 0.2540852 0.32032248 0.37291834 -0.007510673 -0.16911767 -0.21734366 -0.024431672 -0.025626227 -0.22381437 0.19403341 0.4043003 -0.27167675 0.054593496 0.26423708 -0.035113584 -0.14587721 -0.009914151 0.10568675 -0.15428388 -0.30318534 -0.24704853 0.10728479 -0.4915061 0.30934504 -0.48559213 0.20916748 -0.40155357 -0.12284766 -0.07149168 0.28744397 0.15850286 0.048109528 -0.19992425 0.2194107 -0.052942593 0.05348303 -0.18936156 0.008408063 -0.3673984 0.055307183 -0.063272625 -0.27603424 0.23987745 0.009081178 0.21914089 -0.106095865 0.15035962 -0.026666902 -0.17117937 0.11624243 -0.04871163 0.061414238 -0.29167017 0.039413802 -0.09403589 -0.15273985 -0.27416342 0.2624234 -0.08532739 0.37340128 -0.22984229 -0.23739767 -0.18753244 -0.15485875 0.013711266 -0.10722403 0.15307954 0.2297995 0.12815563 0.23297083 -0.040363766 -0.26431137 0.0635861 -0.10823533 0.2823378
261 -0.19840604 0.051285256 -0.23580167 -0.20460713 -0.28979588 0.1311627 -0.02938092 -0.16418077 0.16483393 -0.084913015 0.13305797 -0.22201557 -0.080307074 -0.063295744 0.0007923882 0.29415324 -0.14106765 -0.05370727 0.2512143 0.03184999 0.2012064 0.31703514 -0.15721703 -0.08760354 -0.022504365 0.061193395 -0.0826764 -0.20224762 0.0322409 -0.28142303 -0.15816106 -0.30799454 0.23212078 0.14540437 0.15104006 0.07822951 0.14917804 -0.11689096 -0.2977505 -0.113077454 0.21205713 0.14703995 0.14640091 0.04197166 0.12568454 -0.0736819 0.017745696 -0.40267536 0.1948096 0.22693187 -0.066741444 0.091853596 0.05531676 0.1545856 0.4349674 0.1796654 0.102644466 -0.44432887 -0.017343154 -0.18924513 -0.12661198 0.26790553 -0.375081 0.011692663 -0.016632779 -0.25127453 -0.023013677 -0.041480117 -0.32119796 0.06380674 0.21592303 0.12452748 -0.08111882 0.19926688 0.15497646 -0.064355105 0.14443865 -0.15435521 -0.061939076 -0.13298994 -0.009659622 -0.48768908 -0.1771809 -0.04861409 0.057106946 0.34835136 0.34004474 -0.13014801 -0.4164368 -0.21492967 -0.21337433 -0.04706645 -0.035325233 -0.06634639 -0.14515148 -0.31335074 0.17150463 0.13659 0.33733556 -0.09528395 0.2567985 -0.23779534 -0.28916615 0.13574637 -0.36454818 -0.05039838 -0.18677038 0.2769013 -0.027004424 -0.24979891 -0.11332575 0.34210002 0.38944387 -0.3382223 0.14624564 0.13913533 -0.18060286 -0.190043 0.25852165 -0.051751804 -0.17645942 0.12121764 0.18482569 0.03938156 -0.046685047 0.40104404 -0.2517307 0.14201137
272 -0.26330143 0.40903214 0.082529575 0.03995106 -0.017030973 -0.034446284 0.31503585 -0.11137494 -0.25063843 -0.73312956 -0.2262467 -0.23223747 0.086697094 -0.41242218 -0.14610313 0.055007122 -0.0925273 -0.41220543 -0.018032728 -0.10381949 0.37574202 0.17185181 0.1612177 -0.0417984 -0.18942745 0.18170166 0.11512065 0.2217164 -0.09345313 0.0031267202 -0.02322121 -0.34164563 0.23331018 -0.110921435 -0.3469662 0.35162213 0.5306051 0.13284774 0.06633733 0.15744002 -0.105253614 -0.16453055 -0.12522541 -0.41749305 0.28431025 0.27224898 0.41181797 -0.32154763 -0.06183088 0.042564146 -0.12208234 -0.15064645 -0.16704214 0.5119631 0.12784031 0.21780603 -0.097819 0.038587783 -0.32126877 -0.06642212 -0.39533144 -0.058026113 0.08210002 0.18727443 -0.09536786 -0.020014219 -0.1339525 0.027278982 0.18105249 -0.0850227 0.3202937 -0.10009232 -0.11314045 -0.09760667 0.40580943 -0.04404807 -0.2082743 -0.42600557 -0.007773414 -0.054899756 -0.50607216 0.5002236 0.076762594 -0.22767413 0.33239877 -0.13592252 0.121939465 -0.26364684 -0.31059563 -0.3872584 0.54911816 0.089598425 -0.099641725 0.15953358 -0.14863062 -0.09256902 0.004426222 0.3012721 -0.63175166 0.5541176 -0.061130695 -0.12892136 0.10481288 -0.104202226 0.13709505 -0.018484268 0.15095285 -0.21888463 0.21254541 -0.5159154 -0.018722555 -0.33109608 0.22563252 0.0055639665 0.2918588 -0.048785113 -0.34754702 -0.36750066 0.03725848 -0.08874282 -0.070756964 0.13468671 0.13493942 -0.14091991 0.04225314 -0.00843282 0.08032274 -0.03223451
818 -0.12878695 0.5560256 -0.15188044 -0.08414421 0.016305929 0.059711482 0.10484265 0.010400005 -0.013378808 -0.4449498 -0.25794452 -0.060590953 0.117054835 -0.23661791 -0.13212916 0.2341551 -0.32688248 -0.27567682 -0.007533709 -0.2547541 -0.18986762 -0.43299958 0.48053116 -0.031746585 0.055632275 0.038468037 0.21853614 -0.3085507 0.02287875 -0.07861002 0.29304054 -0.15697879 0.25800452 -0.25502467 -0.19096723 0.01525264 0.13739333 -0.81045395 -0.15171503 -0.07401338 -0.121988095 0.025192015 0.008719356 -0.2735741 0.042867456 -0.11040425 0.31350848 -0.54213005 -0.31936857 0.32657945 -0.06914815 -0.22916904 0.19098541 0.42290485 0.053967174 -0.042226855 -0.25003716 -0.17387272 0.007143921 0.1779651 0.23042779 -0.12826914 -0.2676081 0.33408841 -0.18007441 -0.19138265 -0.13397802 0.14005649 -0.16033228 0.056513105 -0.03439808 -0.3514108 0.24121958 -0.1983754 -0.10328453 0.34871703 0.41402936 -0.06272125 0.24335818 -0.18802547 -0.2082599 0.33857563 -0.24882497 0.10670934 -0.511483 -0.43485606 0.12737684 -0.1730629 0.051036917 -0.2905281 -0.22602016 0.08785079 -0.25910023 -0.23107977 -0.08073159 -0.16571756 0.28604338 0.16680576 0.03625684 0.39935225 0.11446356 0.09212968 -0.090720646 -0.65314174 -0.35095444 -0.06556695 0.24341032 -0.13508411 0.3541613 -0.20717551 -0.09139646 -0.050962348 0.20542188 -0.049270686 0.0033112615 -0.21514888 0.24102212 -0.12370266 0.19109252 -0.025517467 -0.161665 0.6194276 -0.2810192 0.3789991 0.024195652 0.18746756 0.0011920021 -0.1114989
1493 -0.18985866 0.06296789 0.30781773 0.29162169 0.3573463 -0.025298318 0.3056592 0.45714718 -0.14226511 -0.25324833 -0.45581856 -0.3312741 0.4707467 -0.24902458 -0.20883533 0.42818213 -0.23869058 -0.20340654 0.32582808 0.2884004 -0.11859491 -0.37512234 -0.008936335 -0.11757797 -0.28569788 0.17604798 -0.10255619 -0.21949387 -0.14501838 -0.24669896 -0.102367 0.056042977 -0.07579915 -0.16148351 -0.11027303 0.025055595 0.09496913 0.14847873 -0.26177445 -0.23159924 0.38089326 -0.18917073 -0.31583664 -0.019855576 0.19388878 -0.0268675 0.38493982 0.052120578 0.29768917 -0.086218804 -0.13163507 -0.4587099 -0.13557966 0.57989246 -0.20876032 0.21975753 0.19366525 -0.18669474 -0.17818879 0.09900535 0.31549415 -0.045026317 0.6670546 0.24550389 0.088704586 -0.13263044 0.030609744 -0.025529828 -0.18763241 0.11708359 0.10362204 -0.14437857 0.098346315 -0.24629857 0.43776712 -0.014308648 0.42886838 -0.79650456 0.20212862 -0.45704865 -0.34277332 0.17209473 -0.12054777 -0.094300814 0.2082696 0.14902061 -0.11032902 -0.1546517 -0.2936341 -0.5476253 -0.02219207 -0.19569646 0.44403026 0.0614308 0.29808703 -0.07374334 -0.20037548 0.4786574 0.006504055 0.10283629 -0.0696485 -0.1309897 -0.08947438 0.23247981 -0.07751275 -0.011390352 -0.18113795 0.112534724 -0.0045560407 -0.30653602 -0.08044654 -0.22159849 0.28748128 -0.34182072 0.090136774 -0.08691977 -0.42658713 -0.21925525 -0.26879033 0.03013547 0.16547512 0.15196891 -0.023756355 -0.13938855 -0.09335369 0.3770135 -0.09600576 -0.20172016
170 -0.1406117 -0.29313058 -0.2540416 -0.38587984 -0.25552776 0.20723203 -0.07789534 -0.15746686 -0.30386943 0.2084501 -0.03954767 -0.18498872 -0.11357274 0.15619192 -0.22997683 0.051817946 0.101142034 -0.18778841 -0.013133728 -0.091135 0.063378856 0.27531064 -0.18768811 0.08841064 -0.23671836 0.16895582 0.08134722 0.029767869 0.025521481 -0.26962674 -0.12623963 -0.6122816 0.23935905 -0.0021984624 0.08074534 0.15815248 0.19462672 -0.18265365 0.0034616098 -0.16038738 -0.10215522 -0.112825215 -0.4570393 -0.27311483 0.17603849 -0.23308104 -0.15296052 -0.595221 -0.16744874 0.21041743 -0.0007869477 0.23627277 -0.16842972 0.045122392 0.5512963 0.091071285 -0.3977225 -0.25563848 -0.15441793 -0.07840785 -0.31843662 0.19462259 -0.12359555 0.014821855 -0.39915043 -0.2755174 0.36929715 -0.21002173 -0.53083974 0.05409712 -0.03268804 -0.10388579 -0.02669952 0.10158977 0.04710201 -0.35963184 0.26343614 -0.19430968 0.08159788 0.1943348 0.11338153 -0.43010247 -0.40322402 -0.19668806 0.045651466 0.002417313 0.55591726 -0.11027764 -0.47925144 -0.39268082 -0.13670573 -0.12871447 0.45685092 -0.07784477 -0.09833932 -0.3122119 0.0897267 0.43123937 0.3766249 -0.37537295 0.24936901 0.10273139 -0.42876914 -0.015220024 -0.28126952 0.20931904 -0.12497576 0.066150725 -0.038189407 -0.09596625 -0.30203444 0.3901532 0.25260425 -0.21670955 0.12669834 -0.0235918 -0.20009866 -0.15686932 0.2398513 -0.19681038 -0.16537744 -0.23588389 0.16640632 0.04744984 0.15992245 0.58166105 0.025703494 -0.12112879
760 0.32127005 0.22809242 -0.052641794 -0.13250487 0.039672546 0.07760021 0.33937386 0.41264853 0.016027356 -0.45299673 -0.2882143 0.2349266 0.4006004 -0.0477715 -0.08067646 -0.4530855 0.31580457 -0.21759216 -0.033889614 -0.22845274 -0.01707805 0.30170494 0.26846796 -0.1275986 -0.43047944 -0.44299546 -0.199676 -0.029664196 0.15786287 -0.4843116 0.31396154 0.38045928 0.2054551 0.47094962 0.2882269 0.14372064 -0.30170792 -0.28623495 -0.18985622 0.10609508 -0.029160658 -0.15468141 -0.15648076 -0.30609393 0.510436 -0.17411472 0.482828 -0.0014092242 -0.07305582 0.527368 -0.43443826 -0.2149873 0.014729417 0.43724427 0.20403197 -0.09956983 -0.06927756 0.17454225 0.0011474744 0.084011905 0.11980338 -0.19544818 0.14524776 0.40317348 -0.49070597 -0.1580654 -0.039644685 -0.006454967 -0.67595565 0.19494887 -0.35789242 -0.059273396 -0.25014535 0.051460307 0.15568869 -0.10678869 -0.023473771 0.21450867 -0.009615926 0.051015038 -0.43680474 -0.06743415 0.0048604724 0.27535936 -0.17097776 -0.013532634 0.036313865 0.1893466 -0.2787764 -0.11625587 0.003683261 0.3888011 -0.26727533 -0.17597441 -0.5783224 0.26755613 0.31192333 0.060185976 -0.17784096 0.05081478 -0.02880538 -0.0041698287 -0.072471306 -0.08095556 -0.16679922 -0.1708214 0.2251994 0.116321445 0.054596458 -0.13691658 0.015168099 0.13829346 -0.095189825 0.15142064 0.17242275 -0.2460401 0.0038440742 0.1433996 -0.22790457 0.08977081 0.38862276 -0.042673927 0.21962476 0.04862512 -0.04991319 -0.07807821 -0.14902861 0.114497215
1599 -0.1745888 0.156994 -0.32559952 0.09918189 -0.07818408 -0.025933335 0.21877757 0.21079628 0.15438098 -0.4467895 -0.090180986 0.1152248 -0.31836367 -0.35215232 -0.15868278 -0.020964067 -0.010728963 0.22198828 -0.14386204 -0.11572413 -0.042353567 0.309309 0.28398702 -0.2718356 -0.23058832 -0.16778508 0.53314996 -0.6728885 -0.14229198 0.24592441 0.057151735 0.04437094 0.2780057 0.028110128 -0.24793606 0.37472588 0.5153125 -0.36831594 0.20477617 -0.093458265 -0.3525279 -0.19240819 0.082074314 -0.19423664 0.40798184 0.47714674 0.73424727 -0.28513348 -0.27603903 -0.18896346 -0.5353872 0.21056584 0.08505828 0.3421284 0.52326727 0.105004095 -0.22090487 -0.3286858 -0.25187206 -0.11321104 -0.41844553 -0.4534781 0.12584047 0.041436486 -0.009271529 0.17706257 -0.13118066 0.10231172 -0.100668415 0.060973704 0.08980034 0.14529194 0.46792284 0.29507777 0.67100257 0.07748802 0.06446574 -0.24232599 -0.15811528 -0.07479657 -0.16612987 0.3671926 0.17000373 -0.059738763 0.52495295 -0.14043637 0.2774858 -0.28106868 0.14734343 -0.586539 -0.16230634 -0.037519936 0.05390026 0.2156462 -0.6258901 0.124558575 0.28825626 0.26998898 0.164301 0.52648306 -0.2227929 0.27650014 0.35866532 0.29442668 0.013626105 0.10233705 -0.007427285 -0.30740193 0.43601716 -0.07907287 0.2565385 -0.54577076 0.31783086 -0.41455457 0.24396452 0.46712992 -0.19251259 0.044224676 -0.026312422 -0.24673243 0.36146748 -0.080842055 -0.29520708 -0.12985116 -0.09442396 0.02779122 -0.060759004 0.16375573
1240 -0.8038614 -0.058943737 0.0154178245 -0.61479896 -0.41993573 0.84018123 0.66084075 0.48956838 -0.0034790174 -0.1986584 0.018538088 -0.15965658 -0.69424987 -0.14364466 -0.026472388 -0.10040034 0.34865028 -0.28240612 -0.14942959 -0.0064017833 -0.16147828 0.17011121 -0.007424823 0.68219423 0.010624771 0.3003281 -0.5508082 0.37684444 -0.017979888 -0.1962684 0.55002546 0.5046912 0.48383027 -0.10800334 0.68040335 -0.6978484 0.43097576 -0.24209622 -0.19907571 0.12051837 -0.24011102 -0.46871838 0.32740036 0.41273293 0.32109195 0.42494503 0.045896817 -0.3950895 0.009820957 0.22547 -0.31928948 -0.072484195 0.5715192 0.11702611 0.039336804 0.5888091 -0.18438391 -0.45890754 -0.13341103 0.13463463 -0.20501412 -0.007284071 0.30256027 0.2943526 -0.14884536 0.39981127 -0.26893303 0.13429844 -0.49235174 0.040083017 -0.17122297 0.05581886 -0.52725565 -0.07312254 -0.13700497 -0.9229209 -0.28464904 -0.2177297 -0.6937113 -0.09885584 -0.29312572 0.0059038447 -0.10056463 0.13616934 0.82859254 -0.46899402 0.25104517 0.0006728202 0.19117527 -0.505159 -0.25606725 -0.44722414 -0.015702887 -0.16347466 -0.012567883 -0.47324577 -0.3400506 -0.07880479 -0.12849723 0.071505174 -0.18785788 -0.0013839677 0.2486726 0.23351257 -0.51392925 0.12456322 -0.18546197 0.024711635 0.20124051 0.5086857 -0.20062897 -0.04245177 -0.019323783 0.004701813 0.14802408 0.02010312 -0.26261476 0.03964949 0.0622673 -0.019705083 0.02114284 0.5741534 0.24104512 -0.4743916 0.19543578 0.07200115 -0.15195571 -0.35633412
223 -0.19466646 0.061746653 -0.4683936 -0.43534854 -0.0963458 0.085945725 0.24069643 0.09626989 0.48381746 0.32837456 0.17791013 -0.3853481 -0.17446852 -0.20471025 0.003421449 0.292949 0.024035878 -0.1653335 0.18586221 -0.12326207 0.14893669 0.18980852 -0.2538015 -0.32049364 0.2677057 0.121566445 -0.09084886 -0.087834954 -0.139407 -0.30681482 -0.34432796 0.20046844 0.33618248 -0.06958115 -0.024025211 0.17191522 0.08501094 0.059055477 0.070770405 -0.14872235 0.25453803 0.085633755 -0.02104952 -0.12221038 0.29608595 0.039404158 -0.2273253 -0.090214595 -0.054805916 -0.0016209185 -0.33619162 0.31641963 -0.030231543 0.1841244 0.23944108 0.44283408 0.0120839 -0.20568992 -0.0732441 -0.0028742154 -0.21747941 -0.021078067 -0.17536485 -0.17704982 -0.33553943 -0.093507566 -0.13829638 0.040967327 -0.4142028 0.22742122 0.06959991 -0.16348569 -0.27940595 -0.06316669 0.21412404 -0.37876594 0.52099246 -0.63212895 -0.10750901 -0.12945656 0.16395268 -0.29284704 0.18471973 0.10937711 -0.1088199 -0.070259474 0.097458534 -0.30993173 -0.21670623 -0.30984414 -0.22405006 -0.17471032 0.23896976 -0.1328066 0.22398928 -0.35998896 0.23918258 0.054695845 -0.122300446 -0.12013658 0.009707825 0.3000591 -0.0106723225 -0.37725127 -0.16653633 -0.018288964 0.07601391 0.3562691 -0.053830206 -0.23589586 -0.05499419 0.5337886 0.2440058 -0.35255578 0.11345927 -0.07933171 0.20848547 -0.30336398 0.13493909 -0.07682372 -0.013634554 0.0024696907 0.19173574 0.09381423 -0.04712121 0.3409845 -0.13559741 0.14089532
528 0.13467664 -0.052667774 0.061258364 -0.36547837 -0.32046428 -0.07160167 0.034351956 0.45714834 0.2738679 0.13501285 -0.092672996 0.14703837 -0.07274826 0.011907028 0.08561638 0.034183156 0.79348385 -0.44907016 -0.16406986 -0.07534216 -0.24630925 0.011165975 -0.37848714 0.10891547 -0.26958618 -0.42996514 -0.21780434 0.030351736 0.29797348 -0.32047296 0.0810621 -0.17577408 0.18735422 0.19231339 0.65634304 -0.027772535 -0.22153513 -0.09067056 -0.15408811 0.27200985 -0.20500545 0.087297544 -0.18653974 -0.0608648 -0.051637128 0.7302076 0.2878206 -0.24153188 0.0990452 0.111713484 0.0029165803 -0.31505442 0.011084154 0.09316126 0.21915251 0.13271427 -0.1039053 -0.06751952 -0.13710286 -0.051889017 -0.27317125 0.0019032552 -0.023470236 -0.16659783 0.45311987 -0.2615641 -0.629888 0.025703233 0.38304973 -0.03885923 -0.025536193 -0.10422298 -0.040873982 0.07585339 0.05777191 -0.4125153 0.50914 -0.45720628 -0.3997729 -0.00040787907 -0.51831234 -0.1494149 0.12692711 0.06989725 -0.57084376 -0.18926509 0.34807822 0.3817737 -0.08122552 0.01906217 -0.39531618 -0.040818233 0.09002591 0.35492304 -0.3537665 -0.02905588 0.092183076 0.038256004 -0.39921728 0.5256139 0.118642464 -0.17559911 0.12680903 -0.26445746 -0.23370032 -0.4573907 0.22023603 -0.4818432 -0.29220334 0.5899825 -0.17997125 -0.1792984 -0.13340785 -1.261454 0.033286255 -0.04542659 -0.41644713 0.100184366 0.33775055 0.14856674 -0.06821518 0.38976434 -0.09297941 0.16519889 0.47296938 0.025698325 0.07186078 -0.46218604
346 -0.3241537 -0.12675177 -0.09086355 0.10573316 0.08506289 0.28042722 0.3421749 0.4794259 0.06843315 -0.024523234 0.2813059 0.19241326 0.24567375 0.008098546 0.1707019 -0.15117982 0.42183208 -0.064907536 -0.09757637 -0.4410819 -0.3049045 -0.00943421 0.025291068 0.09581032 0.21558036 -0.17117828 -0.47159615 -0.19148459 0.3922669 0.14841036 -0.120054 0.098371506 0.16190001 0.0887195 -0.10149971 0.30493918 -0.2828775 0.16759996 -0.025726818 0.1389001 0.3650119 0.112082675 -0.13484387 -0.16846447 -0.010932428 0.074312165 -0.104825936 -0.14287402 0.09383259 0.1558413 0.060251698 0.3163567 0.14451277 0.094395995 0.3491665 0.2737166 -0.35742137 -0.45916247 0.07483847 -0.22337171 -0.053544905 0.12071801 -0.12695405 0.10160559 -0.12844692 -0.22648077 -0.33045614 -0.13226394 -0.059840802 0.004916748 0.1653493 -0.18894549 -0.15905045 -0.1394285 0.56359744 -0.3995659 -0.070508204 -0.17495398 0.18027118 0.14455502 0.17663558 0.26055273 0.09618004 0.020742886 0.08285562 -0.011326961 -0.061230656 0.24108991 -0.0057204003 -0.4802405 -0.13316903 0.0961685 0.5404263 -0.31790262 -0.33148178 0.07498936 0.2858137 -0.08390994 -0.12318118 0.3315781 0.012310906 0.18257663 0.07041035 -0.37443125 -0.10688869 0.016516557 -0.1446027 -0.20207393 0.05030463 -0.12689757 -0.022005228 0.36535794 0.23842485 -0.5791721 -0.36217618 -0.17592019 0.27784827 0.47361544 0.032493997 0.3372254 -0.15998644 -0.28914914 0.11452512 0.05851486 -0.075716674 0.14388745 0.12579381 -0.11867827
164 -0.20396623 -0.43813083 -0.16873881 -0.0952902 -0.44865975 0.14500989 0.17553444 0.17102544 -0.03145513 -0.14379738 -0.12904833 -0.25153613 0.029552652 0.1683711 0.31272498 0.24979626 -0.2849619 -0.01985566 0.3557395 -0.19387867 -0.017227309 0.006375429 0.0925724 -0.28690732 -0.18728319 -0.17265877 0.04129075 0.031285517 -0.10253899 0.21412274 0.045800816 -0.06186532 0.5300675 -0.0746223 0.28320453 -0.021600379 -0.24140473 -0.05159642 -0.25061804 -0.30116287 0.23382792 0.20122942 -0.023685835 0.33773476 0.1866028 -0.09987716 0.019034706 -0.29924703 0.0021127185 0.07498155 -0.11298613 -0.20407389 -0.003446313 0.3185195 0.13833436 0.23867038 0.053585034 -0.25535613 -0.19801041 0.03481013 0.18296902 0.10630135 -0.057757862 0.19395609 -0.023490123 -0.40213475 -0.24873295 0.32325858 0.19711521 0.4915437 0.21698435 0.06981494 -0.16714072 0.3384346 -0.041034307 -0.155111 -0.08008085 -0.09052782 -0.09553156 0.23197855 0.10667742 -0.37412623 -0.14094447 -0.03130839 -0.17943929 0.56824005 0.008698689 -0.3714102 -0.10007864 0.0964427 -0.28238934 0.1459113 -0.05254113 -0.4480664 -0.32329962 -0.22017294 0.49708024 0.33433786 -0.1198373 -0.20977433 0.06817482 0.11429484 0.24273933 -0.060990542 -0.019830618 0.35994536 -0.230919 0.044428095 -0.123770036 0.04021419 0.012658619 0.04736387 0.0906833 -0.5498731 0.18958914 0.055741433 -0.39017418 -0.060742807 -0.026164103 0.08284133 -0.2106709 0.17221707 0.1934579 -0.02445033 -0.09838643 0.21327819 0.03195765 -0.015261916
854 -0.2593795 0.010973018 -0.49164203 -0.14393036 -0.06773956 0.2726303 0.14784887 0.056504793 0.43968922 0.11527566 -0.12149027 -0.22185606 -0.23102923 -0.2937128 -0.20758349 0.21620417 -0.17449325 -0.19249684 0.43806037 -0.05245869 0.2859888 0.22994015 -0.20594333 0.1761508 0.22268504 -0.15926404 -0.161912 -0.12679997 -0.1943065 -0.108905844 -0.097859524 0.03162952 0.16540587 -0.118511006 -0.14714485 0.14577879 0.08683715 -0.013139915 -0.058854684 -0.066936076 0.22705512 -0.17738879 -0.35030296 -0.043904644 0.15978062 -0.19843106 0.023561357 -0.36623427 0.066481896 0.20501512 0.16599067 0.12426881 0.016514365 0.08860844 0.3495779 0.1992328 -0.3935004 -0.10019473 0.00647977 -0.1678077 -0.38235557 0.13978058 -0.2534005 0.16305897 0.00034813854 -0.5326892 -0.01608916 -0.01573317 -0.4639051 0.07802406 0.12684827 0.088715434 -0.05562055 -0.14657193 0.17087327 -0.18818882 0.31033885 -0.20219131 -0.2774063 -0.17093693 0.010523127 0.10754346 -0.049145248 -0.08990844 -0.10535666 0.124151565 0.09532688 -0.1768955 -0.41102389 -0.076209135 -0.34925997 -0.24435921 0.6936433 -0.013705784 0.06952621 -0.24043156 0.087895215 0.42770213 -0.033737406 -0.02730207 -0.22740693 0.089899905 -0.1682251 -0.2693024 -0.27718 -0.31762666 -0.10694473 -0.14855413 -0.17326963 -0.089626946 -0.23722187 0.21456763 0.26514274 -0.15105085 0.13697655 -0.09047591 -0.14929864 -0.17166542 0.48028493 0.14513512 0.13749857 -0.17740883 0.35798925 0.03728229 -0.103142336 0.28284782 0.27945054 0.39814475
1120 -0.1516509 -0.05344213 -0.029248888 -0.4660069 0.14862908 -0.08903338 0.24105617 0.5829542 -0.04426074 -0.1411789 0.15247959 0.3918064 0.11109353 -0.23445073 -0.4799307 -0.0025474122 0.23202176 -0.4069031 -0.080518916 -0.3748601 -0.072681084 0.3389139 -0.11994544 -0.26381373 -0.39520082 0.04753945 -0.013560997 0.028913397 0.4758367 0.14733617 0.06748143 0.3797649 -0.04785595 0.16789047 0.2726457 -0.06647445 -0.51006454 0.081166476 -0.2700127 0.2375895 -0.14897555 -0.31258342 -0.30787176 0.18805204 -0.067508414 0.112529926 0.047574043 0.09424344 0.19084165 0.38039377 0.28664613 -0.0675449 0.2458217 0.6263401 0.31453934 0.18722887 -0.2961175 -0.41303286 0.21424593 -0.0006196881 -0.017357942 0.10968113 0.049032837 -0.006164233 -0.05270387 -0.046562545 0.0880987 -0.080040075 -0.20137401 -0.10192662 0.09287543 0.30605206 -0.23693605 0.14115325 0.27255353 -0.043058697 0.19316018 -0.005212819 0.23251317 0.3799333 -0.53404206 -0.15324964 -0.0666332 -0.060374845 0.010019599 0.20430446 -0.06602801 0.21854028 0.3667543 -0.22878647 -0.42625004 -0.06726329 0.13495018 0.2601053 -0.27707896 0.096895956 0.374987 0.04007165 -0.04974056 0.64023703 0.40863255 -0.29019755 0.22829895 -0.53859353 -0.3405713 -0.020470224 0.16993403 0.08216825 -0.019492479 0.045699645 0.20465286 -0.03791517 -0.2154107 -0.36402565 -0.28235063 -0.022008607 -0.15013811 0.13408998 0.17677797 -0.25542155 0.11943193 -0.05277411 -0.1742121 -0.25689512 0.31347296 0.36501378 0.2420595 -0.08284344
599 0.34351012 0.15026367 -0.029123597 0.053451836 -0.014166701 0.08547102 0.46344563 0.5671107 0.6339205 -0.18948711 0.037744965 -0.18976921 0.5008582 0.12564746 0.036977757 0.43422645 -0.0866508 -0.7317949 0.31349027 0.6961397 0.42602417 -0.09895335 0.29502016 0.43420976 0.10786217 0.81278026 -0.023390772 0.20655286 -0.27628982 -0.2695659 -0.41936997 0.21864696 -0.12822093 0.05350863 -0.35095766 0.6528144 0.14921977 0.47973296 -0.43300807 -0.07598882 -0.19366033 -0.42017287 -0.34051588 0.011666309 -0.11424935 0.55338246 0.2861571 -0.47288677 -0.2919936 -0.042694867 -0.043990828 -0.5378264 -0.14412396 0.256147 0.1220323 0.31039315 0.0075270766 -0.104182445 0.06533601 0.3875472 0.17634426 -0.08767662 -0.02085469 0.21170998 -0.7787166 -0.1619299 -0.32707 0.026441086 -0.5284523 -0.06546054 0.20730765 0.014926669 -0.24943143 -0.19064061 0.5450567 -0.16799094 0.44916347 -0.37154943 -0.26901248 -0.4698493 0.10541926 0.26150042 -0.3315578 -0.43848917 0.14378497 0.366485 0.09186635 0.34889466 -0.18340284 -0.29433143 -0.07173018 0.042472612 0.2868642 -0.3994141 -0.009609869 -0.27805826 0.14255837 0.015754394 0.49296385 0.45477727 -0.1694341 -0.16634327 -0.31715646 -0.09596117 -0.046446513 0.11314246 0.054112393 -0.3043497 -0.49314377 0.1928336 -0.18076754 -0.29600403 0.121869236 -0.3418279 -0.06336127 0.24260788 -0.68272865 0.22093391 -0.14581108 -0.3356949 -0.32527217 0.5193818 -0.15500952 0.07823929 -0.03544192 0.40775454 -0.13545626 0.7874783
880 0.0026817645 -0.06879516 -0.38323084 -0.3029423 -0.65108514 0.07233177 0.16611503 0.106499135 0.32435843 -0.15122944 0.60783637 -0.42886153 0.2674339 -0.06254063 -0.16080448 -0.34512198 -0.07349297 0.119679436 -0.376294 -0.472227 -0.30905876 0.03138949 0.11860057 0.27972463 -0.35620183 -0.06540039 -0.42837387 -0.2554739 0.020580651 -0.02722425 -0.3778311 -0.15636565 -0.2875683 -0.18077518 0.45873865 0.028497236 -0.46034265 0.009877172 0.043447852 0.18228336 -0.14950548 -0.22886871 -0.14085713 -0.7305531 -0.14759599 -0.019800387 0.03570037 -0.08493638 0.3410188 0.70198536 -0.25553563 -0.009668001 0.00024609553 0.089866824 0.5162615 0.3824214 -0.1286704 -0.18010677 -0.36724356 0.17961793 -0.4619045 -0.4604776 -0.37842456 -0.5793451 0.07422463 -0.1986817 0.07021774 0.12232768 0.54217684 0.2834971 0.03335227 -0.06451784 0.5676033 0.3126724 0.25145075 -0.19597352 0.37552136 -0.19991852 -0.18458022 0.0314964 -0.45290703 0.30175525 -0.1076578 -0.111150175 0.6626568 0.45124403 -0.14826621 0.3279228 0.6045162 -0.7819729 -0.5120643 0.27128428 0.34129393 -0.24250896 -0.3402912 0.10922211 -0.30144572 0.4722472 -0.9315418 0.51855165 0.2551631 0.20901743 0.05101933 -0.05099108 0.07525868 -0.25288042 -0.15487774 -0.042022232 -0.32713133 -0.30235294 -0.14689378 0.27860716 -0.26939982 0.18436275 0.07584806 -0.054874282 -0.13536206 -0.17184265 -0.47041085 -0.5553823 0.121423595 0.6622589 -0.05343741 0.80101407 -0.13927758 0.09562355 -0.45732504 0.00273214
1130 -0.49870658 0.21325254 -0.25388944 -0.32904252 -0.32744804 -0.047600046 0.017848838 0.23349532 -0.3010383 0.060568396 -0.046398677 0.75005484 0.32771313 -0.13821883 -0.22199573 0.30524567 0.46583694 -0.42260402 0.017452111 -0.3386192 -0.04951282 0.35625833 0.2371872 -0.06791288 0.14139494 -0.12872499 0.21588026 0.15271112 0.34642464 0.0042933547 -0.15315942 0.11833378 0.1544596 0.09194467 0.19648646 -0.23264228 -0.06369047 0.04962162 -0.20787024 -0.1962409 0.39688712 -0.1583596 0.11798429 -0.40037787 0.36603317 0.103063874 0.1445785 0.4123494 0.06984164 0.3744645 0.35445154 0.01801248 0.26043278 0.28137484 0.20962958 0.48863995 -0.18457869 -0.38805726 0.2527301 -0.075489074 0.0979038 -0.012434046 -0.20888655 0.41811904 0.051743243 0.37817308 -0.23477067 -0.013872436 0.34063038 -0.18691309 -0.08428793 0.54259354 0.2386997 -0.15292342 0.5805444 -0.16682126 0.6194943 0.34300402 0.051541544 0.33595195 -0.24751629 0.16887484 -0.14106116 -0.17893203 0.064357735 0.022656599 -0.29902953 -0.061993476 -0.15016273 -0.35621217 0.31262356 -0.19181816 0.40663123 -0.44100684 -0.19894785 0.2984647 0.37197924 0.25046718 -0.03706802 0.15870899 0.1945736 -0.35953748 -0.003817068 -0.29183045 -0.39958552 -0.11521082 0.08459519 0.08638443 0.03023799 0.31754014 0.28202334 0.024514223 -0.036305886 -0.16324824 0.14108846 -0.07955989 -0.12408632 0.22876428 0.113882296 0.04603546 0.26231962 0.23897064 0.4384444 0.23277505 0.13603993 0.17165376 -0.15199955 -0.21443476
1430 -1.04473 -0.49248934 -0.5306084 -0.9024686 -0.045872804 0.35577834 -0.3635874 0.60482633 0.031702045 -0.5397826 -0.5388445 0.29238966 0.32064778 -0.08922806 0.37164906 -0.26992497 0.31051072 -0.24620822 -0.03287471 -0.13949212 -0.05964064 -0.21802105 0.65123296 0.5394815 0.7449132 0.09407742 0.3267408 0.13889802 -0.023400929 -0.05507295 -0.42278025 0.085476115 -0.57435334 0.10209762 0.16417068 0.5606876 -0.22863089 -0.28187978 -0.49258092 -0.13828515 -0.5965715 -0.25629997 0.05974415 -0.57275814 0.64536387 -0.63844496 -0.0956571 0.43890157 0.24511205 0.31857195 0.64357454 0.11324949 0.034365576 -0.29429236 -0.08209886 -0.12597002 -0.14653555 0.056769017 -0.061882254 -0.06463342 0.0846461 -0.09703085 -0.015599034 0.3454523 -0.09716006 -0.2805874 0.076138966 0.1545578 -0.6425175 0.51234376 0.08704448 -0.29889756 -0.081031516 -0.1227372 -0.6079856 0.4320255 0.56780916 -0.69988877 0.10096463 -0.43560806 -0.7351701 0.050493523 0.48743126 0.04065224 -0.0032178843 0.32565498 1.3195039 0.39795128 0.4579087 -0.5997033 0.5764012 0.7687929 -0.104224585 0.17536518 -1.3576577 -0.17571267 -0.5267465 -0.088203914 0.15770435 0.47448802 -0.3370978 0.0050960337 0.115908235 -0.07413666 -0.95475566 0.055813 0.7501179 -0.16531178 0.5294605 -0.46165615 0.01222627 -0.34638578 0.11352319 -0.9750263 0.8241291 0.063490346 -0.43001103 -0.47657382 -0.5050208 -0.03741084 -0.47269323 0.27673623 -0.7013506 0.38403866 0.08013748 0.25395668 0.46251428 -0.07877632
1194 0.3040334 0.22452798 -0.05285386 0.30050611 0.08517567 0.20562933 0.13799673 0.6187733 0.3625114 -0.30761582 -0.18174124 0.48297057 0.28359014 -0.38681227 -0.15990828 -0.5321273 0.32385927 0.009991642 -0.37133434 -0.25805646 -0.036696885 -0.11386498 0.22872369 -0.22851153 -0.0811304 -0.42127535 -0.52198726 0.14507514 0.5928278 -0.48752525 0.17184976 0.21219563 0.02953184 0.23585443 0.3765058 -0.08793 -0.25607324 -0.15652323 -0.10140937 0.51997405 0.566267 -0.09948345 -0.28843242 -0.2595351 0.2964914 0.3863939 0.2618053 -0.14153793 0.07749186 0.37059325 -0.5251314 -0.19462414 -0.14151214 0.37835127 0.2286972 -0.36093828 -0.34790707 0.09059746 -0.055961244 -0.043989114 -0.16165985 -0.2526005 0.0717336 0.5381938 -0.13222966 0.054004304 0.10521306 0.17258325 -0.597567 0.058619205 -0.34003547 -0.1232726 -0.08340785 0.3996177 0.3931949 -0.5245472 0.21522275 0.21187726 0.061641384 -0.19668733 -0.36194667 -0.1318379 -0.022745294 0.14318526 0.070799574 0.0029353704 -0.152917 0.35746342 0.021392373 -0.54157966 0.3715427 0.77086335 -0.25112545 -0.18353792 -0.92114234 -0.0048934533 0.36732957 0.44846106 0.10851198 -0.040814593 -0.10481978 -0.056776375 -0.18971789 -0.36316648 -0.119374156 -0.28755665 0.058306187 0.022979466 -0.1694777 -0.17393842 -0.020590754 0.32593116 -0.21224156 -0.21393186 0.46895626 -0.17718714 0.3532366 -0.13364784 -0.03442958 -0.05428068 0.5248827 -0.009412093 0.36201167 0.17115325 0.2578692 -0.2686227 0.053414688 0.20007041
619 -0.2548884 0.1849807 0.25361565 -0.34529138 -0.15504384 -0.37310326 0.62315965 0.084077485 0.60143226 -0.77921003 0.18060906 -0.078542784 0.100759655 -0.47103882 -0.27698526 0.47123742 -0.026851248 -0.63273185 -0.17843752 0.0054906295 0.0041463356 0.006466254 0.058671936 0.28435066 0.1412488 -0.06294392 0.074207425 0.36634192 -0.4586874 -0.07159395 -0.15215616 -0.51714957 0.16162953 0.3037299 -0.16168576 0.7104684 0.32405996 0.37859812 -0.321313 0.41836897 -0.0149269365 0.48645562 -0.61819285 -0.23706345 -0.27878818 0.23450527 0.32562768 -0.2057066 -0.27597517 0.16483878 -0.013448943 -0.18944255 -0.049205743 0.7916859 0.12359093 0.18347439 -0.5065073 0.39951724 0.04060904 -0.36360484 -0.57875985 -0.06550365 0.23681128 0.1827983 -0.42151245 -0.06105724 -0.14826484 -0.47071517 0.38423952 -0.1846466 0.65255344 -0.1274988 -0.17915958 0.4226094 0.20031746 -0.11170388 -0.1818547 -0.5388749 -0.3244461 -0.77319336 -0.5187599 -0.03751388 -0.21348305 -0.6880531 0.19477482 -0.58534145 0.07391774 -0.23551488 0.1991947 -0.41335052 0.7045932 0.21734704 0.15198904 -0.6782164 -0.26610002 -0.8386672 0.0904049 0.7740421 -0.11227296 0.41962257 0.14778757 -0.5127729 -0.25573784 -0.07308506 0.10855752 0.092701435 0.46195632 -0.116058394 0.518363 -0.5659526 0.49382335 -0.25211674 0.37653846 0.2693058 0.53613245 -0.42432797 -0.7895756 0.28934285 -0.20276041 -0.48486164 -0.50963914 0.3898755 -0.45984903 -0.066540286 -0.1836045 -0.36228162 -0.08708115 0.5323003
52 -0.15717512 -0.31920594 0.14389133 -0.2373 -0.53990966 0.021209639 0.13333689 0.18399464 -0.1262624 -0.027176907 0.0566669 -0.24752232 -0.11288991 0.60869765 0.2123322 -0.09250064 -0.0110381795 0.27599367 0.15856606 -0.425295 -0.13001984 0.28588617 0.16166458 -0.27285647 -0.20398414 0.09414809 -0.099952444 0.015926292 -0.11776144 -0.17172293 0.08792489 -0.21293443 0.13546877 0.07604276 -0.2507774 0.4674849 -0.13765718 0.0037082848 -0.49418592 -0.06854753 0.24085388 0.07164037 -0.21437567 -0.042102903 0.15655221 0.010930016 0.3934252 -0.13862129 -0.5069656 0.3713544 -0.21725307 -0.17692573 0.083526045 0.41194376 0.28178892 -0.27870643 0.034018703 -0.31861007 0.24100156 0.0863446 0.18094346 -0.08364237 -0.16689743 0.029537624 0.36859125 -0.011369675 -0.3555388 0.1332181 -0.3493843 0.44131523 -0.28875512 -0.0042761406 0.015163775 -0.050649382 -0.16167778 -0.18903281 -0.35213092 -0.513753 -0.199033 0.24512476 -0.3726715 -0.40092453 -0.12722571 0.121460594 0.1256509 0.6931747 -0.13313502 -0.29243588 -0.012934703 0.23545052 0.08722784 -0.361489 -0.0176198 -0.13628115 -0.4983652 -0.42062557 0.18388243 0.37072858 -0.08939983 0.11274743 0.29551703 0.0073230155 -0.6797263 0.2794558 -0.22485942 0.60600114 -0.3397292 0.5066857 0.5972041 0.004892428 -0.027016057 -0.26675767 0.18249996 -0.63835484 -0.123415396 -0.058453083 0.09980137 -0.57026654 0.4536972 -0.06736284 -0.42895904 0.08914426 0.7476971 0.42542094 0.11791147 0.48795587 0.18161707 0.18925849
2101 -0.21324614 -0.13935126 -0.3424168 -0.3249497 -0.57966113 0.0593488 0.3014883 -0.21689081 0.0154151 0.13164183 -0.1304616 0.066456094 0.16956344 0.3759664 -0.16859676 0.49378514 0.2124482 0.044110604 0.16480051 -0.14476794 0.18291429 0.22931279 0.08147206 0.20704527 -0.21836628 -0.050879084 -0.12236187 0.22954424 -0.120903894 0.0948743 0.1656477 -0.30314794 -0.34388572 -0.39599442 0.30849603 0.34988788 -0.2519068 -0.082273476 0.24880874 0.32571504 0.08587282 0.22696145 0.086222954 -0.14080834 0.24095426 0.29292226 0.30458564 -0.12016796 -0.29810178 0.17003575 0.013558846 0.05596105 0.50751394 0.46794483 0.104081176 -0.16243477 0.27084562 -0.19782463 0.14682694 0.0043573845 0.019934392 -0.3323051 0.40232962 0.4664517 -0.039668117 -0.5525572 -0.12264082 0.47849792 -0.04038683 0.7095457 0.4470146 0.04786638 -0.02133976 0.03918928 0.026746228 0.040097248 0.42548242 -0.5195668 -0.40140516 0.25949162 -0.41845712 -0.2352331 -0.18004583 0.20213093 0.40817457 -0.017099723 -0.79729015 0.21776709 -0.30872342 0.0605968 0.2854776 0.4830465 -0.23055738 -0.11816901 -0.12244922 0.31883883 -0.045538113 0.01736345 0.07677088 -0.08208536 -0.11383879 -0.17272465 -0.17886804 -0.18627298 -0.009874862 -0.063924946 0.114570685 0.27075115 0.08679482 -0.0691275 -0.5397995 0.16263941 0.32924393 0.095679335 0.057481274 0.09384168 -0.19880185 0.39523992 -0.1632851 -0.27320057 -0.11749695 0.006126172 -0.037224114 -0.22198841 -0.24477646 -0.042081334 0.48163643 0.11859489
2393 0.5771565 0.28043824 0.20140667 -0.613818 -0.35699525 -0.2895996 0.51790917 0.5010767 0.79710346 -0.265876 0.44106394 -0.047046658 0.8646401 0.25955403 0.12696098 0.4802865 0.27317628 -0.6646937 0.16691603 0.787278 0.8153333 -0.011951178 0.39037162 0.3551484 -0.01046466 0.85987735 -0.24280278 0.15977462 -0.046839878 0.0651848 -0.21238776 0.0334904 0.018112062 0.27846083 -0.561624 0.63109064 -0.026073977 0.15065913 -0.47826445 -0.09758406 -0.088503525 -0.6538039 0.02312594 0.339032 -0.0022687095 0.48174885 -0.22236326 -0.9098038 -0.19355708 -0.2347409 -0.12993564 -0.7340364 -0.30252603 0.124582835 0.10924638 0.3257635 -0.29238695 -0.2643506 0.09113839 0.4978934 -0.22435139 -0.2756519 -0.13257225 0.03158304 -0.9525794 -0.21108644 -0.33257434 -0.3441773 -0.22948372 0.4876032 0.57098913 0.072161876 -0.5448993 -0.53800964 0.3865787 -0.18867911 0.9612066 -0.67524153 -0.12539092 -0.7987443 -0.058004595 0.28521937 -0.3525161 -0.74553275 -0.11358254 0.85966295 -0.07546361 0.7746744 -0.18740456 -0.5721699 -0.27869102 0.23720126 0.39988434 -0.78955096 -0.060472008 -0.28071475 0.1995567 -0.18789105 0.07838533 0.41410717 -0.48596084 -0.049331598 -0.24321648 0.09467403 -0.10009651 0.43523437 0.26680446 -0.3882397 -0.048389293 0.18812735 -0.37304154 -0.41098994 -0.16812728 0.1021428 -0.03473002 0.17792222 -0.93674535 0.22306307 -0.25196376 -0.56438553 -0.5013211 0.56445795 0.14179379 0.23879865 0.07023862 0.28887805 -0.1360064 1.0932661
1302 -0.13173671 -0.20796305 0.11999624 -0.31697848 -0.24008143 0.29128352 0.10405304 0.4016807 0.22565307 0.005501001 -0.2159175 -0.0038013286 0.255933 -0.044958767 -0.40818992 -0.4921456 0.40406793 0.08029292 -0.026684664 -0.51110566 0.057222024 0.30996203 0.12477155 0.48783386 -0.115058765 -0.05731763 -0.029564554 -0.5240445 0.2165754 0.14726964 0.038631786 -0.124580644 -0.11841388 -0.090549156 0.07009459 0.45542383 -0.2693953 0.306415 0.06557799 0.0872612 0.24483536 0.54499763 0.19600646 -0.26554713 0.13455644 0.48269984 0.0037533315 -0.71959186 -0.06829271 0.16719896 -0.10601899 0.10346081 -0.3142744 0.4190307 0.3267515 0.19993088 0.057861313 -0.5039991 -0.14944424 -0.03141307 0.12612773 -0.521305 -0.23673831 -0.044597276 0.3678958 -0.0651778 -0.06980935 0.14056922 0.10498484 0.33758506 0.09180545 -0.1431104 -0.03817699 0.07045722 -0.06900853 -0.13290744 0.38603553 -0.22154854 -0.11151495 0.06462281 0.4286562 0.1779053 -0.31606662 -0.1396526 0.4783495 -0.077530995 -0.17196546 0.058993198 0.38947037 -0.6641922 0.056060657 -0.13025494 0.8321279 0.3183118 -0.30662978 0.046991523 -0.3342114 -0.06758231 -0.20071821 0.14764725 -0.20431277 -0.2825545 -0.14617044 -0.19631612 0.12740423 0.077793986 0.20470667 0.34793785 -0.72879225 -0.0015374317 0.35673708 0.071087435 -0.20761673 -0.14237224 0.632496 -0.11354088 -0.15083073 -0.36427087 -0.17454065 -0.10616235 -0.3344722 0.28292957 0.13991652 0.18473728 -0.78531927 0.021131625 -0.29041567 0.023546342
690 -0.3099428 0.4819217 0.04936387 -0.43053532 -0.4713606 0.3122904 -0.10397295 0.5509818 -0.37960258 -0.12849139 -0.24306522 0.3261074 0.22676036 -0.20453355 -0.36358163 -0.27264586 0.19487508 -0.55473804 0.02054576 -0.30082098 -0.24384435 0.53247386 -0.033267397 0.13255247 -0.31199092 -0.69001114 -0.026041731 0.06399989 0.4336678 -0.7834303 0.24022442 0.1635261 0.6913515 -0.13954955 0.002602577 0.30432436 -0.09051937 0.058120694 -0.11184213 -0.0023779147 -0.110627964 -0.054386638 -0.10248257 -0.6397354 -0.35383645 0.23659074 0.06825354 0.5091099 0.013154879 -0.14440139 0.17584673 0.028326912 0.061727382 -0.072752364 -0.24256869 0.7153903 -0.24797884 -0.882961 0.49247387 -0.0044794306 -0.053206723 -0.22042058 0.09671817 1.0524662 -0.28663427 -0.2158144 -0.24086785 0.18595149 0.16130483 0.27848446 -0.20617226 0.32545382 -0.013820297 -0.10056532 0.30810073 -0.24312356 0.5454227 0.31429768 -0.31962943 -0.21366267 -0.22117443 0.05163264 0.18982928 0.16063154 0.10048841 0.25952813 0.27504635 0.1366552 -0.5590076 -0.44593218 0.20739196 0.27974573 -0.18707411 -0.23086722 -0.11381203 0.35524577 0.35096443 0.044269346 0.2143798 0.17195117 0.2996628 0.043036144 -0.14114206 -0.33957794 0.014848932 -0.02310947 0.10913254 0.21820332 -0.09238888 0.18904707 -0.023094332 -0.2479931 -0.25198564 0.24371506 -0.15727642 0.062128372 -0.05270877 0.2698816 -0.12099035 -0.16622236 0.21645164 0.24740355 0.1549531 0.23951401 -0.2948495 -0.14206368 -0.48652434 -0.017735692
1835 0.4250319 0.14689337 -0.28261918 0.41601264 -0.20795497 -0.1141786 -0.32439393 0.2935846 0.11335864 -0.13055095 0.20186937 0.07173868 0.031612534 -0.053305704 -0.58822095 0.20790455 -0.0009852189 -0.38440767 1.1458758 -0.13107859 -0.46575198 -0.22145331 0.054721914 -0.0615443 -0.04268302 -0.076441854 -0.23927155 0.12769906 0.5204064 -0.2584454 0.0929014 -0.31086406 0.020580947 0.27510884 0.07960683 0.16727538 0.09969215 -0.17098977 -0.79893434 0.37522173 -0.42392853 -0.74370855 0.65943277 -0.5938563 0.023445375 -0.29341847 -0.017920468 0.1477562 -0.56020045 0.43798658 -0.355664 0.26191145 0.18407732 0.13338156 -0.07934381 0.15727262 -0.2906439 -0.26233983 0.3133313 -0.3578441 -0.20089605 -0.42425635 -0.5268371 0.1981533 -0.4669955 0.032148976 0.1946374 -0.23607846 -0.042617515 0.32144 -0.46912944 0.028197976 -0.28768814 -0.06609785 -0.29691252 0.13349894 0.42172194 -0.49420798 -0.20040067 -0.2873418 0.31418416 -0.11605786 -0.26536408 0.064351834 0.1927588 -0.19299807 0.28663254 -0.5192457 0.03835427 -0.22711718 0.211583 -0.23382537 0.501066 -0.3799911 -0.18280634 -0.08763223 0.17113253 0.17345648 -0.0076511474 0.5896385 -0.43524757 0.13567066 0.31358016 0.020166615 0.017191863 -0.38500354 0.5456453 0.5817512 -0.14436616 -0.51204634 -0.23532683 -0.11113626 -0.0015596572 -0.4417669 0.25399172 0.33822748 -0.7735735 -0.33146682 0.019514102 0.5179942 -0.7033756 -0.18700951 -0.4181642 0.046601582 0.0652149 0.057472695 0.14868346 -0.037186142
1206 -0.30416292 -0.028791683 -0.098514035 0.3505606 -0.37272307 0.057679668 -0.26186326 0.034212776 -0.06750467 -0.010692355 -0.038140427 0.5545855 0.02400966 -0.095742926 -0.49114698 -0.33866215 0.11888398 0.369975 -0.21184362 -0.07683651 -0.29217237 -0.18240346 -0.22236103 0.18034147 0.10151741 0.18688732 -0.3967141 -0.076601535 0.1671522 -0.089100234 0.029379567 -0.3519734 0.018215952 -0.35752666 -0.014926098 -0.19707099 -0.21046782 0.3732061 -0.21504323 -0.13804169 0.09806051 0.004938477 -0.23001686 -0.6752699 0.039188176 0.7870552 0.33711818 -0.30908176 0.102455266 0.14305718 -0.2318019 -0.19397897 0.100696474 0.24420665 0.655711 -0.29753575 -0.19477473 -0.10543919 -0.29097763 -0.10083236 -0.36332276 -0.36153495 0.18462917 0.008220339 0.030075612 0.23241356 0.1012544 0.16705413 -0.54500306 0.4732923 -0.6439833 0.050239433 0.09829671 0.59310544 0.31091833 -0.46189323 0.09155942 0.70681065 -0.11999169 -0.46765766 -0.22100231 0.14824644 -0.28944632 0.14405788 0.25469598 0.25648117 -0.30211306 0.0856002 -0.060940377 -0.757396 -0.33012965 0.3939606 0.13675879 -0.039759327 -0.51921594 -0.36416537 -0.022375166 0.44564238 -0.2646351 0.6631899 0.12954997 0.06488256 0.06375587 -0.5769532 -0.024454579 0.031587232 -0.015265517 0.23523614 -0.35138527 -0.39872783 0.04912622 0.27376643 0.052595552 -0.300603 0.6959931 -0.087196186 0.6545282 -0.16529968 -0.11914037 -0.49437106 -0.40372387 0.32032365 0.11815358 0.49414003 0.15298422 -0.33786854 -0.36161172 0.10856544
71 -0.10070303 -0.27165803 -0.09483596 -0.23312984 -0.2230314 -0.04596791 0.16415098 -0.15785739 0.07663869 0.091464736 0.31687465 -0.12858915 0.24484815 -0.01887397 0.049911294 0.6188719 0.3398203 0.20874591 0.3110652 -0.09614827 -0.109316505 -0.06464838 0.09973415 0.07689983 -0.14961687 -0.22327247 0.012899097 0.28537682 0.115293495 0.10867468 -0.13379255 -0.16849132 0.0665775 -0.45781267 0.12448465 -0.039947256 -0.07580571 0.23833987 -0.47638744 -0.12780885 0.32843646 -0.22120628 0.06609573 0.18101706 0.18215123 -0.048407696 0.20892833 -0.5016468 -0.13537447 0.17174776 0.19128138 0.27010044 -0.27331927 0.30358288 -0.08263113 0.029399915 -0.19557594 -0.5287064 -0.07342762 0.13600825 0.5474133 -0.30295458 0.33670184 0.5812479 -0.10736768 -0.19009945 -0.101367 0.3734845 -0.054584652 0.39370352 0.29680985 -0.123405516 -0.09396773 0.39408445 -0.15081277 -0.5376578 -0.21918625 -0.071206115 -0.21211874 0.3808159 -0.25853667 -0.35583243 0.008222415 0.17385672 0.42074224 0.16961609 -0.43452594 -0.2188589 0.0026814209 0.23386633 -0.1566789 0.39440957 -0.090947285 -0.051876046 -0.22162697 -0.06947601 -0.0007352618 -0.020048806 0.26569644 -0.097970776 -0.08463253 0.27609506 0.12447635 -0.026016993 -0.19676955 -0.3617442 -0.41330907 -0.22399691 0.13818689 -0.37328815 -0.06850564 -0.2677442 0.053566843 -0.37828305 0.018649843 -0.29359064 -0.45989853 -0.05200977 -0.03896591 -0.206815 0.12760735 0.45402983 -0.04109761 -0.035684295 -0.26474828 0.2883001 0.451696 0.16999029
1230 -0.55843854 -0.12655102 -0.08257707 -0.27420598 -0.9209124 -0.38972223 0.009861857 0.4250458 -0.16678815 -0.1147923 -0.005797383 0.5489729 -0.1018493 -0.076052494 -0.119988486 -1.296612e-05 -0.25215837 -0.6609219 0.6369972 -0.2538179 -0.3933353 -0.11858966 0.21723767 0.69429 -0.17695382 0.38444698 0.5015911 -0.1740485 0.36403182 -0.03637527 -0.009675716 0.09299508 0.101722024 -0.35496992 0.1246077 0.696249 0.41083845 -0.26133925 0.49875742 0.13588497 -0.030242465 0.54528534 -0.4772347 0.07344226 0.099995896 0.27834144 0.5386109 -0.36917943 -0.042015396 -0.11324031 -0.6047179 0.058924127 -0.14428537 0.16034153 0.16416359 0.90473825 -0.43234196 0.04055176 -0.68832153 -0.1160839 -0.16996816 -0.25962403 -0.72675073 0.08311584 -0.35548267 -0.17081934 0.30042145 0.77344066 -0.19277447 0.008067603 0.035137367 -0.36034957 -0.12625548 1.0400825 1.0449051 0.1428176 0.20306502 0.061469704 0.13362747 -0.024785886 -0.4386642 0.22790276 0.6398924 -0.060336974 0.5820794 0.4214859 0.24954021 -0.27913713 0.15838882 -0.23555186 0.34177592 -0.36228144 0.5184705 0.158037 -0.38862303 0.5368947 0.20781243 0.33756772 -0.2205849 0.83340955 0.14459291 -0.07252409 -0.29285344 0.09972469 0.16831325 -0.28516483 0.49341908 0.29786915 -0.16802222 -0.20694833 -0.36346275 -0.80861646 -0.38363042 -0.24350399 -0.41425726 0.55428725 0.49060607 0.1176327 -0.74570674 -0.033182956 -0.43958807 0.24900037 0.043182675 -0.34266 -0.52522707 0.02398898 0.1437446 0.10976025
875 -0.10984158 -0.42772266 -0.32867178 -0.16700034 -0.41467535 0.20676538 0.26719934 -0.079669505 -0.09640322 0.28426936 -0.20366035 -0.10758693 0.1946307 0.31147152 -0.85756963 -0.5496366 0.34597883 0.23841378 0.051903278 -0.027752971 -0.20687869 -0.05930415 -0.07440339 0.35416776 -0.44310787 0.2793141 -0.006109282 -0.1271498 0.32747635 0.039054483 -0.20770638 -0.025022075 0.011756102 0.11313381 0.012668167 0.19919635 -0.30375728 0.10687653 -0.13345723 0.03653118 0.17205006 0.19868755 -0.0042143418 -0.43620166 0.0776129 0.47919318 0.36562157 -0.38049737 0.2582155 0.8378065 -0.10904642 -0.2192632 -0.20996912 0.12919247 0.4939589 0.41557896 -0.36373264 -0.24822772 -0.0028729404 -0.12034555 -0.5325788 -0.2541475 -0.21795903 -0.40544912 0.09455075 -0.0172999 -0.06064667 0.2223351 0.35394838 0.6519675 -0.16379377 -0.4556614 0.5135953 0.28764784 -0.01962533 -0.46167815 0.1848465 0.090718165 0.0912219 -0.29855865 0.38965565 -0.013769601 -0.32663178 -0.11067379 0.15256189 0.33639017 0.009639466 0.059446253 0.30753836 -0.68890166 0.21420956 -0.009091163 0.3224588 -0.20213081 -0.37490252 -0.118666336 -0.5733311 0.0339975 -0.28007698 0.43924466 0.31708926 0.055995997 0.15509735 -0.18711123 0.38373724 -0.12997842 0.024319526 0.027355677 -0.3546312 -0.22332984 0.16851415 0.30120814 -0.09552072 0.20105356 0.5416235 -0.19333392 -0.040610053 -0.4893657 -0.03581183 -0.47291675 -0.41322726 0.42765555 -0.090348095 0.6097253 -0.43330365 0.2457078 -0.6652592 -0.19839053
872 0.3043327 -0.015670903 0.4184123 -0.36930373 -0.13388541 -2.9519426e-05 0.1268404 0.5127004 -0.6499973 -0.022585265 0.2725735 0.06157184 -0.11017839 0.33079916 0.046335306 -0.27711686 0.17540023 0.119980715 0.063424855 -0.48647135 0.017296486 -0.025884923 0.36295348 0.26402703 -0.2779457 0.47146875 -0.57083964 -0.15930314 0.8962501 -0.15154612 -0.5264777 0.14546278 1.2577509 -0.17985831 0.8473707 0.5198059 -0.39851746 0.22966099 -0.15196034 -0.014531448 0.34823835 -0.0039709257 0.16214119 0.11561485 0.6619093 0.40126494 -0.24102293 -0.042491168 0.41392115 -0.11171806 0.4790921 0.30247182 -0.27782398 0.54032606 0.20389977 0.23825103 -0.2460776 -0.47881094 0.1677413 0.21573682 -0.3642861 -0.4620886 -0.14784555 -0.028825616 -0.24967137 0.31377253 -0.014436244 0.3124779 -0.29638764 -0.28727645 0.13507554 0.49340683 -0.38176507 0.52962494 -0.07848604 -0.34862795 0.3754361 -0.20850012 -0.4908783 0.22189048 0.036509063 0.23933841 -0.1676569 0.16742589 0.12344922 -0.096293636 0.3961122 -0.13595888 0.15945001 -0.45485243 0.12182828 -0.5259675 0.21800703 -0.048674054 -0.20085646 0.13042545 -0.08079059 0.27957812 -0.10127486 0.16649394 0.025148507 -0.13790414 0.033373635 -0.73443335 -0.837033 -0.46846873 0.0096226875 -0.70943016 0.66433233 0.5004166 0.12655911 0.6284652 0.015948212 -0.29223776 0.3495891 0.24454485 0.003229174 0.05135349 0.014013045 -0.17068832 -0.17325146 0.03371805 -0.027579593 0.116816 -0.57552534 -0.08418158 -0.032389794 -0.008372301
446 0.0978455 -0.13554437 -0.20308946 -0.56177855 -0.31691375 0.32510832 0.17799072 0.27304673 0.018344969 -0.05945541 -0.27687436 -0.0818512 -0.4524292 -0.16991524 -0.24733485 0.034088526 0.60820264 -0.007178893 0.2680412 -0.42911884 0.46825162 0.005692056 -0.3071937 -0.02669642 0.2377003 0.081984155 -0.28046766 -0.40225443 -0.34395874 -0.46254224 0.17435874 -0.33594662 0.111036755 0.51132303 0.30527344 -0.05657332 0.15773466 -0.123296835 -0.9180575 -0.10737313 0.010524172 -0.19988064 -0.32869756 -0.413584 0.6624987 0.6512409 0.0052264147 0.21551216 0.5840365 0.5432585 -0.33056563 -0.0787974 0.2992215 -0.0842125 -0.38159806 0.3943166 -0.36929795 -0.25624463 -0.18064338 -0.050615124 0.033040076 -0.26024154 0.23169193 0.15953521 -0.22259904 -0.46465817 -0.13577957 -0.2594593 -0.27007222 -0.502864 -0.58919024 -0.38890895 -0.43533382 0.24735804 -0.6177904 -0.15386069 0.6387711 -0.017631693 0.4994138 0.23954156 -0.27902362 0.443477 -0.13456565 -0.060239322 -0.0332462 -0.017216723 -0.09126639 -0.21933784 -0.141127 -0.27546546 0.13231876 -0.13242094 -0.08469621 -0.31684938 0.11703174 -0.13839 0.3209184 0.2360162 0.115621775 -0.014461051 0.17512356 0.37656558 0.24495736 0.17734714 -0.30597305 0.18552947 0.025242312 -0.19345793 0.3789223 -0.24568042 -0.106050484 0.43192977 0.22319399 -0.112397425 -0.24400963 -0.034557246 0.16975938 -0.45126924 -0.33930027 -0.48861417 -0.16650717 0.09183453 0.13459197 -0.1918829 -0.22821964 0.088150986 -0.033230793 0.20252177
244 0.017291117 -0.09348806 -0.15579866 0.0006769042 -0.28886452 0.5002807 0.35099098 0.03363138 0.26636186 0.25091425 -0.30475184 -0.10431972 0.08015131 0.53672206 0.02456944 -0.20783582 0.04789131 -0.44358575 -0.044751726 -0.47250226 0.21562956 0.0069702743 0.16570124 -0.24885622 -0.07776121 -0.2819379 -0.07036935 -0.34609482 0.62029576 -0.3919469 0.09545714 0.055636033 0.32135066 -0.1581496 0.5258252 0.10050035 0.009879549 0.32477012 -0.2980126 0.020952553 -0.30800343 0.028336551 0.04145654 -0.057944346 0.08990586 0.25422174 -0.05448842 0.031572673 0.13731147 0.125778 -0.27679422 -0.3312443 0.2567285 0.6548205 0.057257637 0.4644399 -0.17755929 -0.41413143 -0.06916622 -0.6340533 0.12651566 0.6522824 0.021932947 0.31787407 -0.07948672 -0.6680054 -0.1326964 0.026901629 -0.05161081 -0.40120077 0.021716295 0.33267185 0.22629364 -0.080340676 -0.30133402 -0.58532673 0.18712293 -0.099240385 -0.008510143 -0.0127787 -0.48510268 0.04468387 -0.09200118 0.10781298 0.175979 0.17634715 0.14475243 -0.2582818 0.080545686 -0.0665727 -0.10813432 0.10256876 0.06463727 -0.4986966 0.0853056 -0.07280423 0.23222525 -0.08736068 0.21065623 0.4739716 -0.01677276 0.14182517 0.25954956 -0.106784575 0.23354423 -0.024283225 -0.19513682 -0.25568798 0.20481472 0.3812493 0.48104352 0.27036723 -0.022547536 -0.59017557 0.014015267 0.06167279 0.13609286 -0.11303714 -0.34644008 -0.002494291 -0.17464556 -0.20360065 0.0030483098 -0.124833085 0.009803029 0.50344634 0.24035224 0.13275635
840 -0.13792162 0.2876573 0.04161367 -0.2446625 -0.2858742 0.030871639 0.16849868 0.00166586 -0.34821516 -0.67736375 -0.24690317 -0.37750182 -0.26393583 -0.09034449 -0.4210588 0.36192718 -0.05868141 -0.10494788 0.43061355 0.11413636 0.029405808 0.03573228 0.56693494 -0.25319418 0.12675638 0.15804312 -0.124597885 -0.35970792 -0.14025642 0.010939223 -0.19274399 -0.045769285 0.43790978 -0.25046957 -0.105539 0.36589274 0.027551575 -0.5641255 -0.29156893 -0.53362936 0.2796077 -0.031711522 -0.24605401 0.29913715 0.19113575 0.19704951 0.091157965 -0.11033453 -0.4677391 0.38616285 0.15994294 0.43914706 0.25647306 -0.024147091 -0.15481411 0.20083113 -0.65015715 -0.35723358 0.0879438 -0.0770722 0.2946904 0.18089847 -0.10193053 0.24428552 0.16928448 0.2815333 -0.5894995 0.096804135 -0.1646134 -0.4276724 -0.17733113 0.062469736 0.06288759 0.58883506 0.2407795 0.39491177 0.10472831 -0.7925005 0.284373 -0.4865474 -0.68951744 -0.0020775227 -0.22579521 -0.067919016 -0.5132318 -0.100197434 0.20717466 -0.52871704 0.54318655 -0.4978062 -0.20059443 0.4175299 -0.08302948 -0.4814403 -0.6295364 0.13476044 -0.28126127 -0.11502634 0.06641988 0.8591794 -0.31069613 0.21990682 0.23880824 -0.42353228 0.23235565 0.08958521 0.58906317 0.0236742 0.125213 0.041227534 -0.27762735 -0.48590997 0.36635283 0.31223005 0.040286094 -0.34227952 0.1782173 -0.78956175 -0.2860757 -0.45437846 0.53830105 0.30542886 0.09046735 0.6254034 0.26808286 0.26678547 0.06405981 -0.4209402
60 -0.31501785 -0.18955623 -0.06956957 -0.20303501 -0.37384143 0.39293128 0.67308694 0.18380806 0.15036297 -0.19533151 0.23390178 0.35028213 0.004053351 0.35786492 -0.1397346 0.007482714 0.33916083 -0.1306064 0.28954273 -0.011888759 0.06586219 0.032477867 0.1277402 -0.19606015 -0.16613781 0.060971748 0.62958866 0.015169756 -0.13029245 0.40929875 -0.12508352 -0.054720785 -0.20369153 0.025294054 0.13072014 -0.15387413 -0.8456433 -0.28354445 -0.26640847 -0.17533755 0.009227899 -0.23253337 -0.45348984 -0.15466428 0.19363019 0.0738773 0.5184594 -0.32251492 -0.048899285 0.2698767 -0.35404608 0.06795042 -0.31810606 0.63574046 -0.11796813 0.060337503 -0.017594377 -0.16897818 0.37319195 0.42164502 -0.16483782 -0.12924302 0.2264177 0.6061932 -0.5223163 -0.22163585 -0.10327554 0.4036665 0.6308111 0.28100604 0.12439238 -0.32890645 -0.32942578 -0.122940585 -0.1121615 -0.30768627 0.15749945 -0.4754936 -0.4502486 0.1599002 -0.4389445 -0.6391566 -0.1013245 0.39154792 -0.1636025 0.3816058 -0.36796564 0.24554305 -0.054317888 -0.17782602 0.0088822525 0.24308759 -0.11918554 0.05655107 -0.45837623 0.014886367 -0.3391444 -0.0016877032 -0.016264044 -0.13528034 -0.4455772 0.20165361 -0.32737938 -0.083257586 -0.14816688 0.2461486 0.3466186 0.28015158 -0.010831347 -0.42797145 -0.55270374 0.42343974 0.4689279 0.24323638 0.19064295 0.46150827 0.0633111 0.1168661 -0.078884915 -0.05121307 -0.25730455 -0.14001629 0.1740853 -0.124328524 0.016748367 -0.463094 0.7025389 -0.012047027
1824 0.058053866 0.022354087 0.33372408 0.2885335 -0.006927181 -0.37490943 0.45730573 0.31622696 0.10917544 0.06659313 -0.3398295 0.47407275 0.4601647 -0.652 -0.17388627 -0.1610397 0.15662546 -0.1464016 0.079969235 -0.6214414 -0.017067274 0.40337518 0.022413475 -0.29530066 -0.19627386 -0.548076 -0.41492504 0.11959104 -0.22155586 -0.48008814 0.18105872 0.17785941 -0.0027780295 0.6632746 0.63823956 0.16385837 -0.7189559 -0.61470026 0.08316123 0.6812341 0.33555508 -0.59375966 -0.1077521 0.32510182 -0.06439532 -0.12238174 0.17128599 0.14714855 0.18021338 0.67819685 -0.39052027 -0.39407933 -0.07713445 0.56599563 0.16136578 0.16848917 -0.5127876 -0.11522227 0.042312007 -0.18330349 0.17500097 -0.5646953 0.2731588 0.34440127 -0.3557573 -0.19511265 -0.52954036 0.15590149 -0.3921539 0.15470749 -0.3355278 -0.06387704 -0.4394322 -0.08404189 -0.17465147 0.25821838 0.1400583 0.07540476 -0.32998988 0.21189895 -0.3869804 -0.07839183 0.10855323 -0.39843896 0.3597191 0.06595502 0.3174249 0.091310985 -0.24355213 -0.52624035 -0.012806384 0.57935023 0.37144005 -0.16931842 -0.3641049 0.160385 0.15302362 -0.12969725 -0.19062357 0.3999203 0.20705841 0.54470706 -0.3016409 -0.031061219 -0.06650845 0.07180236 0.4101721 -0.6099269 0.07032658 -0.24660902 -0.08997782 -0.014167147 0.43234527 -0.40282592 0.3746447 -0.031843886 0.14110802 0.36713743 0.043515157 0.030798994 0.08795359 0.22388719 0.0453566 -0.23713306 -0.42591992 0.27151123 -0.25410125 -0.28112674
551 -0.038116224 0.12308606 -0.1188204 -0.071882665 -0.33240378 0.3618742 0.79973775 0.47359252 -0.16585857 -0.0990674 0.594226 -0.2436255 -0.076193064 0.005564733 -0.32025543 -0.3999842 -0.11618489 -0.30147892 -0.30933002 -0.20831433 -0.2327821 0.17245652 0.12320584 0.65031195 -0.43800145 -0.66244715 -0.08006415 -0.48624063 -0.15427658 0.047354918 -0.49854508 0.10478864 -0.17539915 0.010130716 0.023530027 -0.06564531 -0.10157252 -0.122670464 -0.20506068 0.2162812 0.3218425 -0.13075055 -0.52186364 -0.2658262 -0.047837626 0.4002806 -0.00352536 -0.23390363 0.033757452 0.5083037 -0.062840566 -0.45184916 0.013560187 0.4095644 -0.13423665 -0.23231673 -0.18029708 -0.23521115 -0.023097243 0.323131 0.063793235 -0.5845784 -0.37704998 -0.006121728 0.014990519 0.21351215 0.21700858 -0.073168844 0.30205315 0.3201058 0.21852979 0.3056271 0.29184455 -0.054520395 -0.13422924 0.4162095 0.34598908 -0.1209105 -0.12048463 -0.16941364 -0.11944894 -0.018065354 0.12896574 0.5358665 0.51596874 0.09781191 0.06867481 0.05244765 0.3006085 -0.3336168 -0.05881221 0.602369 0.13194367 -0.1601946 -0.4474862 0.22251192 0.005488662 0.28489986 -0.36895558 0.17309426 0.42128223 -0.1004875 0.25278378 0.18995322 0.09430136 -0.506269 0.3144727 -0.3415252 -0.2555785 -0.11288986 -0.064898774 0.50145537 -0.32089484 -0.45533556 -0.25503927 -0.5262538 -0.12996231 0.43887064 -0.39985296 -0.11085978 -0.18049806 -0.11922124 0.14507248 0.62912 0.047453813 0.21318403 -0.09648674 0.16569407
161 -0.26790076 -0.42166868 0.48267254 -0.10416622 -0.22697441 0.3474647 0.39487618 0.027119944 -0.16422929 0.1726829 0.2934225 -0.087975636 0.23979582 0.091092534 -0.1639718 0.60962224 0.2894089 0.10549966 -0.17167453 -0.26064777 0.38195285 0.43583715 -0.05010662 0.42638752 -0.22561188 -0.22638153 0.029714508 0.012194799 0.06262472 0.0768093 0.09117743 -0.34328097 -0.48883364 -0.20204537 0.2975353 0.17511217 -0.44356477 -0.28701386 -0.3571024 -0.15119419 0.11639976 -0.1731803 0.010166588 -0.18832621 0.37087286 -0.048212003 0.50047475 -0.5780862 0.077222586 0.08499898 0.18461101 -0.029426714 0.522728 0.3289958 0.040083658 -0.16202952 0.016817264 -0.122067735 0.42934427 -0.23904294 0.41753286 -0.4826621 0.037034262 0.5476407 -0.03267575 -0.3369947 -0.2046831 0.41118404 -0.39788365 0.54219794 0.16078188 -0.29486594 0.37151012 0.2072139 0.14141005 -0.10870572 -0.056635678 -0.59751815 -0.71727717 0.003524198 -0.092329025 0.054539658 -0.0068995208 -0.047948904 0.12697393 0.46484953 -0.40233645 -0.16226083 0.03275642 -0.48725873 0.1708055 -0.38345253 -0.4191187 0.046859484 0.11410605 0.105168045 0.005024237 0.023239877 -0.30725738 -0.25526288 0.2181066 0.21512835 -0.13090032 -0.2951792 -0.33361667 -0.10523273 0.36743817 0.51069677 0.04354767 -0.13576742 -0.63180876 -0.11343907 0.2668928 0.22238605 0.058811527 -0.04649741 -0.14603889 0.628532 -0.43193752 0.033100117 -0.17788096 -0.038782153 -0.0111818975 -0.11654019 0.50408816 0.16696282 0.43388528 0.11715385
111 -0.15424255 -0.09631124 -0.027715739 -0.25502148 -0.06328697 -0.027595293 0.5414629 -0.028559012 0.42386016 0.15371443 0.514236 -0.2805534 0.41329882 0.2772203 -0.01968976 0.2670666 0.41860318 -0.10749196 -0.010610335 -0.30399084 0.002846532 0.16085096 -0.034338307 0.5514693 -0.1659263 0.12791623 -0.11321019 0.031587657 -0.07648885 -0.0691356 0.1859025 -0.25561243 -0.21761511 -0.56544024 0.65359837 0.0073333764 0.15579377 0.5514847 0.18535705 -0.39164943 0.3826262 -0.7382072 0.08366604 -0.38572186 0.3543596 0.1410484 0.22342737 -0.61531633 -0.35116088 0.05215189 0.34728086 -0.2831623 -0.07225549 0.407494 -0.032694984 0.19647731 -0.51234293 -0.5224689 0.31993845 0.6140051 -0.031531416 0.008354845 0.4602462 0.17962293 -0.048966147 -0.3319594 0.1948272 0.1962717 -0.08110477 0.31548685 -0.12121891 -0.42134207 0.13432415 -0.095091626 -0.14438754 -0.035908584 -0.016330775 -0.1472129 -0.72040313 0.027279198 -0.39254418 -0.70616496 -0.04716235 -0.39510143 0.13376573 0.120213166 -0.30697063 -0.055782452 -0.015871882 -0.04662606 -0.10123053 -0.15350282 -0.39024585 -0.41969758 -0.6202903 0.35166463 0.071659386 0.13075039 0.01478312 -0.19315755 0.19277632 0.3371815 0.1114172 -0.058453307 -0.09646663 -0.18480143 0.3107664 0.63614076 0.29260978 -0.29773912 -0.14576317 -0.17271006 0.5111207 0.22196124 0.22807197 -0.28975692 -0.26693732 0.34089413 -0.074963614 0.30080914 0.17350781 0.1767847 -0.14824295 -0.4793582 -0.12931837 0.133103 0.30703372 -0.07205072
95 -0.3239327 -0.0687806 0.12975001 -0.044906028 -0.11967456 0.07890175 0.1065813 -0.3005537 -0.27842695 -0.09764859 0.21454833 -0.20644975 0.28668222 0.30996025 -0.28331134 0.626244 0.25941432 0.062052373 -0.23599726 0.2803898 -0.007528738 -0.016916158 0.1766755 0.3813535 -0.24641715 -0.38498348 0.20048875 0.154562 0.20406914 -0.322265 -0.12529545 0.15848307 -0.04285476 -0.25754815 -0.06023217 -0.0028234662 -0.13417329 0.24012308 -0.8757664 -0.017026298 0.32440868 -0.14546852 -0.31822833 0.14924626 0.11936086 0.11641475 0.28176013 -0.5021041 -0.079894945 -0.008482405 -0.1953861 0.08101066 -0.00040515614 0.059484266 -0.06743632 0.11612056 -0.41975334 -0.30178925 0.011506557 0.38103113 0.6372011 -0.30685607 0.20371895 0.032680746 0.079559594 -0.20652194 -0.24860838 0.15630198 -0.44706938 0.3181785 0.07237331 -0.16484758 0.1165845 0.18087679 0.20208538 -0.27529448 0.09535867 -0.18313915 -0.13178937 0.25774783 -0.18885499 -0.16252565 -0.17361161 -0.20465049 -0.0026583988 0.48078343 -0.44120768 -0.07933992 -0.2234625 -0.34279898 -0.21407667 0.052078795 0.20991178 -0.12959217 0.015451919 -0.058621287 0.2911815 0.1298044 -0.2704722 0.027501937 -0.17900006 0.33440417 0.13849115 0.22171985 -0.19677155 -0.61968964 -0.111738026 0.58560884 0.5777553 -0.3620861 0.21536814 -0.12427583 0.29165208 -0.44881895 0.2813094 -0.10785852 -0.05724081 0.29206192 0.06673843 0.23074372 0.118493095 -0.07054509 0.013509422 -0.21904354 -0.087588765 0.1374252 0.09777782 0.018229278
1467 -0.20808642 0.12827408 0.050695356 -0.15072294 -0.22125791 0.079629436 0.34835374 0.38110235 0.12824579 -0.3302334 0.10437839 -0.3386117 -0.41943952 -0.3266135 0.090310186 0.4669834 0.08091673 0.015505464 0.18984596 -0.19572833 -0.035366874 0.17880186 0.052489653 -0.16797465 0.06903658 0.23579559 0.06942216 0.09999725 -0.17811228 -0.3798269 -0.17717966 -0.28535467 0.7335826 0.23997572 0.086960234 0.027882837 -0.18050222 -0.2505863 0.1137273 -0.44869548 -0.20396073 -0.056061093 -0.23330455 0.38368395 0.16674341 0.24006061 0.029814227 0.007962304 -0.15876053 0.38904354 0.45603913 0.40344244 0.13590182 -0.42406604 0.04198426 -0.1914613 -0.2413909 -0.50381196 -0.10776009 -0.027825937 0.13161497 0.29532057 -0.6099021 -0.23971051 0.25468737 -0.15244523 -0.1339311 0.3745619 -0.09571086 0.66969997 -0.7123105 0.0112511935 0.02243087 -0.13598406 0.40506315 -0.12452091 0.619893 -0.6612947 -0.17007524 -0.17709188 -0.61332846 -0.27060497 0.20198712 -0.024104461 -0.01187353 -0.45031968 -0.062047064 -0.10673081 0.64102674 -0.48655954 -0.44062296 0.24882476 0.048587695 0.048502915 -0.19031556 -0.21392159 -0.07800744 0.36857376 0.2557218 0.81984514 -0.13357364 0.53216714 -0.5474721 -0.29250333 0.23342435 0.50414497 0.26539448 -0.042293865 -0.6294084 -0.1966843 0.59439796 0.24854934 0.18517548 0.07768298 0.3479487 0.11975583 -0.1878287 -0.21436433 -0.7001923 -0.10354262 0.27705744 0.208729 0.18055217 -0.12149346 -0.375775 0.16183735 0.2333838 0.14057215
745 -0.15904753 -0.20767888 -0.13850701 -0.13420124 -0.22001933 0.08201538 0.10382067 0.12544349 -0.21323141 -0.7121115 -0.007549119 -0.10704836 0.14621054 0.21124814 -0.07204016 0.22892365 -0.08285239 -0.21284613 0.006555974 0.36150113 0.18786356 0.25382653 -0.0009332844 -0.5436279 -0.03379459 0.06400164 -0.10090397 -0.28364384 -0.05455162 -0.42355555 0.13843523 0.11921521 -0.18693571 0.039588317 -0.24764423 0.08453092 -0.3513772 -0.057236496 0.29130593 -0.46571073 -0.047734126 -0.18461484 -0.22381747 -0.027675634 -0.21894318 0.16709502 -0.2696578 -0.2697287 -0.38512576 -0.13037132 0.19712628 -0.03743195 -0.15137321 -0.15862575 0.16056055 0.36392516 0.09019878 -0.13927774 0.12089125 -0.17949417 0.45300636 -0.4938087 -0.22345759 0.7855697 0.04701632 -0.0176666 0.07379338 0.6654913 -0.040721826 -0.11212203 -0.33769482 -0.049457792 0.028045908 0.5568521 0.3790285 -0.21375772 -0.07585742 -0.9610973 0.22878152 -0.52389216 -0.39606434 -0.27618742 -0.16458301 0.16805209 0.047704305 -0.69508696 0.5093245 -0.20287037 0.2433163 -0.34122816 -0.06059831 0.053671084 0.099453345 -0.035738464 -0.30485088 -0.09548775 0.007857809 0.09163731 -0.5760346 0.5522897 0.028657913 -0.35053062 0.20379348 -0.22673751 0.030540923 -0.3889266 0.087655954 -0.19552706 -0.4914319 -0.2945894 0.032615617 -0.20558585 0.58891565 0.05843887 -0.08115522 0.15869687 -0.31764895 -0.3476839 -0.37366635 0.05948893 0.4177498 0.11325745 0.31473714 -0.044057067 -0.034813575 0.32114267 -0.0002843017 0.06905842
579 0.603395 0.25714505 0.2004863 -0.2595252 -0.4667738 0.006423745 0.47344136 0.5601381 1.0429629 -0.17816657 0.17523652 -0.08465858 0.8509833 0.2445896 0.26131225 0.45341507 0.21982059 -0.65553564 0.22863723 0.75758684 0.5776749 -0.069992326 0.38748085 0.33586758 0.05048631 0.5466645 -0.09479781 0.1827655 -0.003313207 0.06522301 -0.3676243 0.046821646 0.11374993 0.0931611 -0.28077275 0.6933045 0.015757926 0.24462032 -0.39491314 -0.12860292 -0.19845168 -0.9306517 -0.03252497 0.1625482 0.05594929 0.43674093 -0.205595 -0.81387854 -0.53328997 -0.2870492 -0.20150632 -0.7698717 -0.33263394 -0.0199678 0.110071756 0.32275882 -0.23055772 -0.24963315 -0.1123621 0.41770822 -0.13906334 -0.1259182 0.004676601 0.089931436 -1.040287 -0.34500363 -0.5262322 -0.09829037 -0.44978335 0.4255935 0.50589865 0.12955005 -0.4278876 -0.43216586 0.39171612 -0.040972073 0.97150326 -0.6417713 -0.01521615 -0.67240745 -0.034873173 0.24874233 -0.29583013 -0.49734122 -0.13389273 0.86637473 0.017738037 0.5803463 -0.19613409 -0.50807655 -0.39174455 0.26814246 0.54176533 -0.7792053 0.10542242 -0.19287172 0.057955556 -0.17282262 0.005298365 0.58267134 -0.4152862 -0.23207766 -0.28873545 0.18458046 -0.016356438 0.387229 0.22820453 -0.26121202 -0.24766183 0.23118883 -0.3131724 -0.2959036 -0.14128976 -0.19902338 -0.070616245 0.27106127 -1.0715145 0.24211478 -0.08052501 -0.54711175 -0.60146093 0.6198678 0.056862622 -0.08327496 0.10506217 0.4482539 -0.28193936 1.3102169
659 0.3580821 -0.16549021 -0.478331 -0.118684486 -0.6465995 0.3931154 -0.10121051 0.56143975 -0.5591396 -0.34223223 -0.28921202 -0.40831867 0.48333725 0.10775549 -0.06445925 0.059978854 -0.024070071 -0.34895834 0.9717924 -0.26110494 -0.49043608 -0.07367041 0.07600509 0.08403083 0.08049558 -0.09564713 0.09747079 0.0078097903 0.14207688 -0.051342234 0.14290154 0.1335678 -0.04014862 -0.22637276 -0.2660451 0.2240406 0.20432171 -0.72428733 -0.54479045 0.5310565 0.20926759 -0.84308726 0.5889636 -0.48493403 -0.5627629 -0.21143027 0.018894862 0.002603146 -0.654468 0.31682038 -0.16045663 0.045045227 0.4078275 0.17355695 0.021503773 -0.268069 0.007886602 0.092611864 -0.004489432 -0.16437048 0.14299946 -0.25318885 -0.4918589 0.26138002 -0.17025523 0.04814182 0.15778305 -0.40970945 0.18626907 0.2083264 0.07107363 -0.08490912 -0.08974157 0.29865253 -0.2038487 -0.13421819 0.3975612 -0.024045248 0.084350854 -0.39205012 -0.16045447 -0.1140994 -0.15030925 0.03860598 -0.12463017 -0.7086704 0.14073512 -0.12505342 0.028181303 -0.15006566 -0.009817699 0.107752465 0.23544066 0.25041237 -0.24934791 -0.36556047 0.09767699 0.39626256 0.24379487 0.82400143 0.09556257 0.3849073 0.35205254 -0.27217782 0.252707 0.21385115 0.1415824 0.28421775 -0.1529383 -0.3624263 -0.11957219 -0.2982769 0.10971318 -0.4353022 0.77188927 0.2459112 -0.6324719 0.20059884 0.271319 0.1945489 0.006773015 0.03626572 -0.44970587 0.29889578 0.0058995113 0.24916574 -0.31070817 -0.11700711
2009 1.3761387 -0.14069685 0.21540637 0.36244205 -1.0918106 0.26280683 -0.426078 0.66174567 0.068563126 0.33132833 -0.6712108 -0.25808603 -0.2641047 -0.1550784 -0.42524216 -0.025632704 0.18923603 0.006310458 0.45870167 -0.28663924 -1.033157 0.115348816 -0.8435214 0.24988814 0.09419062 0.1875008 0.044205613 0.21442752 -0.019985719 -0.23369022 0.466973 0.05662336 0.09281148 0.09569465 0.22470494 -0.126576 0.06419181 0.4802328 -0.056711067 -0.36917636 0.1035225 -0.70770293 0.4863218 0.41363743 0.24802439 0.14188763 0.3845571 -1.0373417 -0.4489275 0.1275947 -0.078402825 0.30480647 0.54876137 1.1218228 -0.5625676 0.36248785 -0.3824554 -0.23752147 -0.3653052 0.07964148 -0.072369695 0.0438014 -0.26861343 -0.0098138815 -0.13413431 0.35500363 0.048950665 -0.5637099 -0.16398649 1.0863165 -0.09092055 0.083079726 0.27157956 -0.15323384 0.32219926 -0.7138208 0.102754295 -0.44279137 0.39623922 0.11861919 0.09452132 -0.081104785 0.6245161 0.018693777 0.53722554 -0.4314243 0.40235937 0.13907641 0.41275537 -0.8994398 0.14638467 0.7624382 0.73256147 -0.5918782 -0.41272575 -0.07959412 0.43578404 -0.023266219 -0.27671334 0.67765677 -0.5493611 -0.64820683 0.095390946 0.0253087 -0.51349276 0.12528719 1.262438 0.13633426 0.53953516 -0.58351153 -0.8736515 0.54389155 0.8690335 -0.08677562 -0.49377516 1.3414407 -0.91716075 -0.56781536 -0.055170976 -0.33027646 -0.18414378 0.6245212 -0.5804541 0.15215121 0.24052663 -0.15092438 0.30335486 0.027891908
2596 -1.1287373 -0.7871293 -0.7144665 -0.9664497 -0.23904763 0.37502667 -0.34169817 0.83231735 -0.014572463 -0.44486445 -0.6607841 0.040236183 0.27073777 0.0454281 0.27721575 -0.52509433 0.2933756 -0.29241416 -0.02069647 0.1494197 -0.11923595 -0.3653776 0.6956536 0.24066517 0.7963942 -0.12410098 0.14421532 0.22224051 -0.06010617 -0.25883085 -0.44160843 0.104403794 -0.62692827 0.02854866 0.40370336 0.5893613 -0.16829643 -0.46406007 -0.31840688 -0.12547083 -0.56750655 -0.045249086 -0.038827855 -0.8168839 1.1116183 -0.60202837 0.13604666 0.25802347 0.21017459 0.37557527 0.4924476 0.010089365 0.19803534 -0.24274604 0.067737155 -0.058315422 -0.04184395 0.078281395 -0.10956718 -0.23036358 0.2505845 -0.14264545 0.019376568 0.27909833 -0.097172216 -0.25368685 0.13092044 0.056253202 -0.76231325 0.47574836 0.3659817 -0.36851647 0.12540194 -0.3115377 -0.5132054 0.11031638 0.6245215 -0.40047446 0.2500419 -0.6737423 -0.54793537 0.24519163 0.3820373 0.00048130605 -0.072531044 0.4052873 1.3459476 0.26547092 0.43114462 -0.84790635 0.6976586 0.7274773 -0.267796 0.15060687 -1.1858817 -0.088321745 -0.6868133 -0.39159435 0.1340701 0.4360242 -0.44605497 -0.26476908 -0.076476626 -0.094254516 -0.8479105 0.019127557 0.88392967 -0.24976446 0.43601325 -0.6185856 0.025738062 -0.46455318 0.0843108 -1.0933591 0.8546942 0.043332607 -0.5094038 -0.43980625 -0.46490774 -0.087391034 -0.5877233 0.09087317 -0.9647656 0.26856658 0.37356886 0.10326123 0.4084469 0.10605912
110 -0.058030456 -0.6252102 -0.41524884 -0.35629645 -0.15167104 -0.1180485 0.33085328 0.07815645 -0.21538252 0.22724746 0.24841577 -0.05034307 0.3914784 -0.15767047 0.08671237 0.15603495 0.49621734 0.4939636 0.29948035 -0.2366667 0.27206945 0.37876284 0.18705784 -0.19101922 0.24240789 0.20140406 -0.42886445 0.21718049 -0.00905952 0.0245271 -0.012899096 -0.4574296 0.004982121 -0.08195099 0.20731881 0.34960866 -0.08060131 0.30608284 0.02825524 0.12762766 0.06637733 -0.02681882 -0.47165498 0.3363513 -0.15853131 -0.038741227 0.6228668 -0.42828238 -0.05348395 -0.14850178 0.27318582 -0.09583481 -0.513412 0.4618497 -0.5269311 0.38956785 0.16669264 -0.2256718 0.27363002 -0.52128977 0.43392944 -0.19498259 0.06637074 0.16459537 -0.3241671 0.21434776 0.28466612 0.65153927 0.14190069 0.49997047 0.041110575 -0.74708676 0.42916414 -0.26318473 0.021586102 -0.20288727 0.003969994 -0.041068036 -0.27020982 -0.068211935 -0.20424448 -0.47381765 -0.26677832 0.5836843 0.44769964 0.13880396 0.016848119 -0.27806678 -0.37608132 -0.50748813 -0.3208487 0.56761235 -0.13990483 -0.2504979 -0.27534598 0.29784766 0.42894983 0.27012435 -0.10920067 0.37079117 0.034340907 0.10165923 0.23122899 -0.22889432 -0.7509901 0.15967618 0.20514253 0.17107546 0.25485396 -0.023399394 -0.00030326753 0.17556784 0.29202512 -0.0021839635 -0.3969682 -0.4281861 -0.4448866 0.28583995 0.22966598 0.42142376 -0.003967996 -0.18948682 -0.069146186 0.15509261 -0.28775424 -0.050014023 0.30086285 -0.020691145
1062 -0.16604999 -0.5233111 0.043270476 -0.066873744 -0.58595383 0.25351703 0.33631948 0.05361642 0.089221455 -0.13604756 -0.04014039 -0.18006475 -0.3075775 -0.36978057 -0.91407293 -0.071903974 -0.35144418 -0.65907496 -0.123903 0.63040036 -0.50245076 -1.1213019 0.8619606 -1.2152208 -0.5068678 0.31524763 -0.121369325 0.34352356 -0.2908756 0.48060313 -0.05499066 0.10573419 -0.37910587 -0.4211036 0.45924518 1.0421859 0.9001706 0.060784124 -0.5005962 -0.10604224 0.2082439 -0.30653048 0.3952546 -0.35260054 0.15985648 0.017106054 0.11660818 -0.60257643 -0.47212598 -0.30134782 0.1766538 -0.08375107 0.26473826 0.5682176 0.06684962 0.32067543 -0.5748125 -0.5274735 -0.024381934 -0.32652766 0.14353551 -0.8777652 -0.42187804 0.3565803 0.18877593 -0.95838726 -0.2894313 0.20992437 -0.64967835 0.0017420461 -0.330424 -0.29991934 0.8080949 -0.6905405 -0.12751643 -0.5922483 0.272251 0.1775274 0.062788956 -0.1784728 0.4528043 -0.34131673 0.11337801 -0.016874505 -0.6369565 -0.12789036 1.3634002 0.8122054 -0.24303836 -0.55432075 1.1195174 0.50912344 0.05672066 0.6397897 -0.08479841 0.18276942 0.33162022 0.13525616 -0.03202047 0.99021226 0.13304657 0.11415179 -0.26300484 -0.1987634 -1.0233359 -0.5267894 -0.2942462 0.0045670653 0.6127349 -0.15682293 0.18219814 0.073263794 0.5819582 0.039414663 0.19475372 0.35341117 0.23521218 0.027626017 -0.35758558 0.25857005 0.22735544 1.355704 0.620589 0.35618216 -0.3695983 -0.13861321 0.38835198 0.18977922
676 -0.23962477 -0.2858447 0.44797808 -0.4104396 -0.048610654 -0.10016223 0.12524492 0.24985656 0.24149819 0.25935724 -0.07114846 0.10765141 -0.24737148 -0.2913325 -0.30474156 0.11298894 0.7206412 -0.567385 0.01270817 -0.15522832 0.2179438 0.55752456 0.12327014 -0.35370678 -0.4268404 -0.7165341 -0.054106355 -0.31766286 0.4549547 -0.56491625 0.0050017587 -0.05821907 0.071342595 0.2469755 0.06298135 0.21268371 -0.048547205 0.1530185 -0.14531277 -0.010815825 -0.035317477 -0.0783392 -0.22839752 -0.14321025 -0.26443502 0.2383545 -0.30724642 0.027362114 0.17687395 0.25550893 -0.13227713 -0.6190064 -0.0425318 0.37022683 0.03432207 -0.09899767 0.01795496 -0.2599689 0.061356775 -0.4829002 -0.05847984 0.09191646 0.1917801 0.13386396 0.1330025 -0.079829015 0.250283 0.109742954 -0.4006028 -0.18113822 0.108567335 0.32666832 -0.014483082 0.33609742 -0.45655176 -0.23735791 0.58395076 0.005428368 0.018200641 0.3356735 -0.85116035 0.010989554 0.4558552 -0.23370534 -0.02267961 -0.009469209 -0.21401255 -0.037978545 0.26186922 -0.15041797 -0.17299837 0.13391013 0.3503931 -0.17927265 -0.49688402 -0.059149947 -0.029018624 0.065083966 -0.23422994 0.42242804 -0.01362429 0.39210507 0.54297006 -0.22581476 -0.7551328 0.21729654 0.37004945 -0.07590259 -0.32152423 0.22029252 -0.19106576 -0.14336462 -0.049364578 -0.43151203 0.00622634 0.43324742 -0.1725506 0.10938011 0.2870681 0.28761348 -0.36669943 0.54478127 0.03956296 0.34644565 -0.027489103 0.22170147 -0.3688685 -0.33528063
1202 -0.047124475 -0.44087467 -0.028979624 -0.32053486 -0.50170994 0.3786225 -0.0047814082 0.4109711 0.23215103 0.22430353 -0.17064352 0.0060806246 0.19973263 0.39504123 -0.9443543 -0.56036645 -0.08716968 0.1077289 0.1385842 -0.16589618 0.102618404 0.035781767 -0.2529658 0.40373182 -0.30549872 -0.04805211 0.041667715 -0.5691799 0.05660142 0.060025565 -0.20504679 0.054095082 -0.17797212 -0.17356038 0.27549893 0.49581924 -0.3542676 0.39013684 -0.113418214 0.22389837 0.07419604 0.31588566 -0.05867363 -0.13290597 0.08746342 0.8235351 0.12197176 -0.6513583 0.25839424 0.6808175 -0.009808473 -0.09537147 -0.42321953 0.14773312 0.05057481 0.13148157 -0.23741524 -0.19838074 -0.33842915 0.08659854 -0.7155318 -0.35396448 -0.40133473 0.0067612147 0.16579768 0.23477545 -0.30831954 0.22900654 0.241338 0.5954807 -0.31427467 -0.35352716 0.3894072 0.13993739 -0.033609316 -0.4822473 0.2789149 -0.10508832 -0.06956345 0.0023214924 0.29845554 0.40349802 -0.61719954 0.19391342 0.44019598 0.36476597 0.08432567 0.010813131 0.1503409 -0.5851406 0.39372528 -0.07848473 0.5318846 -0.069828324 -0.6840202 -0.029736891 -0.34032685 -0.13838181 -0.12965001 0.57853687 0.042697474 0.12162987 0.040542234 -0.6443552 0.26331544 -0.20042363 -0.037943825 0.7340266 -0.59379107 -0.12575467 0.21065213 -0.124150895 -0.13800761 0.08625184 0.5704206 -0.51902014 -0.10695266 -0.18264133 0.043507833 -0.13548382 -0.21477365 0.54794943 -0.08353472 0.61623216 -0.73420155 0.17670994 -0.42391315 -0.26591387
1547 -0.36630452 -0.13108099 -0.3206818 -0.0014070797 -0.6066484 -0.044822894 -0.014356386 -0.22673729 0.033880163 0.120803386 0.17041722 -0.5017151 0.44985482 0.2455458 0.20762517 0.19509026 0.31706458 0.004803137 -0.5326287 0.016044598 -0.048923645 -0.3867858 -0.039475534 0.15102771 -0.099175625 -0.22319284 -0.11862908 0.114462145 0.35505268 -0.12271618 -0.2559129 0.17184162 -0.24542677 -0.0844313 0.35756248 0.25185898 -0.09440191 0.22750331 -0.7730511 -0.14907566 0.4348273 -0.049144577 -0.11283327 -0.21347894 0.25980508 0.3712161 0.49381894 -0.51354414 -0.0019064605 0.04334936 -0.15173246 0.098326825 -0.06952899 0.07783094 -0.38956934 0.3472071 -0.43829566 -0.8756006 0.2033373 0.6212585 0.7515583 -0.02782196 0.3748939 -0.06413233 -0.24982272 -0.28779227 -0.20478027 -0.10488193 -0.019676525 0.19693296 -0.18786158 -0.39641896 0.2807577 0.27591676 -0.046900876 0.08028279 -0.06650472 -0.3069345 -0.6685402 0.4647949 -0.20219326 -0.82912964 0.14803617 -0.22180742 0.057121634 0.22671804 -0.36043644 -0.18494381 -0.6336624 -0.5565098 -0.08089775 0.27518132 0.040276818 -0.26630685 -0.2739943 -0.07404684 0.43016535 0.40677562 -0.1418308 0.106840745 0.13395762 0.062255558 0.2438978 -0.09494557 -0.031006278 -0.065014035 0.40058422 0.556617 0.40321377 -0.03591686 0.21689579 -0.6461378 0.41198117 0.21962368 0.04836042 0.049654394 -0.13741215 0.10946103 0.16446891 0.5788837 0.032932054 -0.13226157 0.16018428 -0.70480305 -0.6257706 0.2939115 -0.061345704 0.05508186
1237 0.2018947 -0.05358652 -0.16298105 -0.18129472 -0.5607422 0.2348205 0.3599916 0.37148696 0.28613076 -0.082735784 -0.010526962 0.06047433 -0.035329416 0.6220362 0.35843176 -0.24175917 0.08162943 -0.070195265 -0.15350997 -0.07641106 -0.3051519 -0.06685965 -0.040713426 0.39544275 -0.26882792 0.38179263 -0.6732965 -0.14031881 0.25357383 -0.19243921 -0.29595417 -0.02836767 0.5428473 -0.3004612 0.452536 0.14741056 0.14798541 -0.21589062 -0.2018661 0.11458363 0.106749915 0.09910987 0.2416908 0.06935442 0.14885782 0.24436605 0.12811607 0.107004024 0.08122946 0.023179982 -0.01767988 0.34565613 0.13363539 0.20847477 0.36822698 0.17373389 -0.09741186 -0.3424169 -0.2955908 -0.4446761 -0.1828362 -0.092048496 0.06942733 0.067179404 -0.27139795 -0.12113846 -0.065200664 0.13076872 -0.08924528 -0.16252029 -0.062239844 0.32222238 -0.1302274 0.16004202 -0.022794664 -0.8015872 0.26444077 -0.2418707 -0.45174426 0.2930311 -0.27607697 0.11473891 -0.08033518 -0.022606371 0.32613578 -0.11565761 0.38529682 -0.6228788 0.07595692 -0.31457162 -0.07802106 -0.26614994 -0.046292488 -0.32779843 0.059223853 -0.5686278 -0.2601039 -0.06926208 -0.060840245 0.30177894 0.06731342 -0.02606199 0.3475656 -0.3064482 -0.56901807 -0.20186396 0.037377104 -0.32493523 0.3325884 0.53138053 -0.19559544 0.33113417 -0.20569542 -0.53290445 -0.12937018 0.18344244 0.2604434 -0.14355649 -0.04794498 -0.38670862 -0.008712966 -0.044577334 0.49628726 -0.40577072 -0.52954733 0.58511776 -0.13944507 -0.52373856
1131 0.05375735 -0.14804631 -0.0007799024 -0.58411384 -0.3652786 -0.13173558 0.12068479 0.28342974 -0.048478425 0.46592674 0.016436175 0.06993222 0.31743985 -0.24364573 -0.34506837 0.19227107 0.26933527 -0.85445577 -0.13519208 0.0054208674 -0.23858951 0.34805176 -0.10108555 -0.19961001 -0.23214048 -0.4110787 -0.016715324 -0.101537436 0.6428291 0.18196331 -0.36838976 0.116867766 0.23481718 0.13675013 0.68913 -0.052568186 -0.10487407 0.1784253 0.014860208 0.0739171 -0.24752727 -0.16978863 -0.08226615 -0.1748272 -0.13253543 -0.1905057 0.3137022 0.14429833 0.2564363 0.62714833 -0.044172008 -0.094342194 0.43891189 0.216404 0.3493163 0.1738978 -0.21598803 -0.17522763 0.03134692 0.19462754 0.19500546 0.15227807 -0.001999309 0.12170082 -0.3333653 -0.06624264 -0.15708582 0.32354167 0.7109128 -0.23188083 0.27765936 0.41172224 0.2962725 -0.20996533 0.4150382 0.11445805 0.41842297 0.39582834 0.32814118 0.112632826 -0.5330806 -0.05059012 0.3115022 -0.31491345 0.32445675 -0.019282518 -0.030144028 0.18445113 0.58774716 -0.6465435 -0.49946216 -0.25648704 0.17755872 -0.012060727 -0.35871145 0.1678081 0.19661444 0.33486128 -0.13074675 0.57910144 0.047538567 -0.1473373 0.23461294 -0.2810504 -0.4440093 0.103444934 0.04656492 0.23742917 0.18495297 0.20417914 0.48095384 -0.16460271 -0.13975741 -0.2521525 0.24705045 -0.24644808 0.060524784 -0.17008796 -0.12871078 -0.28370523 0.13004535 0.2903207 0.23882166 0.32087815 0.2469995 0.3640967 0.055580657 0.029921882
776 0.06595616 0.011383614 -0.28862357 0.06389078 -0.16359973 0.46036983 0.25874528 0.6365395 0.035301022 -0.19084673 0.12354417 0.07040103 0.45344606 -0.095873386 -0.5522608 -0.46964294 0.3760174 -0.20938325 0.22261731 -0.1983462 0.34381312 0.33553532 0.06371204 -0.035281662 -0.36506316 -0.20834717 -0.35135698 -0.21614914 0.39819366 -0.09156728 0.28807563 0.19066924 -0.0020269607 0.15251717 0.27215722 0.109532565 -0.028882012 -0.052110028 -0.15575689 0.26499066 0.3937551 -0.030738428 0.0013808907 0.1434329 0.301663 -0.11767107 0.40679446 -0.23664618 0.022381494 0.589133 -0.19277282 -0.28364655 -0.11390012 0.3085333 -0.2758816 -0.668651 -0.21584724 -0.14469016 0.029602569 0.035376158 -0.16453452 -0.12906072 -0.17825274 0.38945177 -0.07563467 0.08382341 -0.17232959 -0.08752702 -0.5301875 -0.027283305 -0.33871126 0.15505098 -0.34700143 0.19815604 0.3033786 0.020636985 0.101565056 0.16111195 0.21094857 -0.29070386 -0.529866 0.03702261 0.077280395 0.1593942 -0.2676397 -0.14548278 -0.13979293 0.70637965 0.013323007 -0.5718761 0.06432351 0.52037376 -0.13473049 -0.28060392 -0.608805 -0.1697327 0.55942595 0.5349519 -0.23464425 -0.66213685 0.16682118 0.040656153 0.38973925 -0.21060035 -0.10104485 -0.20906109 0.36878598 -0.12525874 0.13667655 -0.10049954 -0.037989188 0.39826766 -0.21311454 -0.2602364 -0.17931096 -0.045469243 0.08086664 0.018983478 -0.36615494 0.047866557 0.28956273 -0.16918923 0.19689152 -0.14145426 -0.0621144 -0.27111676 -0.092260435 0.3872189
1071 -0.776649 0.32597563 -0.045806307 -0.5252288 0.10996494 0.1209079 -0.15987763 0.37775168 -0.086505145 -0.39996153 -0.40264407 -0.10803239 -0.088664465 -0.06431757 -0.06988715 0.121005654 -0.30806053 -0.23593967 0.03419662 0.20707572 0.31015876 -0.57778424 0.5673664 -0.40230933 -0.18018574 0.24416761 -0.35381466 -0.3566322 0.19261245 0.2571085 -0.15776582 0.1345434 -0.42609566 -0.23424043 0.04521215 0.09716596 0.028708031 -0.83646685 -0.44999295 -0.081460886 -0.24306354 -0.014021745 0.18647908 -0.32535946 0.63891417 -0.13181895 0.28221598 -0.41315484 -0.59833175 0.22467028 0.15743425 -0.07949115 0.1787845 0.42877194 0.09940742 -0.016422275 -0.57994366 -0.101969324 -0.11410393 0.37513712 0.13257575 -0.3195258 -0.37372816 -0.057299398 0.017373007 -0.639562 -0.05298905 0.26529735 -0.52985305 0.2689991 0.4789778 -0.15716098 0.70194006 -0.6812805 -0.322593 -0.043371167 0.13450341 -0.041257903 0.39446902 -0.21431102 -0.10579935 0.38131562 0.21853693 -0.015136188 -0.41917875 -0.33277816 0.68030745 0.38828424 -0.06819929 -0.47878826 0.4543384 0.62425154 -0.47340605 -0.106011435 -0.105265506 0.066638276 -0.015153612 0.37714478 0.22441861 0.78373927 0.116700344 0.09847207 -0.0023297276 -0.01207728 -0.77557474 0.09350234 0.22415145 -0.09030016 0.5352686 -0.33033848 0.06436091 -0.41050768 0.5632089 -0.40901783 -0.17717789 -0.33255455 0.20177226 -0.014485551 -0.40404016 -0.27706233 0.2602925 0.90728307 -0.24442178 0.44735736 -0.084628984 -0.19011207 -0.034244236 0.046335433
797 -0.49567488 0.23370785 -0.070778646 0.056927636 -0.18745674 0.34958646 0.92473775 0.10441407 0.07389477 -0.18199965 -0.10625132 0.035460275 0.4449676 0.08419302 -0.39342034 0.14778647 0.36491823 -0.29787233 0.38993725 -0.086846136 -0.14074923 0.07207123 -0.10912605 -0.120717525 -0.312082 0.21191333 0.029265553 -0.022239938 0.36475664 0.060499966 0.123910904 0.23171544 -0.107494414 0.50961995 -0.24901237 -0.31440997 -0.3485017 -0.5435552 -0.42646784 0.011315718 -0.058637302 0.1971466 -0.5022707 -0.32539392 -0.035406325 0.569046 0.15284398 -0.050128426 -0.20230602 0.012743772 0.40877068 0.04993546 0.2406796 0.3791193 0.63767534 0.05559625 0.023390248 -0.3828549 -0.12584183 0.20852707 -0.4130373 -0.060647313 -0.26762325 0.29000372 0.28461033 -0.16418126 0.124746576 -0.21574923 -0.09006908 0.29676974 0.3324624 0.0972098 0.07823641 0.2470467 -0.25174212 -0.016241023 0.21077228 0.048080985 0.52988434 -0.061306782 -0.06196996 -0.028851235 0.0030091084 -0.012180051 0.70671767 -0.29332685 0.43354514 -0.41453964 -0.08964713 -0.16041906 0.05329452 -0.10373915 0.7740546 -0.02657814 -0.2939594 0.08574852 -0.28732413 0.09363704 0.15994607 0.15768167 0.48912826 0.19733904 0.6249391 -0.24624737 -0.111472555 -0.39131942 -0.116818786 0.053378947 0.027419876 0.33446977 -0.12706947 0.3364022 -0.22321384 -0.23910147 -0.5932803 -0.123088636 -0.10103406 0.26750112 -0.22064885 0.06832507 -0.11019678 -0.3148772 0.16819993 -0.26176742 -0.207924 0.23477338 0.33548272 0.5033003
626 -0.22995703 -6.8772344e-05 0.24198419 -0.2623507 -0.13651763 -0.44354248 0.7453063 0.20944935 0.6974576 -0.5173294 0.5733905 0.052995652 0.29098937 -0.06602635 -0.097668864 0.4353237 -0.29277 -0.7495496 -0.09132146 0.3096333 -0.087137066 -0.37839913 0.26144162 0.4253305 0.52086073 0.25475132 -0.16914293 0.4886211 -0.52027005 -0.3694134 -0.11280864 -0.40641224 0.11359669 0.3949569 -0.084322885 0.6161238 -0.058303107 0.16828471 -0.47954375 0.5350657 -0.30877414 0.3116186 -0.71707106 -0.06137027 -0.042023934 0.28595492 0.3912747 -0.12890218 -0.33610374 0.090986274 -0.003984894 -0.3318918 -0.20785502 0.61150897 -0.05757486 0.058654614 -0.4927528 0.6385585 0.25029844 -0.26596642 -0.3934936 -0.16663751 -0.1353448 0.34720135 -0.057063974 -0.19901651 -0.27994114 -0.6313395 0.25135598 -0.4750281 0.1928504 -0.42781156 -0.231248 0.54025006 0.59393656 -0.10664463 0.3051784 -0.58342135 -0.32048398 -0.4651858 -0.18145116 0.018569339 -0.0451349 -0.6375158 0.08622865 -0.30855897 0.035022117 0.13099445 0.15935649 -0.43459064 0.4750101 -0.11363617 0.3403973 -0.6608845 -0.39227194 -0.92604303 0.2570604 0.8219493 0.09697097 0.39805716 0.29272482 -0.64416814 -0.10567113 -0.43186796 -0.22777483 0.1704359 -0.058506824 0.123241335 0.06847978 -0.59573764 0.38838536 -0.17940228 0.4692708 0.12657149 0.31921938 -0.2975885 -0.7855331 0.48311585 -0.5193374 -0.5257082 -0.58318514 0.3719384 -0.6471788 0.0061726915 -0.14825764 -0.22533809 -0.2871773 0.7889266
1756 -0.4832015 0.6004643 0.87229353 -1.3644683 -0.747311 -0.58207697 -0.53898436 1.5889678 0.029651633 0.45733473 -0.088441454 0.44096592 -0.23821178 -0.58070576 -1.082073 0.5219632 0.32023656 -0.2988055 0.024893811 0.54209167 -0.2579793 -0.50760937 0.53156483 0.022278178 -0.27857822 -0.28875074 -0.61975443 0.3211264 0.1777256 -0.46360415 0.95425606 -0.656126 -0.12468524 0.12643272 0.077040665 -0.37127075 0.23561853 -0.99575084 0.014008707 -0.11361271 0.015518669 0.009345372 0.1285975 -1.3855605 -0.121705234 0.65657616 0.091732614 -0.80315506 0.18904568 0.90102 0.6144819 -0.39454713 0.015017856 0.017667131 1.0972939 -0.47757235 0.5339986 0.44042218 -0.07887988 0.103578426 0.80461377 0.6582092 0.03794068 -0.38629124 0.3527365 0.9135465 -0.5137649 0.18915698 -0.50162154 -0.15074931 -0.17017344 -0.3778813 -0.3119088 0.046670973 -0.09293272 -0.10062703 0.2688041 -0.50583446 -0.5989454 -0.011098729 0.23995565 0.22494772 -0.12558967 0.24283452 0.13137645 1.1566297 0.80504555 0.23921573 -0.37976867 -0.5131064 0.33504015 0.2815866 0.015876045 -0.82817996 -0.800369 -0.7283045 -0.015671251 0.9142656 0.5598438 0.22941118 0.50678396 0.03589204 0.5016248 0.399719 -0.8240709 -0.1056035 -0.5838497 -0.4508602 0.34178445 -0.40450972 -0.5934256 0.102539614 0.15802191 -1.0753924 0.5512562 0.44943628 0.3698165 -0.98842037 -0.79506487 -0.35678926 0.15815035 -0.59122014 -0.41824123 0.29474273 -0.6239105 0.37983662 1.2145563 -0.3226546
1663 -0.37366343 -0.6326633 -0.625669 0.10282219 -0.19301847 -0.26819232 0.595764 0.16821446 0.09610046 0.24342604 0.027304593 -0.3417825 0.52877057 -0.0455185 0.36554748 -0.06484535 0.66027606 0.3766899 -0.26030102 -0.17533533 0.29375154 0.011542742 -0.12781142 0.16169159 0.3158666 0.009626981 -0.80188644 0.09653847 0.14480592 0.122878365 -0.27908453 -0.48467332 -0.022322452 -0.018156938 -0.015759518 -0.0019783631 -0.062198568 0.2563321 0.065177634 0.31227058 0.036993854 0.3031702 -0.31553563 -0.16097333 -0.19143029 -0.058539573 0.4468353 -0.74933964 -0.042941693 -0.16419426 0.01344905 -0.07545649 -0.32445878 0.6113127 -0.58538276 0.61869776 0.34738517 -0.34888604 0.5205218 -0.35416195 0.45216244 -0.20477651 0.14774308 0.05326727 -0.19898623 0.22837177 0.3011673 0.55027294 -0.1584029 0.012207943 -0.16373181 -0.5298139 0.32078707 -0.15214337 0.29805297 0.37239167 0.08313145 -0.16297893 -0.3454828 0.083307214 -0.6277331 -0.7091281 -0.48651922 0.40878376 0.40454283 0.21013233 0.36351657 0.092399605 -0.30146572 -0.7713491 -0.14492469 0.32292914 -0.03820167 -0.3914152 -0.23434198 0.23765308 0.906626 0.108311094 -0.5691646 0.62598616 -0.036322434 0.1569192 0.26625437 -0.20325458 -0.59556985 0.44613785 0.23876199 0.35749927 0.16558672 0.1123243 -0.08235726 0.301613 0.29533517 0.040633522 -0.18019322 -0.20598057 -0.009157228 0.31342533 0.4719787 0.39959633 0.11396397 -0.36096668 -0.033973154 -0.26356372 -0.54154456 -0.16906244 0.25089484 0.013543215
213 -0.08632718 0.01188923 -0.3523565 -0.42226246 -0.1843202 -0.013734173 -0.03953688 -0.21509482 0.110383965 0.42634743 0.3752136 -0.094553046 -0.15348458 -0.17223735 -0.0937537 0.4007206 0.09777327 -0.4006737 0.24296977 0.366271 0.15569277 0.002800245 -0.5995577 -0.19300441 -0.23750702 0.22706021 0.0041410844 -0.403848 0.09066227 -0.25727054 -0.12522121 -0.4259476 0.5110273 0.22718464 -0.19451247 0.044832796 0.018451096 -0.089988045 -0.1474683 0.09975791 0.0320329 -0.19181156 -0.06862927 -0.4408847 0.27288216 -0.087379865 -0.29085603 -0.29316357 -0.34525403 0.14768827 -0.26208568 0.45413995 -0.11035906 0.38601732 0.19705631 0.21273099 -0.14699939 -0.36607122 0.08685527 -0.28187126 -0.24795523 -0.19189605 -0.7466928 -0.1169064 -0.14411741 -0.3267796 0.22985123 0.042025797 -0.45762718 0.16608684 -0.15720013 -0.21421023 0.2338805 -0.19306038 0.40114066 -0.4925919 0.10236836 0.03857602 0.091855206 0.02250242 0.078041345 -0.3946097 -0.05113764 0.35249805 0.0726287 0.043833625 0.49939904 -0.2670582 -0.110708915 -0.3616806 -0.28399542 -0.0072147264 0.20091471 -0.039671455 0.013939525 -0.26680845 -0.02072387 0.17137305 0.2505962 -0.24845883 0.19047606 0.046461493 -0.52911496 -0.0027868461 -0.007915363 0.023886532 0.16373855 0.25142622 -0.11204598 -0.2332674 -0.42541662 0.21165767 0.122113936 -0.40614915 0.6250979 0.03789658 -0.25476575 -0.576245 0.14905958 -0.3452839 -0.22180681 -0.005669359 -0.20694205 -0.37986606 -0.17097045 0.2924045 -0.43967947 -0.016287966
1211 0.0678932 -0.041509 -0.096271716 -0.37869138 -0.46550077 -0.097513065 0.85915786 0.49260017 0.6008867 -0.32028577 -0.20495483 -0.17440522 0.24052602 0.3940063 -0.4425865 -0.1758262 0.43318078 0.2714433 0.20954572 -0.23635878 -0.17568648 -0.66793346 0.04330829 0.11764273 0.27589667 0.46097332 -0.32272848 -0.3368871 0.19998196 -0.3240141 -0.27014488 -0.6489829 0.49682772 0.20381904 0.15045294 0.16913797 0.46550617 -0.2601123 -0.4979078 0.077534005 0.1710181 -0.232263 -0.2544559 -0.33692342 0.0023536321 0.6188965 -0.073831744 -0.059666127 0.46673775 0.32886228 0.4249496 -0.61310303 -0.056985576 -0.0596403 0.6523435 0.20188732 -0.3566899 -0.21242765 -0.5722206 -0.6669544 -0.17822179 -0.14414625 -0.36119363 0.35532957 -0.22647445 -0.2722483 -0.094192214 -0.07620034 0.16280195 -0.07204701 0.107999675 0.36944872 -0.2714241 0.3444899 -0.39387417 -0.36996055 0.15043539 -0.086058974 -0.27822107 -0.008966646 0.0864122 -0.102427594 -0.06466155 0.46763915 0.3670413 -0.3948614 0.52253276 -0.79461104 -0.33842432 -0.7345484 0.028753256 -0.08484467 -0.08991725 -0.17822549 0.3909197 0.042536765 -0.31158403 -0.3929578 -0.06526116 -0.244977 -0.26201704 0.03239746 0.43179926 -0.36634085 -0.6384535 0.1367718 -0.12864248 -0.007996787 0.58016545 0.23306869 -0.11724648 0.5763888 -0.33324426 -0.77020603 -0.46909428 0.11822914 -0.09548633 -0.032747164 -0.19594343 -0.4189999 0.2735273 -0.16253538 0.7329226 -0.43685138 -0.05014171 0.16226205 0.17971735 -0.21551824
86 0.29188815 -0.2767485 -0.34749863 -0.51144725 -0.38366282 0.34773594 0.21018657 0.13316695 -0.10069802 -0.09890599 0.029840488 -0.033972226 0.51107085 0.37202653 0.19724122 0.27063772 0.04889246 -0.3566895 0.104942285 -0.018359821 0.606342 0.31464827 0.13331614 0.10583605 -0.2699872 -0.014368606 0.031389732 0.22457813 0.0152463615 0.15649918 -0.02931211 0.09701941 -0.3271774 0.02317708 0.023768784 -0.16101848 -0.21884622 0.21499665 -0.11251648 0.25979996 0.39384863 0.11608391 0.06359241 -0.78576463 -0.1633284 0.23157084 0.7010059 -0.5343866 -0.42776555 0.41904682 0.09358747 -0.07326872 0.0027242284 0.27724603 -0.28634366 0.36628422 -0.10183067 -0.099586576 0.21970934 -0.540065 0.029127147 -0.13269918 0.3827427 0.118771166 -0.16429727 -0.08652468 -0.0073313275 0.50767285 -0.09045278 0.7594516 -0.02115561 -0.21771145 0.09201468 0.009327382 0.26611677 -0.0013148368 -0.41885364 -0.24102294 -0.37899813 0.09456334 -0.10493316 -0.50112224 -0.47752857 -0.14973646 -0.11343647 0.07668439 -0.39358014 0.015679494 0.2138545 -0.44911295 -0.097763516 0.30708596 0.017949615 0.06778931 -0.3041051 -0.008079356 -0.2914846 -0.07485619 0.2789647 -0.18336478 -0.2934449 0.39205 -0.10807561 -0.027633019 -0.28031367 0.049900785 -0.45008102 0.29102582 0.0015815594 -0.20232022 -0.5365011 0.32897156 0.41980577 -0.6144178 -0.28658843 0.12045636 0.34025502 0.34291524 0.084534116 0.44767347 0.056036975 0.3153662 -0.15310548 -0.20896327 -0.33045363 -0.3301149 0.26319793 0.13154283
216 -0.26243922 -0.26498273 0.0065161376 -0.2692439 -0.2563922 0.0601935 0.2792683 0.29757088 -0.06644489 -0.76067775 0.33905485 -0.09896899 0.29655373 0.26508188 -0.088429965 0.43254596 -0.044895407 -0.05600572 0.3212667 0.013298009 -0.058433253 -0.18390357 -0.048563592 -0.20125087 0.18652016 0.19920595 -0.026224488 -0.21231526 -0.10103712 -0.4903044 0.018277494 -0.5102801 0.06760169 0.06361238 -0.037202645 0.33076495 -0.43841553 0.026008151 0.4167663 0.021421378 -0.10695319 0.3044616 0.039663054 0.2221419 0.19642499 0.03279746 0.11915361 0.021328611 -0.02371002 0.13463141 0.5434271 -0.09043984 -0.35263908 0.3783669 0.077688776 0.4631478 0.3290879 -0.32227573 -0.36207685 0.10995599 -0.014317051 0.24000834 -0.43055904 -0.10977189 -0.0791932 -0.22118202 -0.09297456 0.4754471 -0.17771986 0.43503037 0.17539278 -0.104733326 0.07745724 0.44850126 0.019789847 -0.27692452 -0.25619906 -0.27565566 -0.24755913 0.20882939 0.28692263 -0.010975489 0.11264294 0.13436729 -0.25791124 -0.05561968 0.057861898 -0.2950496 -0.20085455 -0.52177155 -0.8525291 0.39758962 0.016755562 -0.39598155 -0.47331887 -0.21889925 0.5561219 0.2765429 0.043309856 -0.45121694 -0.04785044 0.53731716 0.03239435 0.002378508 -0.2061549 0.22348681 0.08364884 -0.13843456 -0.2144808 -0.1112472 0.45366713 0.43986344 0.28671303 -0.335959 0.10278358 0.080921546 -0.30346692 0.069687344 -0.09563502 0.0868534 0.022415034 0.38028586 0.6582467 -0.049026623 0.35766783 0.19096391 0.082995996 0.020937834
2620 -0.6767946 -0.11860272 0.7647986 0.81700104 -0.55187947 -0.60050064 -0.4345464 0.52867264 -0.8919224 0.24969693 0.13969742 0.52250224 -0.69397384 -0.27950874 -0.058696166 0.8225461 -0.25093734 0.74908566 0.817612 -0.6205064 -1.3415792 -0.5174702 0.1794841 -0.5668283 -0.3176012 -0.39608648 -0.36301434 -0.73434514 -0.1979062 -0.16083734 0.99565953 1.1865236 -0.350815 -0.22146313 0.6046901 0.22393797 -0.3634849 -0.26936024 -0.26751047 0.838348 -0.033227947 0.3452913 -0.30986497 -1.5751545 0.03560765 0.5751025 0.44104928 -0.9196319 0.86507356 0.39621016 -0.56294614 -0.33032733 -1.357949 0.73260933 -0.17546646 -0.42741838 -0.7907584 0.8440795 0.32303083 -0.37174296 -0.8612328 -0.7851144 -0.0016635007 1.0078593 0.59092075 -0.44334552 0.36481345 0.29219392 0.996953 -0.77836144 0.17295472 -0.2988924 0.5505396 0.39600965 0.28495595 -0.6849317 0.23405153 -0.74473464 -0.36230257 -0.0912419 -1.9862086 -0.5058436 -0.3758752 0.45824254 2.2296615 -1.0490754 -0.62922096 -0.17805794 0.3833574 -0.24233761 0.35488495 0.07712578 0.094046 -0.18133621 -1.3836439 0.21794163 0.3713872 0.8513545 -0.08802841 0.4600215 0.56720227 -1.0975114 -1.1483055 -0.8372139 -1.6781523 0.03538097 0.35488844 -0.9730268 -0.07331583 0.08558246 -0.45369068 -0.28843254 0.65545535 -0.97088003 -0.3896363 0.23581156 -0.111292616 0.11547696 -0.40843573 1.3302323 -0.38119736 0.26245204 -0.72006994 0.17327456 0.6060601 0.8071026 -0.07951465 0.1424201
